sequential/lstm/kernel:0
(1, 200)
[[ 0.05485204 -0.06803011  0.17021914 -0.08917604  0.15975903  0.05278174
   0.05652038  0.19534409  0.00309072 -0.18708709 -0.01439136  0.08486085
  -0.05271899 -0.11849096  0.16108999  0.21352808 -0.01308997  0.09994281
   0.17448378  0.08741551  0.1210178  -0.10489675  0.12240342  0.02986711
   0.08020085 -0.0673212   0.2370793   0.04944528 -0.12755331  0.05358915
   0.12620528  0.02495675 -0.06659325 -0.07046356 -0.0328356  -0.02234755
  -0.10578871  0.035535   -0.0082617   0.12805055  0.20669428 -0.05964626
  -0.22113857  0.03030796  0.16129524 -0.19031055 -0.07779392  0.11737065
   0.04269789  0.06278354 -0.14904276  0.04639526 -0.10802448 -0.02473849
   0.18846846 -0.16698347 -0.13727996  0.16197611 -0.00996718 -0.05434284
  -0.12473518  0.08201507  0.144159   -0.07624519  0.11096366  0.16915312
   0.07806584  0.06042787 -0.02215734 -0.07672442  0.05911908  0.13037424
   0.12886411 -0.00913033  0.08596262 -0.09762184 -0.15997441 -0.06144114
  -0.1531105  -0.11282373  0.00639583  0.04419705  0.14118402  0.02682633
   0.00734994 -0.0214387   0.06143636  0.02616166  0.07662165  0.20781526
   0.00154678  0.1290786  -0.0109369   0.01822414  0.04220358  0.12829113
  -0.1681082   0.14050353 -0.12484454 -0.10065278 -0.0562961   0.07790136
   0.07906941  0.17047384 -0.05984494 -0.02182524 -0.16353004 -0.0823217
  -0.01200186 -0.02764992  0.09192047  0.06025908  0.14671707 -0.12284964
  -0.07322966  0.10811099  0.15843858 -0.09044815  0.09669781 -0.04529012
   0.03283583  0.02915303  0.06678213 -0.12501082 -0.06942138  0.02755593
   0.13522032  0.13942549 -0.10818937 -0.00845816  0.00489233  0.14332432
  -0.10395844 -0.1620413   0.0837474   0.1560913   0.02294381 -0.08267216
   0.07262839  0.12960899 -0.15621243 -0.12659475  0.01894232  0.00872073
  -0.09416297  0.02480787  0.12584427 -0.08675089 -0.06093919 -0.12320806
   0.02314467  0.12778974  0.05568575  0.16105679 -0.05599309 -0.12181551
   0.09548514  0.12349393 -0.05563539 -0.21399227 -0.1344682  -0.01862436
   0.19085823 -0.00454508 -0.09994919  0.20701577  0.10682822  0.06638828
   0.15237114  0.13153365 -0.09109551 -0.10945006  0.00485777  0.10412224
   0.11060628  0.09328397  0.24623099  0.00479406  0.09224077  0.19110271
   0.06649197  0.07500555  0.16420569 -0.07898185  0.22834855 -0.0588915
  -0.23783495 -0.10220226  0.1583973   0.00858051  0.00536128 -0.02115717
  -0.02902283 -0.13703571  0.2872676  -0.12400926 -0.05499392  0.14228366
   0.09760217  0.12436875]]
sequential/lstm/recurrent_kernel:0
(50, 200)
[[-0.16871448  0.01437672 -0.01073245 ... -0.01867558 -0.03460658
   0.15032783]
 [-0.09665898 -0.01820721  0.07632084 ...  0.13229178  0.07335927
  -0.02580786]
 [-0.04181087  0.02239898  0.01883627 ... -0.04294687  0.1308495
   0.06591542]
 ...
 [-0.075063    0.04808094  0.03053484 ... -0.09437762 -0.07805592
  -0.07368552]
 [-0.02987591  0.06155416 -0.08922945 ... -0.07468615 -0.09341948
  -0.07430717]
 [ 0.05483371 -0.07495035 -0.04874796 ... -0.01886566  0.01562645
  -0.0557379 ]]
sequential/lstm/bias:0
(200,)
[ 9.94515419e-03  3.73989320e-03  1.28623610e-02  4.39774841e-02
  1.45129357e-02 -1.98717508e-02  2.43376214e-02  9.11191013e-03
 -1.07942531e-02  4.90626972e-03  1.98076223e-03 -1.96765903e-02
  6.13047741e-02  9.63789411e-03 -1.05413469e-02  1.33419922e-02
  3.88584174e-02  7.18680769e-02  3.67195159e-02 -2.70236693e-02
 -6.87230797e-03 -2.18132734e-02  2.26233387e-03  8.40541814e-03
 -1.37458742e-02 -4.81191240e-02  8.30217972e-02  1.68239940e-02
 -2.43500229e-02 -5.07918000e-03 -2.77794502e-03  5.04891202e-03
 -2.18615844e-03  4.92456183e-02  2.39704251e-02  5.00024017e-03
  4.85427259e-03 -1.53924432e-02 -1.26826717e-02  5.11380322e-02
  3.17458846e-02 -1.57675073e-02 -2.28623953e-02  3.24729667e-03
  1.44486398e-01 -2.96013877e-02 -3.61101091e-04  9.46764462e-03
 -2.40964722e-02  2.94803530e-02  1.04366779e+00  9.61705983e-01
  9.79182124e-01  1.00117958e+00  9.69157040e-01  1.03752840e+00
  9.72247183e-01  9.74248767e-01  1.00842464e+00  1.04688752e+00
  9.83917356e-01  8.92552972e-01  9.86767948e-01  9.81613874e-01
  9.57834482e-01  9.51612651e-01  9.94211555e-01  9.33575988e-01
  9.62386787e-01  9.87051249e-01  9.94811296e-01  9.93987799e-01
  1.00219095e+00  9.90017056e-01  9.05198038e-01  9.64658558e-01
  9.82784152e-01  9.89895582e-01  9.81617510e-01  9.89369810e-01
  1.02106690e+00  9.87185538e-01  9.92701948e-01  9.83059525e-01
  9.53214824e-01  9.83441412e-01  1.04220283e+00  9.98319983e-01
  9.88502860e-01  9.19896364e-01  9.85527277e-01  9.72188592e-01
  1.03690076e+00  1.05217683e+00  1.02959740e+00  1.00187755e+00
  9.79571104e-01  9.93815005e-01  9.33596194e-01  9.56198871e-01
  3.13617922e-02 -3.18581760e-02 -3.37733887e-02 -7.75576755e-02
  2.69086473e-02  1.41361933e-02  7.67057762e-02  3.55771482e-02
  1.27231786e-02 -1.16146705e-03 -3.75355408e-02 -3.28895859e-02
 -6.91138804e-02  5.59656583e-02  3.10618207e-02 -4.94482964e-02
 -6.98189065e-02  4.29566018e-02 -4.10911106e-02  1.17654754e-02
 -2.25322209e-02 -1.47653753e-02 -2.93264985e-02  5.39795831e-02
  2.83588283e-02 -1.20313484e-02 -5.87465316e-02 -6.06620312e-02
  5.38796559e-02  7.66936084e-03 -4.59832279e-03 -5.79208098e-02
  4.23305668e-02  7.14337975e-02 -3.53034623e-02 -6.73669204e-02
 -2.28209477e-02  3.21342349e-02 -3.29833850e-02 -6.08863384e-02
  7.59388134e-02  5.68512641e-02 -5.32360421e-03 -2.09455453e-02
  3.91043127e-02 -1.59795210e-02 -5.53845689e-02  3.93332392e-02
  2.50602569e-02  5.38590662e-02  9.51846968e-03  2.46948702e-03
  1.41019160e-02  4.05425690e-02  1.80892404e-02 -2.88739633e-02
  2.30281577e-02  8.86371639e-03 -1.30732199e-02  2.33900454e-03
  2.44172500e-03 -1.66395530e-02  5.74061833e-02  9.13012028e-03
 -5.55334007e-03  1.11111933e-02  3.64131369e-02  7.07803965e-02
  3.58437486e-02 -2.38785464e-02 -6.18509622e-03 -2.17003692e-02
  3.26306908e-03  7.73561327e-03 -1.37676699e-02 -5.00393026e-02
  8.04665983e-02  1.70752537e-02 -2.50812378e-02 -7.10301893e-03
 -2.45808880e-03  4.87321801e-03 -1.79050292e-03  4.93516177e-02
  1.68917682e-02  6.31608069e-03 -2.57961825e-03 -1.57021098e-02
 -1.24503020e-02  5.17677814e-02  3.43000926e-02 -1.52319195e-02
 -2.39869747e-02 -6.73706783e-03  1.42417595e-01 -2.92298943e-02
 -3.61096172e-04  9.12821759e-03 -2.41739377e-02  2.85662301e-02]
sequential/lstm_1/kernel:0
(50, 400)
[[-0.05702072 -0.0541045  -0.06966399 ... -0.15207803 -0.05662536
  -0.02305578]
 [-0.08577183  0.08516614 -0.07091198 ... -0.00787305  0.01735319
   0.13295227]
 [-0.06912395 -0.06970973 -0.00542945 ... -0.03075345  0.01662727
   0.01648949]
 ...
 [ 0.06531341 -0.00175429 -0.05222147 ...  0.11434852 -0.06613724
  -0.06409358]
 [-0.09908364 -0.12979655 -0.04261161 ... -0.0403727   0.06710987
   0.01042136]
 [-0.11472371  0.04986652 -0.05582634 ...  0.11439573  0.08427179
   0.08987752]]
sequential/lstm_1/recurrent_kernel:0
(100, 400)
[[-0.01718883  0.03210008  0.07157953 ... -0.0253361   0.02113202
   0.01283307]
 [-0.07364264 -0.01807985  0.02803518 ...  0.04325252  0.00681833
  -0.05937403]
 [ 0.06137906  0.00921962  0.01480875 ... -0.16573727 -0.03419942
   0.10058837]
 ...
 [-0.08044308  0.14547345 -0.05437122 ... -0.03445264 -0.11121345
   0.07156878]
 [ 0.0588917   0.14148779 -0.00025213 ... -0.04520773  0.01535394
   0.04698732]
 [ 0.02363082 -0.02988617 -0.00924898 ... -0.04699347  0.01527542
  -0.02969662]]
sequential/lstm_1/bias:0
(400,)
[-4.74677272e-02 -1.66299827e-02 -5.28435037e-02 -1.18209422e-02
 -5.30335419e-02 -5.80563284e-02 -9.88797024e-02 -6.49771839e-02
 -6.04510121e-03 -4.36235666e-02 -5.17809670e-03 -1.48114981e-03
 -4.42758352e-02 -7.05227032e-02 -1.70161147e-02 -2.07561813e-02
 -4.39073220e-02 -7.31603950e-02 -7.53810704e-02 -4.20684516e-02
 -3.33552249e-02 -7.23535866e-02 -5.35558164e-02 -3.15231904e-02
 -4.28185388e-02 -3.45667787e-02 -5.04741706e-02 -8.85265246e-02
 -3.64995338e-02 -1.62031613e-02 -2.07971707e-02 -2.35787947e-02
 -2.80135684e-02 -3.73680703e-02 -4.97281365e-02 -1.81656852e-02
 -5.15457354e-02 -3.06277517e-02 -2.87027340e-02 -2.94074249e-02
 -1.70916393e-02 -4.04400527e-02 -7.35967085e-02 -2.53853146e-02
 -5.41073866e-02 -6.87292069e-02 -3.14921401e-02  4.54020649e-02
 -1.01300497e-02  2.18674652e-02 -2.52478514e-02 -1.11645851e-02
 -4.54114079e-02 -3.51307839e-02 -5.22149429e-02 -4.61161919e-02
 -8.69915262e-02 -2.92088445e-02 -9.18927696e-03 -6.10682778e-02
 -7.25363009e-03 -1.94503684e-02 -1.43299662e-02 -9.76541080e-03
 -1.46820089e-02 -4.04547565e-02 -1.55541124e-02 -4.48991396e-02
 -4.14467826e-02 -2.13932525e-02 -5.48474817e-03 -2.97119208e-02
 -7.62124434e-02 -1.01836016e-02 -2.28303596e-02 -5.52611351e-02
 -1.98076144e-02 -4.88682985e-02 -5.51820695e-02 -2.26038769e-02
 -4.88533266e-02 -2.03900971e-02 -1.05218003e-02 -3.45860571e-02
 -7.87744895e-02 -6.69482127e-02 -4.57112826e-02 -2.93211788e-02
 -3.44474576e-02 -4.91540506e-02 -2.57634223e-02 -2.19359193e-02
 -6.98109567e-02 -2.08383203e-02 -6.42759353e-02 -1.01684565e-02
 -4.65694256e-02 -1.17634479e-02 -1.68794412e-02 -3.90450694e-02
  9.69181359e-01  9.88022149e-01  9.67912138e-01  9.89575744e-01
  9.52238023e-01  9.10979807e-01  9.09804225e-01  9.46809709e-01
  9.93392527e-01  9.35005665e-01  9.92331445e-01  9.91732776e-01
  9.43451107e-01  9.16249394e-01  9.90381658e-01  9.89780724e-01
  9.61341023e-01  9.37668085e-01  8.98903310e-01  9.64459419e-01
  9.87362146e-01  9.27395105e-01  9.54748392e-01  9.83388424e-01
  9.53196585e-01  9.75942433e-01  9.57467556e-01  9.21884656e-01
  9.62962985e-01  9.97221529e-01  9.77508485e-01  9.83736455e-01
  9.91183698e-01  9.78472412e-01  9.54572201e-01  9.92347538e-01
  9.59110022e-01  9.59654450e-01  9.79995608e-01  9.83340204e-01
  9.71860528e-01  9.55676019e-01  9.47841227e-01  9.96887565e-01
  9.25611198e-01  9.49748814e-01  9.83467281e-01  1.05240428e+00
  9.88291085e-01  1.00206029e+00  9.78956223e-01  1.00343645e+00
  9.55998898e-01  9.67136919e-01  9.48698282e-01  9.46574569e-01
  9.01581168e-01  9.88363922e-01  9.92360413e-01  9.50784385e-01
  1.00417662e+00  9.68711674e-01  9.86126781e-01  9.91468787e-01
  9.94440854e-01  9.72996950e-01  9.98357177e-01  9.66978729e-01
  9.59579527e-01  9.87978458e-01  1.00228274e+00  9.31864262e-01
  9.24309969e-01  9.99093652e-01  9.68438864e-01  9.55653965e-01
  9.92566526e-01  9.56984162e-01  9.46738124e-01  9.97800946e-01
  9.40983772e-01  9.89385486e-01  9.94546294e-01  9.59400952e-01
  9.51779485e-01  9.38739181e-01  9.59741652e-01  9.79792953e-01
  9.66972589e-01  9.46880043e-01  9.59170103e-01  9.91585851e-01
  9.47757483e-01  9.87649202e-01  9.42460537e-01  1.00020051e+00
  9.57390130e-01  1.00277519e+00  1.00285900e+00  9.69367445e-01
 -6.66135317e-03  1.18030803e-02  4.23214352e-03  6.70748064e-04
 -1.42930374e-02  1.17593324e-02 -1.54552804e-02 -7.25619309e-03
 -1.04485536e-02 -1.15302419e-02 -1.27475783e-02  3.61505314e-03
  3.65417614e-03 -1.17972260e-02 -8.58795922e-03 -1.35275079e-02
  6.89909561e-03 -1.45902403e-03 -1.83446228e-03 -4.79208492e-03
  1.29128685e-02 -9.51890368e-03 -9.64510348e-03  1.13032237e-02
  2.90991855e-03  9.94871370e-03  2.34662415e-03 -9.77637619e-03
  7.01549929e-03  9.89706907e-03 -1.29821673e-02  7.64897745e-03
 -1.06847547e-02  1.46236997e-02  4.33336105e-03  1.01750791e-02
 -4.77662217e-03  6.32270891e-03  4.53117769e-03  1.43262697e-02
  8.89519136e-03  1.00340089e-02 -7.46609317e-03  7.78796058e-03
 -8.62681400e-03  1.66316202e-03 -9.65724792e-03 -1.66467428e-02
 -6.12699427e-04 -1.27743380e-02  8.25777091e-03  1.01963123e-02
 -8.16639792e-03  6.02863356e-03  7.28152879e-03  1.98277237e-04
 -1.95091148e-03  6.15794398e-03 -3.16243968e-03  1.07771289e-02
  5.72551461e-03 -8.40826798e-03 -3.36476229e-03 -1.15896994e-02
 -1.13587063e-02  5.92600601e-03 -6.85576070e-03 -8.56040977e-03
  1.96055379e-02 -7.40191480e-03  1.27789360e-02 -4.11122665e-03
 -1.04086455e-02  7.18907220e-03  2.59549147e-03  8.60048831e-03
 -1.03157470e-02  6.63413573e-03 -5.83007874e-04  1.17570981e-02
 -3.87852015e-05 -7.86272995e-03  1.41688362e-02  2.15305109e-03
  3.51886288e-03 -1.30077945e-02 -5.59739361e-04 -1.46985091e-02
 -2.19145417e-03  1.28411595e-02 -6.67106546e-03  1.25557687e-02
  6.64995378e-03 -1.18249701e-02 -4.30489052e-03  1.29372859e-02
  5.48419403e-03  1.19215930e-02  8.93818773e-03  9.76236723e-03
 -5.06007522e-02 -1.69941150e-02 -5.49748503e-02 -1.63775682e-02
 -5.46177551e-02 -5.91478758e-02 -1.02445446e-01 -6.57566190e-02
 -6.38690963e-03 -4.60628830e-02 -7.09454343e-03 -4.29242430e-03
 -4.58009988e-02 -7.03837350e-02 -1.85978506e-02 -2.04744954e-02
 -4.49620560e-02 -7.32727274e-02 -7.97053501e-02 -4.28889580e-02
 -3.47919390e-02 -7.35336468e-02 -5.51405847e-02 -3.22569534e-02
 -4.45835628e-02 -3.49880159e-02 -5.14304601e-02 -9.09854099e-02
 -3.75310183e-02 -1.52120935e-02 -2.08001714e-02 -2.37416066e-02
 -2.91849896e-02 -3.71828489e-02 -4.96591069e-02 -1.78050604e-02
 -5.13268411e-02 -3.31080183e-02 -2.90947724e-02 -2.89408565e-02
 -1.84238888e-02 -4.14603464e-02 -7.45739937e-02 -2.40836553e-02
 -5.42226434e-02 -6.93594739e-02 -3.30747813e-02  4.37091626e-02
 -1.08816978e-02  1.87734216e-02 -2.36864481e-02 -1.21831307e-02
 -4.74170111e-02 -3.60611193e-02 -5.36380000e-02 -4.80677895e-02
 -8.81735757e-02 -3.11137475e-02 -9.96365212e-03 -6.04224131e-02
 -8.41594208e-03 -2.30088439e-02 -1.64103191e-02 -1.05307018e-02
 -1.49399675e-02 -4.00211252e-02 -1.71428900e-02 -4.67058346e-02
 -4.21095565e-02 -2.20442750e-02 -7.02536898e-03 -2.97625512e-02
 -7.67119601e-02 -1.05030769e-02 -2.31684353e-02 -5.23571000e-02
 -1.93864182e-02 -4.94062714e-02 -5.53967878e-02 -2.24115793e-02
 -4.82773706e-02 -2.11926717e-02 -1.13033392e-02 -3.47230956e-02
 -7.93073848e-02 -6.70582280e-02 -4.60294597e-02 -3.04656588e-02
 -3.71284485e-02 -4.96544652e-02 -2.80339085e-02 -2.26668902e-02
 -7.06697181e-02 -2.03748830e-02 -6.46166429e-02 -1.09522184e-02
 -4.74754237e-02 -1.19949766e-02 -1.70126967e-02 -3.86223532e-02]
sequential/dense/kernel:0
(100, 1)
[[-0.19610152]
 [ 0.12319513]
 [-0.16580907]
 [-0.08277071]
 [-0.13091946]
 [ 0.11775718]
 [-0.13661385]
 [-0.20075126]
 [-0.13663572]
 [-0.13308364]
 [-0.15990265]
 [ 0.09780684]
 [ 0.12997031]
 [-0.13073276]
 [-0.09107553]
 [-0.11557726]
 [ 0.15572359]
 [-0.18894614]
 [-0.15960924]
 [-0.19283907]
 [ 0.15507384]
 [-0.15831818]
 [-0.1752202 ]
 [ 0.16902852]
 [ 0.09704519]
 [ 0.18292736]
 [ 0.18229918]
 [-0.15879156]
 [ 0.17621501]
 [ 0.1835261 ]
 [-0.18134305]
 [ 0.13514133]
 [ 0.10362413]
 [ 0.16615485]
 [ 0.174781  ]
 [ 0.13076253]
 [-0.17399842]
 [ 0.09729267]
 [ 0.16412877]
 [ 0.22217526]
 [ 0.12743688]
 [ 0.1957401 ]
 [-0.17980567]
 [-0.112225  ]
 [-0.17404962]
 [-0.2053316 ]
 [ 0.11658521]
 [-0.10706139]
 [ 0.10945065]
 [-0.1764568 ]
 [ 0.1589309 ]
 [ 0.11760978]
 [-0.18840964]
 [ 0.14180385]
 [ 0.16994989]
 [-0.10840894]
 [-0.18929511]
 [ 0.08289621]
 [ 0.10214397]
 [ 0.1825111 ]
 [ 0.08162548]
 [-0.09321628]
 [-0.09895551]
 [-0.15990609]
 [-0.15599585]
 [ 0.1735937 ]
 [-0.11581396]
 [-0.17993087]
 [ 0.09320676]
 [-0.14946201]
 [ 0.12395121]
 [-0.20606999]
 [-0.19959714]
 [ 0.1453238 ]
 [ 0.09254476]
 [ 0.1776873 ]
 [-0.12056006]
 [ 0.22084254]
 [-0.1065256 ]
 [ 0.1522923 ]
 [ 0.11934076]
 [-0.11095487]
 [ 0.13570671]
 [ 0.1095117 ]
 [-0.14962061]
 [-0.20238318]
 [-0.18535817]
 [-0.10796249]
 [-0.13083996]
 [ 0.18434612]
 [-0.09652989]
 [ 0.21019886]
 [ 0.18953332]
 [-0.19355085]
 [-0.20955941]
 [-0.09785348]
 [ 0.09294619]
 [-0.11331663]
 [-0.11606281]
 [ 0.17038085]]
sequential/dense/bias:0
(1,)
[0.38532162]
