sequential/lstm/kernel:0
(1, 200)
[[ 1.01941615e-01  4.82785180e-02  5.84319159e-02 -3.01314089e-02
   9.80433226e-02  1.14397533e-01  1.31136119e-01  1.42590344e-01
   4.07824144e-02 -1.82988644e-01 -1.86138302e-02  1.14435174e-01
  -4.12968174e-02 -1.12867326e-01  5.17197736e-02  2.05112159e-01
   2.19007302e-02  2.91514248e-01  2.90609300e-01  6.64038509e-02
  -3.98469381e-02 -2.20349923e-01  2.43499316e-02 -1.51896914e-02
   1.08237350e+00 -1.49650067e-01  7.15728879e-01  8.93783867e-02
  -2.11058080e-01  8.86257098e-04  8.46972689e-02 -2.88411370e-03
  -1.46972388e-01  2.60067321e-02 -1.04118235e-01  6.61837086e-02
  -6.80726096e-02 -1.67141445e-02 -6.95371628e-02  3.89513046e-01
   2.86209255e-01 -1.85341060e-01 -2.58208513e-01  7.18017146e-02
   2.55373955e-01 -3.46245944e-01  2.89775967e-03  2.85652280e-02
  -2.13722344e-02  2.09882244e-01 -8.40376839e-02 -3.89008611e-01
  -3.08550775e-01 -1.94243073e-01  2.07778513e-02 -1.30022004e-01
  -2.94306368e-01 -2.12899521e-02  3.57455686e-02  2.87412899e-03
  -1.98529407e-01 -2.73661137e-01 -3.27024702e-03 -2.98356533e-01
  -2.00111896e-01 -7.91988224e-02 -1.17398247e-01 -4.02633756e-01
  -4.47279841e-01 -1.71813801e-01 -1.05453953e-01 -9.86829749e-04
   2.52698008e-02 -1.67051196e-01 -4.61177140e-01 -2.25305617e-01
  -5.49371898e-01 -2.80441821e-01 -2.53484786e-01 -2.55773365e-01
  -1.03331953e-02 -1.13695890e-01  5.81863709e-02 -2.13967204e-01
  -3.40229452e-01 -2.54376888e-01  1.05824217e-01 -5.60096912e-02
  -2.58582793e-02 -1.68688193e-01 -1.80005640e-01 -4.94012907e-02
   5.36795938e-03  7.33622536e-02 -2.61117488e-01 -3.28770652e-02
  -4.20728475e-01 -2.68330667e-02 -3.68141979e-01 -3.71592730e-01
  -7.10455552e-02  1.38943553e-01  1.14648961e-01  1.86166227e-01
  -8.50788131e-02 -4.65241782e-02 -1.88116774e-01 -1.13742724e-01
  -3.55217792e-02 -1.64920390e-02  1.22805446e-01  1.23501100e-01
   1.64661705e-01 -1.66016728e-01 -1.20434493e-01  1.36920884e-01
   1.74773112e-01 -1.47499904e-01  1.47057965e-01 -4.22860906e-02
   6.53516427e-02  4.82358336e-02  1.02940187e-01 -1.50907859e-01
  -1.85069561e-01  7.23862499e-02  1.66172370e-01  1.82644799e-01
  -1.18209012e-01 -1.01527506e-02  1.12530580e-02  1.77504092e-01
  -1.12328596e-01 -1.87170342e-01  1.24391869e-01  2.03972325e-01
   5.07929102e-02 -8.12264755e-02  1.20110944e-01  1.69277653e-01
  -1.83011964e-01 -1.53318733e-01  3.60719883e-03  2.66505275e-02
  -1.48673669e-01  6.78292811e-02  1.86306760e-01 -1.25122771e-01
  -8.72236490e-02 -1.59918755e-01  7.37118721e-02  2.28908062e-01
  -6.29333630e-02  2.11380452e-01 -1.14882477e-01 -6.55573756e-02
   1.60188451e-01  6.79619834e-02 -2.30145380e-02 -2.05156714e-01
  -1.33901224e-01  9.48247500e-03  1.97163999e-01 -7.44219450e-03
  -2.13458508e-01  1.84984848e-01  1.36604816e-01  2.48695627e-01
   2.58039832e-01  1.16677143e-01 -2.49974728e-01 -2.13493615e-01
  -9.14322436e-02  5.14028929e-02  1.08880043e+00  3.39996815e-02
   7.12612331e-01  3.21690813e-02  1.88496299e-02  1.64773017e-01
   3.52694616e-02  4.80579175e-02  9.14634466e-02  1.05065377e-02
   1.46132126e-01  1.87615901e-02 -2.11536452e-01 -1.54933527e-01
   1.10443518e-01  2.56958336e-01  8.12335834e-02 -1.46985531e-01
  -3.59882079e-02 -1.17671058e-01  3.78001839e-01 -2.57353842e-01
   1.77134145e-02  5.07807881e-02  4.26906906e-02  2.64262259e-01]]
sequential/lstm/recurrent_kernel:0
(50, 200)
[[-0.12646706 -0.00783472 -0.04159622 ... -0.05852029 -0.07927828
   0.18106703]
 [ 0.03184148 -0.05946332  0.05873885 ...  0.13392274  0.1239833
  -0.038316  ]
 [ 0.02500345 -0.03865331  0.03197716 ... -0.04393957  0.11094071
   0.04196339]
 ...
 [-0.09609015  0.08313882  0.0234956  ... -0.09323161 -0.07173649
  -0.05312748]
 [-0.10426451  0.13566795 -0.09808626 ... -0.06577959 -0.09771859
  -0.04210477]
 [-0.06655769 -0.00745626 -0.06280404 ... -0.01513241 -0.01559795
  -0.07569467]]
sequential/lstm/bias:0
(200,)
[ 4.12370544e-03  2.28683233e-01 -5.35607636e-02  1.64844260e-01
 -9.03396234e-02 -4.41691466e-02  1.68028280e-01 -1.80515442e-02
 -5.90750277e-02 -1.05344050e-01 -1.18540816e-01  9.03238505e-02
  1.58431485e-01  4.77419868e-02 -3.64758819e-02  1.22150041e-01
  1.42673001e-01  3.26407582e-01  2.01562390e-01 -1.50448859e-01
 -1.75729990e-01 -2.03552991e-01 -1.27289250e-01  2.21187435e-02
  1.01205289e+00 -1.72285825e-01  5.81496954e-01  1.05603427e-01
 -1.45427674e-01 -1.04362413e-01 -9.74314883e-02 -8.26063007e-03
 -1.23749964e-01  2.41534695e-01  7.04598278e-02  1.35807976e-01
 -2.74782795e-02 -1.53380901e-01 -1.59458458e-01  4.21960831e-01
  2.01799244e-01 -9.86355022e-02 -1.80794120e-01 -2.29845364e-02
  2.63096303e-01 -1.95227787e-01  1.09621108e-01 -5.12414500e-02
 -6.53708652e-02  2.32301310e-01  1.07434833e+00  6.53886974e-01
  8.18352163e-01  8.72962058e-01  7.59081781e-01  1.00691652e+00
  8.85938764e-01  8.00474584e-01  9.84395146e-01  1.01517558e+00
  8.12588692e-01  5.87452173e-01  8.87153804e-01  7.75099456e-01
  7.01102436e-01  8.07158351e-01  8.53329599e-01  5.67082942e-01
  6.25280499e-01  8.19711447e-01  8.37951839e-01  8.11178982e-01
  8.68030787e-01  8.83001268e-01  5.05464137e-01  8.18639636e-01
  7.01572418e-01  8.30622137e-01  8.49096894e-01  8.15742433e-01
  9.95383799e-01  8.25543940e-01  8.78011644e-01  8.45672846e-01
  7.06087768e-01  7.87781596e-01  1.03340912e+00  8.75234067e-01
  8.10344756e-01  7.16177821e-01  8.78114402e-01  8.35927725e-01
  9.46006060e-01  1.06619048e+00  7.05150902e-01  8.44641089e-01
  7.75273442e-01  8.55296791e-01  7.19276190e-01  7.41741180e-01
  4.27178480e-02 -7.43998960e-02 -5.88783920e-02 -1.07178822e-01
  4.29352187e-02  2.60764770e-02  1.08294763e-01  6.58859387e-02
  2.24565361e-02  1.17614202e-03 -6.93674609e-02 -6.85686767e-02
 -9.65242907e-02  1.03188522e-01  6.71390370e-02 -7.69404471e-02
 -1.01946145e-01  8.35387185e-02 -8.21076334e-02  2.12126002e-02
 -3.93347368e-02 -2.17141490e-02 -5.72478026e-02  8.52483138e-02
  9.67608318e-02 -4.28776890e-02 -9.23943892e-02 -9.54401121e-02
  6.94401413e-02  1.63644273e-02 -5.38841914e-03 -9.78605598e-02
  5.91581799e-02  1.02858506e-01 -7.59122223e-02 -1.08074270e-01
 -3.57456580e-02  4.70510088e-02 -6.09734654e-02 -9.38579217e-02
  1.04093470e-01  8.26416090e-02 -1.61887554e-04 -3.03912498e-02
  8.14930350e-02 -4.01800200e-02 -1.03187300e-01  6.98130652e-02
  7.08230957e-02  9.36926827e-02  1.38527970e-03  2.34436214e-01
 -5.60816266e-02  1.63046524e-01 -8.86941627e-02 -4.97519746e-02
  1.67483300e-01 -1.95569657e-02 -6.13613762e-02 -1.08309433e-01
 -1.15982316e-01  8.99124518e-02  1.60337687e-01  4.61146310e-02
 -4.17440757e-02  1.23801380e-01  1.42358691e-01  3.27585787e-01
  2.02386066e-01 -1.51481897e-01 -1.76382869e-01 -2.04040170e-01
 -1.27152771e-01  2.18063667e-02  1.02019632e+00 -1.75564229e-01
  5.79510272e-01  1.03928745e-01 -1.48746580e-01 -1.09320737e-01
 -1.01092868e-01 -9.05136019e-03 -1.20695420e-01  2.44235441e-01
  7.47836083e-02  1.33634686e-01 -3.25828940e-02 -1.54654041e-01
 -1.62195235e-01  4.24186796e-01  2.00298235e-01 -9.76691619e-02
 -1.84526816e-01 -2.97420248e-02  2.65835077e-01 -1.93666339e-01
  1.09161399e-01 -5.09014241e-02 -6.64168745e-02  2.32933268e-01]
sequential/lstm_1/kernel:0
(50, 400)
[[-0.10474833 -0.10327817 -0.06668958 ... -0.13112763  0.03026265
   0.02188459]
 [-0.00592831  0.06357347 -0.03676154 ...  0.04120574  0.06751989
   0.21195461]
 [-0.00616512 -0.03459293  0.03846573 ...  0.08046444  0.04116246
   0.06843186]
 ...
 [ 0.0088064   0.00156897 -0.09829394 ...  0.04714843 -0.10339765
  -0.06747979]
 [-0.15823632 -0.17492697 -0.06331248 ... -0.13289556 -0.03163632
  -0.09333578]
 [-0.11801469  0.06296319 -0.07151484 ...  0.1105369   0.08559788
   0.05481942]]
sequential/lstm_1/recurrent_kernel:0
(100, 400)
[[-0.06294818  0.00027026  0.06156331 ... -0.05614478 -0.0002297
  -0.00801885]
 [-0.03402188  0.01761403  0.02552769 ...  0.05554814 -0.00984427
   0.01148759]
 [ 0.08292548 -0.03749892 -0.00061283 ... -0.14564654 -0.00655941
   0.07045671]
 ...
 [-0.06281325  0.1208395   0.00658801 ...  0.00363978 -0.07636223
   0.03420987]
 [ 0.09305406  0.14178418  0.00484444 ...  0.03705946  0.08888715
   0.02876508]
 [ 0.03331127 -0.04209693  0.00163123 ... -0.08303428 -0.0039538
   0.01571792]]
sequential/lstm_1/bias:0
(400,)
[-2.86743134e-01 -1.32798508e-01 -2.89974570e-01 -1.99003860e-01
 -2.41467670e-01 -3.54686350e-01 -3.60349089e-01 -3.05116236e-01
 -9.37496573e-02 -2.87421972e-01 -1.05875365e-01 -2.00770169e-01
 -3.18480968e-01 -2.77620316e-01 -1.26923501e-01 -1.51473537e-01
 -2.83665746e-01 -4.00034904e-01 -3.34013402e-01 -2.82417417e-01
 -1.84963033e-01 -3.06980729e-01 -2.80535042e-01 -1.63605601e-01
 -3.07848394e-01 -2.06406757e-01 -2.93107688e-01 -3.16651970e-01
 -2.92061925e-01 -1.42930582e-01 -2.05397740e-01 -1.78536832e-01
 -2.22180232e-01 -1.43802181e-01 -2.68591344e-01 -1.38161778e-01
 -2.94262201e-01 -2.80557394e-01 -2.77861446e-01 -1.84161663e-01
 -2.72072762e-01 -2.92483985e-01 -3.91544223e-01 -2.01641530e-01
 -3.26322377e-01 -3.73583287e-01 -2.61714637e-01 -2.97859032e-02
 -2.51635492e-01 -4.64132279e-02 -2.27390438e-01 -9.87780169e-02
 -2.41954729e-01 -2.52573848e-01 -3.01723748e-01 -2.93838233e-01
 -2.84696281e-01 -2.66548276e-01 -7.62113482e-02 -3.34862590e-01
 -1.11697637e-01 -2.25136846e-01 -2.79752523e-01 -1.10407583e-01
 -1.46446168e-01 -2.65556455e-01 -1.85245872e-01 -2.71974206e-01
 -2.54295528e-01 -1.92507163e-01 -9.79607925e-02 -3.26036930e-01
 -2.73386002e-01 -1.05063058e-01 -2.90169239e-01 -2.91791916e-01
 -1.56284183e-01 -2.90748298e-01 -2.77353823e-01 -9.41156968e-02
 -2.96766788e-01 -1.38927206e-01 -1.53919235e-01 -2.87536442e-01
 -3.57631147e-01 -2.84240991e-01 -3.06407511e-01 -2.06082553e-01
 -2.91292787e-01 -2.84790426e-01 -2.63354301e-01 -1.39526084e-01
 -3.40421617e-01 -1.71352968e-01 -3.07211250e-01 -1.36564061e-01
 -2.80029178e-01 -2.13419810e-01 -1.87296912e-01 -1.55336022e-01
  7.70825565e-01  9.37058747e-01  7.79342175e-01  9.40954030e-01
  7.65750468e-01  6.88875079e-01  6.61721766e-01  7.40456641e-01
  9.66562033e-01  7.15719104e-01  9.75483716e-01  9.30000007e-01
  6.84500992e-01  6.93858862e-01  9.39044297e-01  9.24927294e-01
  7.52926052e-01  6.90351665e-01  6.43040895e-01  7.85264969e-01
  8.86284351e-01  7.26204276e-01  7.82455266e-01  9.19231951e-01
  7.49342620e-01  8.41039360e-01  7.51346469e-01  6.86842322e-01
  7.63462126e-01  9.46415305e-01  8.38785887e-01  8.50068033e-01
  8.56551647e-01  9.42943156e-01  7.74063826e-01  9.44518268e-01
  7.27009773e-01  7.82889187e-01  7.63060808e-01  8.79015088e-01
  8.16564441e-01  7.35102773e-01  6.93297923e-01  9.19538140e-01
  6.17010415e-01  7.31066585e-01  8.01412642e-01  1.06476915e+00
  8.69942188e-01  1.05425894e+00  8.15024018e-01  9.97073710e-01
  7.87251949e-01  7.83176959e-01  7.24787295e-01  7.59223580e-01
  5.83173752e-01  8.51681828e-01  1.07183933e+00  7.26927757e-01
  9.96541202e-01  8.11503410e-01  7.88794935e-01  9.46367741e-01
  9.04473782e-01  8.28462601e-01  8.91857862e-01  7.87149668e-01
  7.66424000e-01  9.20098782e-01  1.00450778e+00  7.07702875e-01
  7.52464294e-01  9.79125619e-01  7.55910397e-01  7.69627571e-01
  9.58295882e-01  7.37437069e-01  7.57439971e-01  1.00543320e+00
  7.10610449e-01  9.36178207e-01  9.06924188e-01  8.00922394e-01
  7.28657067e-01  7.88782835e-01  6.64544761e-01  8.12579095e-01
  7.27265418e-01  7.38696456e-01  7.93555915e-01  9.48300064e-01
  6.74087882e-01  9.09609079e-01  7.39730120e-01  9.44597602e-01
  7.37382591e-01  8.52250099e-01  9.21345592e-01  9.04948056e-01
 -2.03238451e-03  3.50374728e-03  1.95720303e-03  7.67805800e-03
 -1.28860935e-03  6.74268557e-03  7.60342600e-03  4.10224171e-03
 -1.91373751e-03 -2.63623602e-04  2.51352694e-03 -2.72807316e-03
  8.67113099e-03  9.62396339e-03  2.10583839e-03 -2.30081193e-03
  2.09663156e-03 -1.09503036e-02  3.00465105e-03  2.97449203e-03
  5.99810993e-03 -1.06403381e-02  5.53765381e-03 -7.37021328e-04
  7.11581996e-03  5.58201317e-03  3.61579331e-03 -7.50211533e-03
  4.84918850e-03  2.38996255e-03  3.28713120e-03  3.02130147e-03
 -6.22904685e-04 -2.17168056e-03 -3.03245732e-04 -1.57907605e-03
  6.36981148e-03 -4.72470885e-03 -3.67324683e-03 -4.30815248e-03
  4.68039839e-03 -5.60257537e-03  1.26443687e-04  7.55393784e-03
 -3.24404007e-03  3.84826632e-03 -1.06848711e-02  7.49979459e-04
  6.03502034e-04 -1.73806329e-03 -1.60335249e-03  8.44405382e-04
  6.46333268e-04 -3.54143116e-03 -1.05387042e-03 -1.59575092e-03
 -1.20700290e-02  2.28361413e-03 -1.56578782e-03  1.40675716e-03
 -2.05963058e-03 -2.82825157e-03 -4.43238812e-03 -2.90388777e-03
  1.74812926e-03  2.05694372e-03 -3.93709866e-03 -3.86268203e-03
 -9.93651804e-03  1.21804024e-03 -3.59745987e-04 -2.21662223e-03
 -6.83840923e-03 -1.12604711e-03  3.14824376e-03 -1.89508416e-03
  2.31913500e-03  1.98527332e-03  1.37725836e-02  1.64394954e-03
  1.40266283e-03  3.52176046e-03 -1.36234297e-03 -8.34465027e-03
 -8.78310855e-03  7.20830355e-03  7.22944038e-03  3.44453473e-03
  3.15568177e-03 -4.27641527e-04  4.47230693e-03  4.44126455e-03
  5.31098666e-03  2.23556533e-03  7.53751956e-03 -2.12594401e-03
  3.90369096e-03 -8.99476837e-03 -4.55315737e-03 -5.64187812e-03
 -2.94093370e-01 -1.35000646e-01 -2.92043626e-01 -2.07624957e-01
 -2.45065883e-01 -3.57409567e-01 -3.67176890e-01 -3.08063954e-01
 -9.56520960e-02 -2.91591942e-01 -1.08740151e-01 -2.12468907e-01
 -3.23212326e-01 -2.80858755e-01 -1.31261006e-01 -1.52798787e-01
 -2.87631214e-01 -3.99686515e-01 -3.42330784e-01 -2.86187232e-01
 -1.88998729e-01 -3.10003966e-01 -2.84569710e-01 -1.66179433e-01
 -3.11311603e-01 -2.06266388e-01 -2.96157420e-01 -3.22076350e-01
 -2.92872399e-01 -1.44377440e-01 -2.06732363e-01 -1.79490253e-01
 -2.24326760e-01 -1.45690024e-01 -2.70344883e-01 -1.40546009e-01
 -2.94586748e-01 -2.88027465e-01 -2.79915154e-01 -1.83817700e-01
 -2.76622474e-01 -2.95754999e-01 -3.94070029e-01 -2.01625511e-01
 -3.27581882e-01 -3.76243621e-01 -2.64970094e-01 -3.44345458e-02
 -2.56974310e-01 -5.04047908e-02 -2.24766195e-01 -1.02478951e-01
 -2.46175095e-01 -2.55596668e-01 -3.04906249e-01 -3.02383631e-01
 -2.83695906e-01 -2.71105736e-01 -8.21896940e-02 -3.33894610e-01
 -1.16017461e-01 -2.30084807e-01 -2.86923051e-01 -1.12748832e-01
 -1.48042679e-01 -2.67624944e-01 -1.90883383e-01 -2.76212394e-01
 -2.58460581e-01 -1.95386887e-01 -1.02416150e-01 -3.29612374e-01
 -2.73616403e-01 -1.07802413e-01 -2.91484416e-01 -2.86580980e-01
 -1.58621714e-01 -2.93876886e-01 -2.81672150e-01 -9.60645154e-02
 -3.03145170e-01 -1.42304689e-01 -1.56887159e-01 -2.93548405e-01
 -3.58358383e-01 -2.85219878e-01 -3.07856828e-01 -2.08776429e-01
 -2.93778867e-01 -2.86600441e-01 -2.73222029e-01 -1.41829222e-01
 -3.45018178e-01 -1.72394857e-01 -3.08292866e-01 -1.36105955e-01
 -2.83446312e-01 -2.16609538e-01 -1.88035786e-01 -1.55664712e-01]
sequential/dense/kernel:0
(100, 1)
[[-0.16265601]
 [ 0.12608914]
 [-0.15929209]
 [-0.11571561]
 [-0.1475841 ]
 [ 0.13629149]
 [-0.14966117]
 [-0.1742319 ]
 [-0.13985461]
 [-0.15121421]
 [-0.13656762]
 [ 0.11628078]
 [ 0.1482113 ]
 [-0.15707493]
 [-0.12415732]
 [-0.1242159 ]
 [ 0.1436429 ]
 [-0.17381603]
 [-0.1658309 ]
 [-0.15818176]
 [ 0.14323674]
 [-0.15464024]
 [-0.16642119]
 [ 0.15818863]
 [ 0.12985776]
 [ 0.15618502]
 [ 0.16213211]
 [-0.1614796 ]
 [ 0.14458619]
 [ 0.13855983]
 [-0.14309709]
 [ 0.14148495]
 [ 0.13567527]
 [ 0.14635478]
 [ 0.16030002]
 [ 0.14002737]
 [-0.16590884]
 [ 0.13770501]
 [ 0.13525517]
 [ 0.17763513]
 [ 0.13380966]
 [ 0.17120668]
 [-0.17170854]
 [-0.12127312]
 [-0.16732828]
 [-0.17416745]
 [ 0.14466496]
 [-0.10684188]
 [ 0.13403647]
 [-0.12387072]
 [ 0.14835314]
 [ 0.10788109]
 [-0.16716671]
 [ 0.15427878]
 [ 0.16217478]
 [-0.14067519]
 [-0.1827726 ]
 [ 0.11793642]
 [-0.08385018]
 [ 0.17317012]
 [ 0.0972272 ]
 [-0.13385864]
 [-0.12494837]
 [-0.146307  ]
 [-0.1477069 ]
 [ 0.14221871]
 [-0.13529132]
 [-0.16268995]
 [ 0.13832675]
 [-0.12799446]
 [ 0.11702029]
 [-0.17899665]
 [-0.1889173 ]
 [ 0.12096246]
 [ 0.1294746 ]
 [ 0.16082346]
 [-0.11496645]
 [ 0.19052424]
 [-0.14633138]
 [ 0.13540271]
 [ 0.14927946]
 [-0.11697941]
 [ 0.1432388 ]
 [ 0.13364016]
 [-0.14968024]
 [-0.16822708]
 [-0.17239197]
 [-0.13553539]
 [-0.14929783]
 [ 0.16337766]
 [-0.13005835]
 [ 0.16696788]
 [ 0.17720547]
 [-0.13482936]
 [-0.19132078]
 [-0.11919906]
 [ 0.12494756]
 [-0.1334023 ]
 [-0.12943955]
 [ 0.16229127]]
sequential/dense/bias:0
(1,)
[0.56922257]
