sequential/lstm/kernel:0
(1, 200)
[[ 0.03880727 -0.19210446  0.15393165 -0.04501906  0.05308799  0.03416878
   0.08199964  0.20345965 -0.07095454 -0.19790062 -0.04748929 -0.04348242
  -0.04114268 -0.04341603  0.08658084  0.23339328  0.01917218  0.04468256
   0.17794125  0.028202    0.08935557 -0.11190368  0.14598127  0.05754086
   0.0534084  -0.22781414  0.3295314   0.09431843 -0.22814238 -0.01895687
   0.0923951   0.06159376 -0.0396353  -0.04671797 -0.12236147  0.03351267
  -0.13994177  0.04933091 -0.00660945  0.11025365  0.24476597 -0.06842018
  -0.24278083  0.02103087  0.07932807 -0.17212582 -0.04809855  0.14461191
  -0.07235806  0.08890521 -0.14879225 -0.0514799  -0.12492382 -0.009697
   0.11151548 -0.19732471 -0.12882592  0.16899194 -0.07711101 -0.10127953
  -0.14750558  0.00607556  0.1759841  -0.0816083   0.04321833  0.18938845
   0.08534107  0.04508347 -0.07140812 -0.12510721  0.02970361  0.13978212
   0.1254889   0.00401459  0.04224126 -0.23742472 -0.12414204 -0.06228502
  -0.2281703  -0.15226392 -0.0212905   0.06257157  0.15899356  0.0476819
  -0.12067936 -0.00542277  0.02604749  0.03551864  0.06224436  0.2063343
   0.02897733  0.10943973 -0.07919768  0.04629382 -0.00905137  0.13143036
  -0.17791674  0.13511135 -0.22994466 -0.08887433 -0.07238074  0.09530075
   0.097001    0.18169056 -0.07624123 -0.0414462  -0.17577575 -0.09718742
  -0.03523719 -0.06712438  0.11346595  0.05955142  0.15904641 -0.1457656
  -0.0883837   0.1216847   0.17221718 -0.10590088  0.11516242 -0.05100312
   0.05314647  0.05387827  0.10488226 -0.13894935 -0.08868264  0.04233284
   0.15169188  0.15046844 -0.09439088 -0.00531414 -0.00549257  0.16042843
  -0.1207125  -0.17202994  0.10583428  0.17725645  0.02574758 -0.09927011
   0.10821887  0.13989702 -0.17527275 -0.14496277 -0.00416219  0.02376056
  -0.11099842  0.04412018  0.15708625 -0.10373688 -0.06883027 -0.13952501
   0.02368304 -0.00091384  0.04241687  0.20079659 -0.17934938 -0.12772036
   0.11806173  0.12988165 -0.12974381 -0.20633183 -0.16886352 -0.16070107
   0.19774263  0.06882569 -0.17972285  0.22243664  0.1369607   0.00268652
   0.14898239  0.071522   -0.12405171 -0.12096163  0.03392699  0.13056107
   0.0807724  -0.06901663  0.339063    0.05020132 -0.00739505  0.11665312
   0.03211097  0.1109889   0.18656838 -0.05763679  0.13377866 -0.00151719
  -0.25041535 -0.08155729  0.1593815  -0.00914291  0.04539019 -0.02962344
  -0.0393178  -0.13853252  0.20378715 -0.10092308 -0.02321892  0.1694628
  -0.01737395  0.14404447]]
sequential/lstm/recurrent_kernel:0
(50, 200)
[[-0.24183956 -0.0849183   0.00880152 ...  0.01832454 -0.11920802
   0.22490141]
 [-0.2112543  -0.06696604  0.10146391 ...  0.18509033  0.00197785
   0.05870602]
 [-0.10807573 -0.06620405  0.01123988 ... -0.02999981  0.07827749
   0.1053389 ]
 ...
 [-0.02169605  0.06739062  0.02996635 ... -0.09884452 -0.03311943
  -0.09607667]
 [ 0.02011479  0.12461805 -0.09021611 ... -0.09132319 -0.03353078
  -0.13676864]
 [ 0.09665564  0.04210845 -0.04207174 ... -0.02608304  0.0709461
  -0.08021501]]
sequential/lstm/bias:0
(200,)
[ 0.0223793  -0.08677195 -0.02646534  0.07900789 -0.08104171 -0.03014076
  0.02989727 -0.01281486 -0.05798612 -0.09999021 -0.06933682 -0.16722484
  0.05268149  0.0595595  -0.06086925 -0.00781166  0.0647172  -0.00730873
  0.02271645 -0.14616613 -0.0688692  -0.11679968 -0.01232461  0.0106674
 -0.01423523 -0.13088797  0.16273484  0.04180902 -0.07395749 -0.08096068
 -0.05715676  0.00648586 -0.02398632  0.04560009 -0.00834464  0.03917065
 -0.07407914 -0.08706886 -0.03490272  0.01345534  0.0464747  -0.03625097
 -0.10394916 -0.05343975  0.00165475 -0.12816843  0.01731089  0.0137956
 -0.10317896 -0.00853431  1.0844166   0.8808249   0.9245957   0.98295176
  0.8911616   1.0304651   0.94148594  0.9315182   0.9679071   0.8820218
  0.92223555  0.80118     0.9571748   0.9149545   0.87283194  0.9115369
  0.9635174   0.86415505  0.86785984  0.8661592   0.9296002   0.91925144
  0.9169366   0.95913965  0.8110059   0.86401635  0.95072263  0.9270928
  0.9588927   0.92850524  0.9534515   0.94952697  0.9523484   0.95786726
  0.84661317  0.9433485   0.9569115   0.90546274  0.91805834  0.9001055
  0.96698713  0.93640804  0.90270656  1.0577276   0.8310305   0.9235816
  0.92805594  0.94350606  0.85878915  0.90474665  0.02959877 -0.03825843
 -0.04316564 -0.08248565  0.02897474  0.01341556  0.07700131  0.03923909
  0.00791471  0.03387536 -0.04086824 -0.02353246 -0.06884916  0.06640593
  0.03743407 -0.05577548 -0.07383028  0.04631564 -0.05169407  0.01934611
 -0.03133267 -0.02230052 -0.04398452  0.06065255  0.03693113 -0.02122851
 -0.06866658 -0.06819513  0.03732102 -0.00475023  0.00447894 -0.0714177
  0.05265005  0.07442525 -0.04343355 -0.08087318 -0.01511119  0.05199328
 -0.04395633 -0.0619928   0.07628415  0.05956898  0.0106746  -0.0103743
  0.04985358 -0.01543995 -0.06718013  0.04986804  0.02209241  0.05681556
  0.02060704 -0.08505736 -0.02302263  0.07478822 -0.07988257 -0.03865132
  0.02880209 -0.01166469 -0.06213751 -0.10005012 -0.06765694 -0.16453066
  0.04719666  0.05631835 -0.05850668 -0.0110111   0.06203829 -0.00683978
  0.02274913 -0.1449296  -0.06544948 -0.1162416  -0.00906107  0.0098305
 -0.01428336 -0.13046671  0.16133896  0.04223598 -0.0724903  -0.08237995
 -0.05790944  0.00569995 -0.02642703  0.04517671 -0.00817246  0.04025071
 -0.07825039 -0.0826713  -0.03540558  0.01608993  0.0519171  -0.03508432
 -0.10357479 -0.06065187 -0.0011571  -0.12949148  0.01707992  0.01285404
 -0.1032999  -0.0122217 ]
sequential/lstm_1/kernel:0
(50, 400)
[[-0.01558335  0.01814286  0.02381678 ... -0.07785496 -0.01477142
   0.04142493]
 [-0.11020759  0.12109987 -0.11873738 ... -0.13934249  0.02664909
   0.14219274]
 [-0.13445264 -0.06780944 -0.03124647 ... -0.12028741 -0.07108329
  -0.0293627 ]
 ...
 [ 0.10440549  0.02242345 -0.0352741  ...  0.19121505 -0.02280126
  -0.00648732]
 [-0.08093045 -0.16150334 -0.12848172 ... -0.02082319  0.06450324
  -0.02526393]
 [-0.07588691  0.05452026 -0.1084164  ...  0.0713765   0.0161082
   0.08979733]]
sequential/lstm_1/recurrent_kernel:0
(100, 400)
[[ 0.00819668  0.02105797  0.0221825  ...  0.00381382 -0.02377521
   0.04830285]
 [-0.0887384  -0.00988887  0.0392092  ... -0.0328037  -0.03667618
  -0.05541214]
 [ 0.06545269  0.03609754  0.05744812 ... -0.18614444 -0.04399907
   0.12894048]
 ...
 [-0.09248129  0.15873435 -0.13844502 ...  0.00417472 -0.14716765
   0.07608422]
 [ 0.03642401  0.1532615  -0.0502485  ... -0.09143881  0.01366742
   0.04369246]
 [ 0.0410124  -0.00361904  0.00583853 ... -0.11751977 -0.04944341
  -0.03477447]]
sequential/lstm_1/bias:0
(400,)
[-2.11042240e-01 -6.05753064e-02 -2.01788038e-01 -9.64302421e-02
 -2.07689553e-01 -2.55336165e-01 -2.62952954e-01 -2.03931853e-01
 -5.23997433e-02 -1.97951779e-01 -6.97273165e-02 -5.35328835e-02
 -1.92717731e-01 -2.28585571e-01 -7.42446780e-02 -7.49730468e-02
 -1.53494984e-01 -2.39223316e-01 -2.43989378e-01 -1.42868653e-01
 -1.11642048e-01 -2.33671606e-01 -1.89002156e-01 -9.93425995e-02
 -2.02298149e-01 -1.27916902e-01 -1.92303240e-01 -1.98239893e-01
 -1.53707609e-01 -6.93683177e-02 -1.05100818e-01 -9.85148922e-02
 -1.18641652e-01 -1.00245938e-01 -1.69637397e-01 -8.69806036e-02
 -2.29302898e-01 -1.52226269e-01 -1.42088473e-01 -1.19491510e-01
 -1.06203094e-01 -1.76757827e-01 -2.45957643e-01 -1.87005803e-01
 -2.08134606e-01 -2.34472558e-01 -2.04373375e-01 -6.72051236e-02
 -1.12794496e-01 -1.16481647e-01 -1.05822593e-01 -7.03655556e-02
 -1.63944826e-01 -1.55139089e-01 -1.82668567e-01 -1.54926494e-01
 -2.58733869e-01 -1.29319027e-01 -1.49254175e-02 -2.17665091e-01
 -4.15266044e-02 -1.37580082e-01 -1.07831955e-01 -6.21616356e-02
 -7.16269910e-02 -1.29737079e-01 -7.83577040e-02 -1.64847404e-01
 -1.47773981e-01 -1.10808790e-01 -5.52321747e-02 -1.90701276e-01
 -2.04612315e-01 -6.25984147e-02 -1.94004759e-01 -1.88063830e-01
 -7.74656832e-02 -2.23384351e-01 -2.11594179e-01 -6.73662275e-02
 -1.80561408e-01 -6.99323863e-02 -8.59678760e-02 -1.61147013e-01
 -2.48414516e-01 -1.88874155e-01 -2.27803007e-01 -1.09360121e-01
 -1.99155271e-01 -1.77138999e-01 -1.43321216e-01 -9.18129906e-02
 -2.28645608e-01 -1.03301376e-01 -2.16119975e-01 -1.29078746e-01
 -1.60170153e-01 -1.83932975e-01 -1.12512112e-01 -1.10996783e-01
  8.49357367e-01  9.96740520e-01  8.20272207e-01  9.60022867e-01
  8.31037879e-01  7.63062298e-01  7.50571370e-01  8.29774380e-01
  1.00746012e+00  8.20576429e-01  1.00493324e+00  1.02151442e+00
  8.21244299e-01  7.94965565e-01  9.68381286e-01  9.65377629e-01
  8.91239882e-01  8.03430736e-01  8.11356425e-01  9.00240123e-01
  9.49828446e-01  8.10816646e-01  8.62558663e-01  9.68219817e-01
  8.18899810e-01  9.26453650e-01  8.49390328e-01  8.39026988e-01
  8.86749804e-01  1.00482249e+00  9.43624556e-01  9.43284273e-01
  9.01567221e-01  9.65842843e-01  8.60205054e-01  9.75370347e-01
  8.15118790e-01  8.83143485e-01  9.01012063e-01  9.31376815e-01
  9.41707790e-01  8.62801194e-01  7.96489477e-01  8.52864206e-01
  8.43614280e-01  8.15167964e-01  8.16564083e-01  9.96746004e-01
  9.33933377e-01  9.59491909e-01  9.29979980e-01  9.87461984e-01
  8.78962040e-01  8.76518548e-01  8.47249627e-01  8.83051634e-01
  7.91977644e-01  9.16331947e-01  1.06651449e+00  8.11428428e-01
  1.02155805e+00  8.92585278e-01  9.26545978e-01  9.88747776e-01
  9.73685563e-01  9.13047493e-01  9.78026211e-01  8.71547997e-01
  8.96061718e-01  9.40446556e-01  1.00871170e+00  8.57218564e-01
  8.40805411e-01  9.91806030e-01  8.10127854e-01  8.50455105e-01
  9.81685042e-01  8.12973559e-01  8.06327760e-01  1.00165927e+00
  8.49083126e-01  9.82952833e-01  9.61133003e-01  8.90679538e-01
  7.78836191e-01  8.52345884e-01  7.97367752e-01  9.42361772e-01
  8.43536854e-01  8.52513015e-01  9.15343165e-01  9.80946183e-01
  8.01348269e-01  9.48215008e-01  8.27265918e-01  9.01581883e-01
  8.78769338e-01  8.37495506e-01  9.06319737e-01  9.38405693e-01
  8.79490457e-04 -7.13801943e-03 -3.34829645e-04 -3.43487505e-03
 -5.44567639e-03  1.22589921e-03 -1.46152526e-02 -6.44402299e-03
  9.58485808e-03 -7.32505415e-03  5.80281252e-03 -8.01756978e-03
 -1.79740333e-03  1.11813971e-03  6.07284112e-03  6.35732897e-03
 -9.76651721e-03 -6.28175493e-03  1.72109611e-03 -1.81653455e-03
 -3.61693068e-03 -1.16778188e-03 -7.93908164e-03 -9.37523693e-03
  7.15369545e-03 -3.88292992e-03  1.84922898e-03  8.90315161e-04
  1.72229973e-03 -1.01032034e-02  2.65235268e-03 -8.54478567e-04
  9.61174816e-03 -6.94480957e-03 -5.06049115e-03 -3.69419740e-03
 -1.16936211e-03  3.74407438e-03  4.07563150e-03 -1.83580746e-03
 -3.64473229e-03 -3.76246427e-03 -8.60848930e-03 -1.61815062e-02
 -4.00034525e-03 -3.69241880e-03 -3.60280718e-03  7.94455595e-03
 -4.08676104e-04  5.00391610e-03 -2.87502841e-03 -6.18610764e-03
 -8.65503959e-03 -2.89582706e-04  7.64666498e-03 -2.15582736e-03
 -2.58244062e-03  5.39344549e-03  1.49037102e-02  1.05504715e-03
 -7.81059032e-03  1.09964581e-02 -5.59072359e-04  5.67266578e-03
  4.10415279e-03 -5.00566501e-04  2.96847057e-03  1.28621305e-03
  4.63172619e-04  5.57473302e-03 -7.51033472e-03  1.19577372e-03
 -6.73120283e-03 -6.39451668e-03 -1.86954415e-03  5.83808590e-03
 -1.90142728e-03 -3.62482824e-05 -6.16693264e-03 -7.89079629e-03
  9.39293485e-03  5.69922198e-03 -1.71425368e-03  1.02374339e-02
 -3.12614557e-03 -1.61825377e-03 -4.02894197e-03  5.90223307e-03
  3.58634233e-03  4.54456080e-03  8.02235026e-03 -5.18988818e-03
  2.42514000e-03  5.01116691e-03 -2.23250687e-03 -8.64829030e-03
  2.21325923e-03  2.41748244e-03 -2.15634936e-03 -1.21560588e-03
 -2.15589195e-01 -6.12637065e-02 -2.02349260e-01 -1.00898452e-01
 -2.05315500e-01 -2.53034890e-01 -2.66038418e-01 -2.07571089e-01
 -5.33479527e-02 -2.00293526e-01 -7.13930205e-02 -5.92116006e-02
 -1.93472981e-01 -2.26187333e-01 -7.75315762e-02 -7.45280311e-02
 -1.53037757e-01 -2.35001281e-01 -2.41476953e-01 -1.44171149e-01
 -1.12935722e-01 -2.30004668e-01 -1.86540484e-01 -1.00412756e-01
 -2.03724280e-01 -1.25726074e-01 -1.91698238e-01 -1.99458897e-01
 -1.53341740e-01 -7.07562119e-02 -1.03712946e-01 -9.74873900e-02
 -1.22089900e-01 -1.01000659e-01 -1.73183545e-01 -8.64398330e-02
 -2.26266906e-01 -1.50757104e-01 -1.43540949e-01 -1.17755882e-01
 -1.08332209e-01 -1.76774889e-01 -2.42440894e-01 -1.84259251e-01
 -1.99843287e-01 -2.24160656e-01 -2.09661677e-01 -6.96800351e-02
 -1.12894461e-01 -1.17020451e-01 -1.03192799e-01 -7.24010319e-02
 -1.64106160e-01 -1.58460408e-01 -1.85446367e-01 -1.51767537e-01
 -2.45455205e-01 -1.31569177e-01 -2.23463736e-02 -2.18092486e-01
 -4.49489877e-02 -1.40918031e-01 -1.10537045e-01 -6.42634183e-02
 -7.12234601e-02 -1.28328428e-01 -7.73537308e-02 -1.66845530e-01
 -1.48157269e-01 -1.09643646e-01 -5.81672080e-02 -1.87873781e-01
 -1.99758962e-01 -6.34906366e-02 -1.91720009e-01 -1.83679760e-01
 -7.81783909e-02 -2.22294077e-01 -2.11263940e-01 -6.82400316e-02
 -1.78510353e-01 -7.09897056e-02 -8.49140659e-02 -1.58982351e-01
 -2.46632412e-01 -1.80709258e-01 -2.24303663e-01 -1.09544255e-01
 -1.98663637e-01 -1.78972527e-01 -1.44817963e-01 -9.16685835e-02
 -2.30258062e-01 -1.03166573e-01 -2.17653379e-01 -1.34271532e-01
 -1.64108515e-01 -1.83780313e-01 -1.12288497e-01 -1.10738620e-01]
sequential/dense/kernel:0
(100, 1)
[[-0.16020446]
 [ 0.10511543]
 [-0.15416217]
 [-0.0896908 ]
 [-0.13026655]
 [ 0.13541591]
 [-0.13846149]
 [-0.17420898]
 [-0.11171823]
 [-0.1318225 ]
 [-0.12248477]
 [ 0.07201624]
 [ 0.13194428]
 [-0.13148789]
 [-0.09440435]
 [-0.11399619]
 [ 0.13274103]
 [-0.1673348 ]
 [-0.15119725]
 [-0.16227369]
 [ 0.14016359]
 [-0.14341098]
 [-0.15656829]
 [ 0.14157017]
 [ 0.11188123]
 [ 0.15224609]
 [ 0.15516761]
 [-0.15156859]
 [ 0.14766423]
 [ 0.12086009]
 [-0.13312085]
 [ 0.12489761]
 [ 0.11709005]
 [ 0.13103803]
 [ 0.15189113]
 [ 0.11967114]
 [-0.15502779]
 [ 0.10693862]
 [ 0.13013016]
 [ 0.17664206]
 [ 0.12022769]
 [ 0.16212709]
 [-0.15833975]
 [-0.12183613]
 [-0.15175937]
 [-0.17550516]
 [ 0.12856048]
 [-0.09373946]
 [ 0.10930752]
 [-0.14580657]
 [ 0.13308312]
 [ 0.1023034 ]
 [-0.15929471]
 [ 0.13200445]
 [ 0.1522373 ]
 [-0.11972728]
 [-0.16534443]
 [ 0.1082449 ]
 [-0.04796406]
 [ 0.16034162]
 [ 0.06628554]
 [-0.1039078 ]
 [-0.10763092]
 [-0.12417606]
 [-0.13187963]
 [ 0.14615807]
 [-0.11168613]
 [-0.15108506]
 [ 0.10658629]
 [-0.12355193]
 [ 0.10187311]
 [-0.1683931 ]
 [-0.17585488]
 [ 0.10380277]
 [ 0.11576136]
 [ 0.15685503]
 [-0.10405197]
 [ 0.17687018]
 [-0.12351572]
 [ 0.11388132]
 [ 0.12973392]
 [-0.08932649]
 [ 0.12477053]
 [ 0.12010553]
 [-0.14683208]
 [-0.17585497]
 [-0.16181332]
 [-0.11155325]
 [-0.13292871]
 [ 0.15810122]
 [-0.09211037]
 [ 0.15789108]
 [ 0.17029406]
 [-0.13780153]
 [-0.178084  ]
 [-0.10767763]
 [ 0.11084478]
 [-0.12700607]
 [-0.12201974]
 [ 0.14162694]]
sequential/dense/bias:0
(1,)
[0.46842906]
