sequential/lstm/kernel:0
(1, 200)
[[ 3.13557424e-02 -2.15300828e-01  1.37686893e-01 -3.89892794e-02
   2.63839718e-02  3.22378725e-02  9.37035605e-02  2.03728184e-01
  -7.33487457e-02 -2.55195498e-01 -8.62007216e-02 -6.92672804e-02
  -3.93146500e-02 -4.62472811e-02  2.75489856e-02  2.43204072e-01
   3.39970663e-02  8.35508254e-05  1.69172347e-01  2.39791838e-03
   6.97255954e-02 -1.56959742e-01  1.37449369e-01  7.25774243e-02
  -9.59859509e-03 -2.93142140e-01  3.30125004e-01  9.07248929e-02
  -2.22729012e-01 -2.52873823e-02  6.30538836e-02  8.28538761e-02
  -3.04525811e-02 -4.03134115e-02 -6.76188543e-02  3.75341401e-02
  -1.43931314e-01  3.25133353e-02 -2.22538300e-02  1.01431683e-01
   2.49711245e-01 -6.33438528e-02 -2.81568676e-01 -8.19168147e-03
   4.52977531e-02 -1.97055817e-01 -3.51977088e-02  1.50203124e-01
  -8.31976160e-02  9.51803550e-02 -1.41645193e-01 -4.20027114e-02
  -1.47967651e-01 -5.87359909e-03  1.02631137e-01 -1.93421766e-01
  -1.32505268e-01  1.71685442e-01 -7.01492801e-02 -1.23049639e-01
  -1.80880755e-01  1.29552204e-02  1.71994463e-01 -9.66892987e-02
   4.16806489e-02  1.85055643e-01  8.70840698e-02  3.84540148e-02
  -5.10312766e-02 -1.40766993e-01  2.88906600e-02  1.27023637e-01
   1.11798018e-01  6.20669080e-03  9.88501608e-02 -2.62316465e-01
  -1.26224011e-01 -6.52184412e-02 -2.10509539e-01 -1.53653249e-01
  -3.75951454e-02  7.85340816e-02  1.63599834e-01  5.41134402e-02
  -9.99459252e-02  7.81582762e-03  3.57861891e-02  3.46420296e-02
   6.17205054e-02  1.89742342e-01  3.28271575e-02  1.13949023e-01
  -7.28684291e-02  3.52608934e-02  2.39978135e-02  1.16403095e-01
  -1.62067503e-01  1.29112393e-01 -2.30487943e-01 -8.80459547e-02
  -7.92527050e-02  9.96387675e-02  1.02349445e-01  1.87351063e-01
  -7.48367384e-02 -4.45394441e-02 -1.81171119e-01 -9.82378870e-02
  -2.66625546e-02 -7.50040337e-02  1.04184233e-01  6.23422600e-02
   1.63369745e-01 -1.50889441e-01 -8.75332355e-02  1.28144652e-01
   1.77562445e-01 -1.10325322e-01  1.17779560e-01 -5.36658131e-02
   5.36532886e-02  4.85743880e-02  1.11343607e-01 -1.43631428e-01
  -7.87376463e-02  4.49373461e-02  1.57309338e-01  1.56395897e-01
  -9.07770246e-02 -1.27280047e-02 -7.76089123e-03  1.68977872e-01
  -1.27165928e-01 -1.77426964e-01  1.17246918e-01  1.87023640e-01
   3.00649926e-02 -1.16867252e-01  1.09366179e-01  1.45248622e-01
  -1.77135587e-01 -1.45486712e-01  7.71667052e-04  2.30783820e-02
  -1.10273160e-01  3.87979299e-02  1.60496175e-01 -1.09163053e-01
  -6.34589493e-02 -1.43155411e-01  1.45708304e-02 -2.40165778e-02
   2.61237398e-02  2.06323490e-01 -2.11138025e-01 -1.34878844e-01
   1.29938245e-01  1.31223410e-01 -1.33559525e-01 -2.67411172e-01
  -2.07706004e-01 -1.91938132e-01  1.98843181e-01  6.45713434e-02
  -2.41892859e-01  2.31884882e-01  1.52327254e-01 -4.34015878e-02
   1.42465204e-01  4.28241789e-02 -1.44393831e-01 -1.68048695e-01
   2.57340632e-02  1.46276712e-01  3.78764118e-03 -1.34601176e-01
   3.39760125e-01  4.62325364e-02 -3.66569031e-03  1.11241110e-01
   9.30947281e-05  1.32119194e-01  1.95446223e-01 -5.04103415e-02
   1.89383179e-01  3.16265714e-03 -2.56635278e-01 -1.01832576e-01
   1.42022908e-01 -1.64976679e-02  5.10817952e-02 -2.43333634e-02
  -7.78922886e-02 -1.71013206e-01  1.67660043e-01 -1.30253121e-01
  -9.90737695e-03  1.74073935e-01 -2.91325729e-02  1.50582671e-01]]
sequential/lstm/recurrent_kernel:0
(50, 200)
[[-0.2084736  -0.07184073  0.00123553 ...  0.03113322 -0.09119413
   0.22566895]
 [-0.1955776  -0.06144402  0.11069991 ...  0.20164078  0.00856996
   0.05019835]
 [-0.10273642 -0.09968127 -0.00192761 ... -0.02369724  0.09006342
   0.11022142]
 ...
 [-0.01045896  0.08531974  0.02884232 ... -0.09997845 -0.00535296
  -0.09958171]
 [ 0.02037685  0.11080337 -0.07980939 ... -0.10344456 -0.04011315
  -0.13974793]
 [ 0.10314621  0.0409428  -0.02670315 ... -0.02738052  0.07753344
  -0.07898895]]
sequential/lstm/bias:0
(200,)
[ 5.16879978e-03 -1.06845304e-01 -4.36667874e-02  8.44225213e-02
 -1.07733183e-01 -2.30562184e-02  5.75545281e-02 -2.91314237e-02
 -5.75318597e-02 -1.26131311e-01 -9.89307314e-02 -1.93219319e-01
  5.95087186e-02  6.38399124e-02 -1.06046245e-01  1.01920171e-02
  7.84773007e-02 -3.02520599e-02  9.38117690e-03 -1.58850089e-01
 -1.03708647e-01 -1.53714433e-01 -2.42649596e-02  2.12346874e-02
 -1.31272390e-01 -1.54402763e-01  1.69147342e-01  2.88599823e-02
 -8.18529874e-02 -7.96684772e-02 -7.78031945e-02  1.71528552e-02
 -1.73091497e-02  3.82160842e-02  4.85458598e-02  3.13057229e-02
 -7.54818544e-02 -9.28238258e-02 -5.00687212e-02  8.90072621e-03
  4.55511585e-02 -5.29791303e-02 -1.24246158e-01 -9.48458910e-02
 -4.49217074e-02 -1.44632503e-01  1.25614591e-02  1.18881082e-02
 -1.17174327e-01 -2.70310021e-03  1.08038485e+00  8.80182624e-01
  8.96880329e-01  9.81662095e-01  8.76739800e-01  1.02913034e+00
  9.46516216e-01  9.14500475e-01  9.69715834e-01  8.84590626e-01
  8.99287999e-01  7.94957101e-01  9.53748405e-01  9.01459575e-01
  8.91297221e-01  9.05050814e-01  9.58598435e-01  8.75810921e-01
  8.63321602e-01  8.65490854e-01  9.16721046e-01  9.01842237e-01
  8.94540429e-01  9.50268447e-01  8.63832176e-01  8.73597503e-01
  9.40152824e-01  9.15077806e-01  9.55670118e-01  9.09037232e-01
  9.42504346e-01  9.49866652e-01  9.48595405e-01  9.52096760e-01
  8.47369194e-01  9.42084789e-01  9.63846266e-01  9.19063807e-01
  9.12882447e-01  8.88304055e-01  9.62198138e-01  9.19613004e-01
  9.13496554e-01  1.02944863e+00  8.58311951e-01  9.11221147e-01
  9.21588182e-01  9.25317526e-01  8.57982874e-01  8.99085402e-01
  2.82967668e-02 -3.38997506e-02 -4.38026153e-02 -8.36917609e-02
  2.44065095e-02  1.82894245e-02  8.05269405e-02  4.01183888e-02
  1.95495095e-02  3.23120691e-02 -5.36705889e-02 -1.51993427e-02
 -7.17889145e-02  7.21257627e-02  3.37984376e-02 -5.37935756e-02
 -7.64477551e-02  4.66796868e-02 -5.70672639e-02  2.46757213e-02
 -2.47890484e-02 -2.34354548e-02 -4.74450774e-02  6.35776892e-02
  3.51761244e-02 -2.00959779e-02 -6.78601339e-02 -6.96048364e-02
  3.56980413e-02  2.12596892e-03 -7.67404854e-04 -7.01712146e-02
  5.76811805e-02  7.44395405e-02 -4.72960956e-02 -7.97613338e-02
 -1.33969141e-02  4.64570858e-02 -4.71510179e-02 -6.03683479e-02
  8.13899338e-02  6.05911426e-02  7.68791465e-03 -1.32914111e-02
  5.20353131e-02 -1.64673980e-02 -7.28525594e-02  5.18224910e-02
  3.76075618e-02  6.48829564e-02  3.25813843e-03 -1.05309390e-01
 -4.04086560e-02  7.98360258e-02 -1.07521884e-01 -3.33854146e-02
  5.66375963e-02 -2.76728682e-02 -6.23167492e-02 -1.28538668e-01
 -9.78833213e-02 -1.90833241e-01  5.45179993e-02  6.08912222e-02
 -1.06170990e-01  7.15224165e-03  7.54454210e-02 -2.96923090e-02
  9.52882320e-03 -1.58380419e-01 -9.95302200e-02 -1.54062226e-01
 -2.09310465e-02  1.99477542e-02 -1.32203236e-01 -1.53590322e-01
  1.67746007e-01  2.95506101e-02 -8.12788904e-02 -8.06147605e-02
 -7.90996924e-02  1.59557797e-02 -2.06657760e-02  3.74853909e-02
  4.80702259e-02  3.27626988e-02 -8.04789662e-02 -8.88853073e-02
 -5.03652208e-02  1.15150176e-02  5.15507795e-02 -5.13964072e-02
 -1.24807477e-01 -1.02694623e-01 -4.76887785e-02 -1.46272659e-01
  1.24552203e-02  1.07559469e-02 -1.17389128e-01 -6.42354228e-03]
sequential/lstm_1/kernel:0
(50, 400)
[[ 0.04461485 -0.00091026  0.08205213 ... -0.11658301  0.04806194
   0.04506712]
 [-0.0904273   0.12175317 -0.11621732 ... -0.2648623   0.03838784
   0.19791399]
 [-0.1760147  -0.08492619 -0.03388253 ... -0.09981746 -0.14156005
  -0.02283072]
 ...
 [ 0.05971327  0.01614468 -0.06102014 ...  0.11498256 -0.07877926
  -0.01200479]
 [-0.09261188 -0.15527523 -0.16465655 ... -0.04575682  0.03535144
  -0.01760038]
 [-0.06156061  0.05791193 -0.12217405 ...  0.05465585 -0.11275757
   0.03290495]]
sequential/lstm_1/recurrent_kernel:0
(100, 400)
[[ 0.01767062  0.04007773  0.04051416 ...  0.02799345 -0.05757289
   0.05968853]
 [-0.08535756 -0.01439242  0.07346855 ... -0.01440091 -0.04113256
  -0.06107401]
 [ 0.06648205  0.04939689  0.08288126 ... -0.16756864 -0.05417402
   0.14248012]
 ...
 [-0.13457443  0.14533992 -0.12644775 ... -0.03488746 -0.17823039
   0.04126473]
 [ 0.01560871  0.17874734 -0.02942384 ...  0.00513514  0.01032813
   0.03439559]
 [ 0.05461537 -0.00524433  0.01731567 ... -0.11068127 -0.05759037
  -0.04551583]]
sequential/lstm_1/bias:0
(400,)
[-2.16263875e-01 -6.72931895e-02 -2.34302104e-01 -1.10688955e-01
 -2.21751019e-01 -2.69931287e-01 -2.56124079e-01 -2.29002357e-01
 -5.64609952e-02 -1.99521750e-01 -7.33719245e-02 -6.19396977e-02
 -2.09984720e-01 -2.25410044e-01 -8.10960233e-02 -8.33441317e-02
 -1.66652650e-01 -2.50590473e-01 -2.38197252e-01 -1.47246152e-01
 -1.29197106e-01 -2.19051048e-01 -2.14675099e-01 -1.19684733e-01
 -2.03418985e-01 -1.46016240e-01 -2.17844248e-01 -2.18657583e-01
 -1.66476741e-01 -7.95308426e-02 -1.12724558e-01 -1.16216779e-01
 -7.63851404e-02 -1.09460011e-01 -1.90468773e-01 -9.79800001e-02
 -2.45738477e-01 -1.46974370e-01 -1.50021464e-01 -1.38734698e-01
 -1.20246947e-01 -1.90588385e-01 -2.55886108e-01 -1.94831625e-01
 -2.26012796e-01 -2.61454016e-01 -1.90649316e-01 -7.49468729e-02
 -1.24717295e-01 -1.31254762e-01 -1.35868594e-01 -8.25340673e-02
 -1.79383099e-01 -1.71272948e-01 -2.02393636e-01 -1.73855796e-01
 -2.77534157e-01 -1.72617361e-01 -1.77784730e-02 -2.27631405e-01
 -5.13640717e-02 -1.43520132e-01 -1.40848234e-01 -6.84445500e-02
 -8.35945904e-02 -1.61901474e-01 -9.35979187e-02 -1.80871516e-01
 -1.53831005e-01 -1.28815174e-01 -7.34322220e-02 -2.16483533e-01
 -2.27629945e-01 -6.76136464e-02 -2.09269211e-01 -2.16621846e-01
 -9.32747200e-02 -2.30776265e-01 -2.25033164e-01 -7.26121739e-02
 -2.02020451e-01 -8.10857788e-02 -9.74868014e-02 -1.86059222e-01
 -2.47597039e-01 -2.21243873e-01 -2.47943848e-01 -1.21359855e-01
 -1.92783430e-01 -1.91285327e-01 -1.34170905e-01 -1.12169527e-01
 -2.45575473e-01 -1.15289710e-01 -2.61476606e-01 -1.24998800e-01
 -1.74608484e-01 -2.02384010e-01 -9.10303816e-02 -1.17980398e-01
  8.48947227e-01  9.98969257e-01  7.85472095e-01  9.47533965e-01
  8.30792367e-01  7.51081944e-01  7.51716256e-01  8.13465357e-01
  1.01036906e+00  8.14733386e-01  1.00981188e+00  1.01416075e+00
  8.08584452e-01  7.89553642e-01  9.69248652e-01  9.62695420e-01
  8.73900294e-01  7.99844384e-01  8.03300500e-01  9.00400817e-01
  9.29233313e-01  8.20831537e-01  8.48912358e-01  9.54472125e-01
  8.24455798e-01  9.12617743e-01  8.21881294e-01  8.26440394e-01
  8.81258488e-01  9.98400033e-01  9.51863289e-01  9.31974053e-01
  9.26509321e-01  9.59691882e-01  8.42539549e-01  9.70727563e-01
  8.00217450e-01  8.96339715e-01  9.02732193e-01  9.18991625e-01
  9.18580174e-01  8.54952455e-01  7.90582597e-01  8.63750637e-01
  8.18395376e-01  7.96765924e-01  8.36605430e-01  9.96074617e-01
  9.20409560e-01  9.65473533e-01  9.07770872e-01  9.80915487e-01
  8.69770527e-01  8.56991172e-01  8.33380342e-01  8.50245774e-01
  7.61140406e-01  8.89894843e-01  1.07305920e+00  8.15452993e-01
  1.02078772e+00  8.80300820e-01  9.03556585e-01  9.90043402e-01
  9.69578683e-01  8.90752792e-01  9.59709167e-01  8.57115328e-01
  9.01460886e-01  9.19082403e-01  9.99845445e-01  8.23087990e-01
  8.20417821e-01  9.92351651e-01  7.89775074e-01  8.35566640e-01
  9.70029950e-01  8.04756105e-01  7.92459726e-01  1.01270604e+00
  8.27411890e-01  9.80764747e-01  9.44641769e-01  8.66296649e-01
  7.92458951e-01  8.23762476e-01  7.86903739e-01  9.31631207e-01
  8.46812308e-01  8.39144707e-01  9.35490370e-01  9.71602440e-01
  7.79405534e-01  9.33509529e-01  7.72670984e-01  9.04824734e-01
  8.62505972e-01  8.06762218e-01  9.15733635e-01  9.39145446e-01
  3.47568677e-03 -1.30811846e-02 -1.50591694e-03  5.45990095e-03
  4.46329359e-03  5.47891483e-03 -1.42463960e-03  1.06912362e-03
  7.07269507e-03  3.35159106e-03  7.78800808e-03 -6.23620022e-03
 -5.35950996e-03 -3.15164099e-03  7.45856529e-03  4.77483915e-03
  3.03886156e-03 -1.05192680e-02 -7.73807149e-03  1.24979683e-03
 -5.23280818e-03  4.15496208e-04  1.11732045e-02 -6.20544283e-03
 -5.23078139e-04 -2.20667850e-03 -1.05601866e-02  5.55760600e-03
 -2.41111848e-03 -9.01730079e-03  7.11706094e-03 -8.63973424e-03
  1.09312544e-02 -1.08823935e-02  5.54343569e-04 -1.01931822e-02
 -3.00390855e-03 -5.23691007e-04  1.03561953e-03  8.87769798e-04
 -3.31202056e-03 -3.64721753e-04 -5.62374108e-03  4.88818530e-03
  1.29061216e-03 -8.33544414e-03  1.06750913e-02  1.02415206e-02
 -1.62690622e-03  6.47241948e-03 -2.28017708e-03 -1.05518010e-02
  3.13176843e-03  6.03208784e-04  2.51969723e-05 -2.54571345e-03
 -4.72720619e-03 -8.59703030e-03  1.80845466e-02 -7.47043965e-03
 -1.01576578e-02  2.51317397e-04 -2.15970073e-03  9.69880167e-03
  1.67982501e-03 -3.80501244e-03  1.79236021e-03 -3.84435942e-03
 -6.82799146e-04  4.47269483e-03 -6.01633405e-03  5.37397689e-04
  4.52495413e-03 -8.15264415e-03 -6.17903285e-03 -7.60034518e-03
  3.23632243e-03 -4.12393268e-03 -7.21451361e-03 -8.26215185e-03
  4.27238317e-03  8.07498209e-03 -7.32299581e-04  3.18766246e-03
 -1.33964382e-02 -4.17220173e-03  5.19878697e-03 -7.29415508e-04
 -5.59184002e-03  9.22562322e-07  1.10237021e-03 -6.83569489e-03
  1.12711582e-02  4.45203437e-03 -3.63815669e-03 -9.24405921e-03
  5.51694212e-03 -1.21173793e-02 -5.54526364e-03 -7.14487256e-03
 -2.22580895e-01 -6.87742084e-02 -2.36831769e-01 -1.17956795e-01
 -2.20940813e-01 -2.68728465e-01 -2.61488616e-01 -2.32882649e-01
 -5.71120158e-02 -2.02725500e-01 -7.50220343e-02 -6.77990317e-02
 -2.11216807e-01 -2.25617230e-01 -8.47095996e-02 -8.28745887e-02
 -1.67002842e-01 -2.46763572e-01 -2.36570224e-01 -1.48667112e-01
 -1.31111160e-01 -2.15112850e-01 -2.13779375e-01 -1.20277569e-01
 -2.06800804e-01 -1.43765822e-01 -2.17020139e-01 -2.20355406e-01
 -1.66125581e-01 -8.14712197e-02 -1.12286642e-01 -1.14956513e-01
 -8.24375898e-02 -1.10413909e-01 -1.94697246e-01 -9.73746702e-02
 -2.43281573e-01 -1.46836996e-01 -1.52369007e-01 -1.36736661e-01
 -1.23023205e-01 -1.91643983e-01 -2.55290300e-01 -1.95638135e-01
 -2.18964830e-01 -2.52281815e-01 -1.96503505e-01 -7.85930082e-02
 -1.25766993e-01 -1.32141382e-01 -1.32653877e-01 -8.52068439e-02
 -1.81497276e-01 -1.76044017e-01 -2.07138866e-01 -1.73945233e-01
 -2.67746329e-01 -1.76715836e-01 -2.55285650e-02 -2.30319470e-01
 -5.54343425e-02 -1.46776006e-01 -1.44335330e-01 -7.05620795e-02
 -8.31521228e-02 -1.59596905e-01 -9.16978121e-02 -1.83719903e-01
 -1.54832944e-01 -1.28429368e-01 -7.65165240e-02 -2.15380311e-01
 -2.25877434e-01 -6.84193522e-02 -2.06077248e-01 -2.12669000e-01
 -9.41241086e-02 -2.29988694e-01 -2.26975799e-01 -7.29693547e-02
 -2.03825220e-01 -8.29489157e-02 -9.60249081e-02 -1.85798302e-01
 -2.50328600e-01 -2.12522462e-01 -2.45492563e-01 -1.22130699e-01
 -1.94188029e-01 -1.92645118e-01 -1.36070609e-01 -1.12375490e-01
 -2.47959986e-01 -1.15233593e-01 -2.64741689e-01 -1.31459087e-01
 -1.78743497e-01 -2.01051131e-01 -9.40877199e-02 -1.18343018e-01]
sequential/dense/kernel:0
(100, 1)
[[-0.1631285 ]
 [ 0.10291018]
 [-0.15005377]
 [-0.0955849 ]
 [-0.1300291 ]
 [ 0.13734788]
 [-0.14431693]
 [-0.17303701]
 [-0.11785883]
 [-0.13517314]
 [-0.12454176]
 [ 0.07920818]
 [ 0.13286689]
 [-0.13549694]
 [-0.09713547]
 [-0.12120666]
 [ 0.13576962]
 [-0.16703977]
 [-0.15545313]
 [-0.16464116]
 [ 0.1422972 ]
 [-0.14755423]
 [-0.16024776]
 [ 0.13422926]
 [ 0.11967947]
 [ 0.15297289]
 [ 0.14936025]
 [-0.14824022]
 [ 0.14631763]
 [ 0.1200512 ]
 [-0.13276747]
 [ 0.12713438]
 [ 0.1227752 ]
 [ 0.13980897]
 [ 0.14260511]
 [ 0.12292313]
 [-0.15959136]
 [ 0.10981648]
 [ 0.13827316]
 [ 0.16789046]
 [ 0.12504208]
 [ 0.16553935]
 [-0.16178353]
 [-0.12653689]
 [-0.15323466]
 [-0.1734795 ]
 [ 0.12917474]
 [-0.09726168]
 [ 0.11297685]
 [-0.13519514]
 [ 0.12520787]
 [ 0.10381034]
 [-0.15927841]
 [ 0.13308029]
 [ 0.1470715 ]
 [-0.11910004]
 [-0.15824857]
 [ 0.10476091]
 [-0.05829946]
 [ 0.15510067]
 [ 0.07051142]
 [-0.10827926]
 [-0.10504018]
 [-0.12205716]
 [-0.13021232]
 [ 0.13708615]
 [-0.11318985]
 [-0.15003747]
 [ 0.10684354]
 [-0.12741353]
 [ 0.09519007]
 [-0.1649743 ]
 [-0.17148773]
 [ 0.10882095]
 [ 0.11726072]
 [ 0.14813879]
 [-0.10502389]
 [ 0.17938183]
 [-0.12881482]
 [ 0.10030168]
 [ 0.13296588]
 [-0.0918109 ]
 [ 0.12645535]
 [ 0.12480135]
 [-0.14978935]
 [-0.16658674]
 [-0.16786566]
 [-0.11661243]
 [-0.13729967]
 [ 0.15960851]
 [-0.09711894]
 [ 0.1505797 ]
 [ 0.16909571]
 [-0.14350526]
 [-0.16219775]
 [-0.11854637]
 [ 0.11510236]
 [-0.13187829]
 [-0.12134657]
 [ 0.14352529]]
sequential/dense/bias:0
(1,)
[0.47340515]
