sequential/lstm/kernel:0
(1, 200)
[[ 0.04262508 -0.06606079  0.17062679 -0.07627241  0.16019943  0.02881279
   0.06817175  0.19812892 -0.00213687 -0.1964479  -0.01510668  0.06905439
  -0.04496525 -0.11924814  0.14925201  0.22250547 -0.00323714  0.10187986
   0.17777923  0.06629799  0.1045359  -0.11358945  0.11264276  0.0376311
   0.05350491 -0.12036292  0.25343493  0.05193351 -0.12709041  0.04031597
   0.11025357  0.0329825  -0.068229   -0.05022907 -0.02716274 -0.00886639
  -0.12028296  0.02628528 -0.02567708  0.1427187   0.22688788 -0.06426346
  -0.2439562   0.01938793  0.16000167 -0.20284759 -0.08533346  0.11927217
   0.01850066  0.06677541 -0.15065606  0.03961482 -0.12421963 -0.02977051
   0.17698441 -0.17944421 -0.14160654  0.15153661 -0.01092024 -0.05528923
  -0.1357809   0.03791366  0.1290633  -0.09047005  0.0965933   0.16326231
   0.07357416  0.03736378 -0.04028981 -0.10084415  0.03890423  0.12892447
   0.1212519  -0.00699214  0.02028831 -0.14068435 -0.16542748 -0.07082465
  -0.15381128 -0.1251296   0.00142653  0.04287128  0.13768773  0.02235618
  -0.01528579 -0.02271017  0.05415407  0.01188857  0.05947402  0.19330977
   0.00259324  0.11811472 -0.01858448  0.01630948  0.03202242  0.12223759
  -0.1866962   0.13519338 -0.16619158 -0.12380445 -0.05822528  0.08319607
   0.08842772  0.17373389 -0.06860739 -0.02431666 -0.16668661 -0.08795477
  -0.01522732 -0.0220989   0.09830827  0.0756416   0.15106022 -0.13265221
  -0.07878765  0.11325942  0.16137628 -0.09673712  0.10099122 -0.0481655
   0.03825159  0.03147977  0.06578733 -0.1290276  -0.07901087  0.04196473
   0.14182769  0.1404097  -0.1102376  -0.01165488  0.00490045  0.15072173
  -0.10443642 -0.1684497   0.08820287  0.16169979  0.02609634 -0.08412973
   0.07248378  0.13658653 -0.16056462 -0.13325074  0.01542454  0.01081497
  -0.09648598  0.02711912  0.1284932  -0.09402102 -0.06244495 -0.12766047
   0.00893487  0.12712187  0.05590218  0.17408308 -0.0553996  -0.14407967
   0.10715509  0.12598486 -0.06175455 -0.22443755 -0.13627912 -0.03659356
   0.19961691 -0.00567384 -0.1124763   0.21627475  0.1174719   0.06812316
   0.15608352  0.10927352 -0.10774001 -0.12070964 -0.00575215  0.11185841
   0.07808701  0.03309931  0.26295125  0.00736376  0.09144706  0.1751815
   0.04717234  0.08231583  0.16203709 -0.05744123  0.23373643 -0.04505607
  -0.25681865 -0.11231276  0.13991752  0.02359186  0.02583595 -0.0256689
  -0.05355898 -0.15054147  0.28676414 -0.13984545 -0.06459925  0.14419556
   0.07097185  0.12660907]]
sequential/lstm/recurrent_kernel:0
(50, 200)
[[-0.17842066  0.00297043 -0.02494711 ... -0.02259474 -0.04130726
   0.13449743]
 [-0.0997771  -0.01763304  0.07021398 ...  0.13219741  0.06600278
  -0.01969632]
 [-0.04498193  0.01448792  0.01209929 ... -0.04395766  0.12583022
   0.06460014]
 ...
 [-0.07568271  0.04544396  0.03223792 ... -0.09392988 -0.07195266
  -0.07266781]
 [-0.01613535  0.05131085 -0.08602993 ... -0.07691573 -0.08355741
  -0.06947937]
 [ 0.06768401 -0.07337934 -0.04572966 ... -0.01861798  0.03491533
  -0.03715636]]
sequential/lstm/bias:0
(200,)
[ 8.33196659e-03  4.29718988e-03  1.27591155e-02  6.26331866e-02
  9.79258772e-03 -3.71647254e-02  3.50954495e-02  1.61321107e-02
 -1.44960517e-02 -1.26847392e-03 -3.66808684e-03 -7.44509045e-03
  6.97088838e-02  7.70036923e-03 -2.62875501e-02  2.16076709e-02
  4.70746867e-02  6.40417859e-02  3.20295319e-02 -4.76052351e-02
 -2.47866623e-02 -3.61102857e-02 -1.21561419e-02  1.10228714e-02
 -9.31131002e-03 -6.84657842e-02  1.06775507e-01  1.28248064e-02
 -3.19160186e-02 -1.75443590e-02 -1.79256722e-02  1.29129170e-02
 -4.19955701e-03  7.14863613e-02  2.87224930e-02  6.80563739e-03
  1.54107262e-03 -2.57547926e-02 -2.85474565e-02  5.36552034e-02
  4.71635759e-02 -1.28257694e-02 -4.02846746e-02  5.10021287e-04
  1.33060932e-01 -5.28664365e-02 -7.83816352e-03  1.06935073e-02
 -4.69147004e-02  4.84547988e-02  1.05357766e+00  9.51111794e-01
  9.57458854e-01  9.94861543e-01  9.43985760e-01  1.02863359e+00
  9.59013343e-01  9.59044814e-01  1.00917637e+00  1.05236781e+00
  9.59537983e-01  8.54169965e-01  9.70817149e-01  9.58569229e-01
  9.33482647e-01  9.35985506e-01  9.77703333e-01  8.90290201e-01
  9.19962108e-01  9.58058238e-01  9.80922043e-01  9.89221036e-01
  9.94400203e-01  9.85279083e-01  8.66040766e-01  9.55055833e-01
  9.63215888e-01  9.65532839e-01  9.71297503e-01  9.71358597e-01
  1.02024519e+00  9.81411874e-01  9.88068938e-01  9.71165776e-01
  9.16027606e-01  9.65067089e-01  1.04478824e+00  9.79531407e-01
  9.73514140e-01  8.85705173e-01  9.73576248e-01  9.64453340e-01
  1.03692234e+00  1.06000948e+00  1.01492608e+00  9.93135154e-01
  9.53371108e-01  9.87134695e-01  8.82758081e-01  9.27819073e-01
  2.94941813e-02 -3.91184203e-02 -3.44821028e-02 -8.13594684e-02
  2.51534004e-02  1.19043281e-02  8.10002908e-02  4.12844159e-02
  1.25151398e-02  3.25278123e-03 -4.50826623e-02 -3.86410095e-02
 -7.07561448e-02  5.84536046e-02  3.71235050e-02 -5.22597581e-02
 -7.41380230e-02  4.50998805e-02 -4.42564599e-02  1.86639503e-02
 -2.46199127e-02 -1.48850624e-02 -3.08288094e-02  5.61148003e-02
  4.04776894e-02 -1.63470190e-02 -6.11682124e-02 -6.81533441e-02
  5.50182648e-02  1.09507777e-02 -5.99963404e-03 -6.50416166e-02
  4.78647873e-02  7.28259012e-02 -4.79406677e-02 -7.26741329e-02
 -2.21527647e-02  3.71836983e-02 -3.53081077e-02 -6.13726601e-02
  7.78474584e-02  6.34009913e-02 -4.72244620e-03 -1.79541074e-02
  4.29959074e-02 -1.79099403e-02 -6.04010597e-02  4.05635834e-02
  3.59860994e-02  5.99221364e-02  7.66393077e-03  3.28714936e-03
  1.39191765e-02  5.92194535e-02  1.36924936e-02 -4.70096618e-02
  3.36636081e-02  1.57201327e-02 -1.65359639e-02 -3.78775992e-03
 -3.13854730e-03 -5.59717836e-03  6.55846745e-02  7.11641461e-03
 -2.10254788e-02  1.92599613e-02  4.43320274e-02  6.28553778e-02
  3.10870372e-02 -4.37497757e-02 -2.35841647e-02 -3.61175686e-02
 -1.04414765e-02  1.01929000e-02 -9.23613645e-03 -6.90682232e-02
  1.03823848e-01  1.31186759e-02 -3.31868939e-02 -1.92056540e-02
 -1.79133043e-02  1.24421353e-02 -3.70121538e-03  7.16810971e-02
  2.09980328e-02  8.14971887e-03 -7.66663859e-03 -2.62015164e-02
 -2.75743864e-02  5.44652157e-02  5.00694811e-02 -1.25850802e-02
 -4.09080572e-02 -1.06123090e-02  1.29889324e-01 -5.26953787e-02
 -7.80195370e-03  1.03249066e-02 -4.67915386e-02  4.82582040e-02]
sequential/lstm_1/kernel:0
(50, 400)
[[-5.58823496e-02 -6.17064461e-02 -4.26497795e-02 ... -1.20596677e-01
  -3.62013467e-02  4.79234057e-03]
 [-8.99156481e-02  8.07286873e-02 -1.13288485e-01 ... -4.96927351e-02
   1.35914655e-04  9.67939198e-02]
 [-9.18168426e-02 -7.66756609e-02 -2.72201058e-02 ... -3.92028280e-02
   1.95792448e-02  1.27842894e-03]
 ...
 [ 8.76168534e-02  8.98073241e-03 -4.64925840e-02 ...  1.52514085e-01
  -4.38248590e-02 -3.77943292e-02]
 [-8.77401456e-02 -1.30876884e-01 -5.39841056e-02 ... -4.24573235e-02
   4.38796952e-02  1.00148898e-02]
 [-1.12858765e-01  5.35381325e-02 -5.35129569e-02 ...  1.08838819e-01
   8.63130167e-02  8.58168676e-02]]
sequential/lstm_1/recurrent_kernel:0
(100, 400)
[[-9.70766786e-03  2.51337178e-02  7.30351284e-02 ... -4.70837131e-02
   5.63641870e-03  1.78159475e-02]
 [-8.61598551e-02 -2.13197805e-02  3.19223553e-02 ...  4.64867353e-02
   1.72626451e-02 -6.65526986e-02]
 [ 6.72494620e-02  1.51808811e-02  2.33928766e-02 ... -1.77182212e-01
  -3.83439139e-02  1.12213835e-01]
 ...
 [-7.33431056e-02  1.51849106e-01 -5.77654801e-02 ... -2.43652221e-02
  -1.19997360e-01  7.91697502e-02]
 [ 6.85583800e-02  1.55840486e-01 -9.05422121e-03 ... -5.24144508e-02
   2.26864666e-02  6.35129288e-02]
 [ 2.05093250e-02 -2.71878671e-02  2.50990270e-05 ... -5.33296354e-02
   2.11491920e-02 -3.50671262e-02]]
sequential/lstm_1/bias:0
(400,)
[-7.63962790e-02 -3.23207453e-02 -8.21253583e-02 -3.50073613e-02
 -7.64515772e-02 -8.89450237e-02 -1.34015799e-01 -9.12573934e-02
 -2.13874243e-02 -7.70372152e-02 -1.81303900e-02 -1.92212239e-02
 -7.28754401e-02 -1.04080431e-01 -3.63287181e-02 -3.21949124e-02
 -6.80138916e-02 -1.19598284e-01 -1.07535541e-01 -6.49713501e-02
 -5.23294024e-02 -1.06652990e-01 -7.83476457e-02 -4.51368131e-02
 -8.84691104e-02 -5.67132831e-02 -7.23339170e-02 -1.18794329e-01
 -6.84500113e-02 -3.05148363e-02 -4.24910896e-02 -3.94188687e-02
 -6.00968078e-02 -5.06196283e-02 -6.88568652e-02 -3.29322554e-02
 -8.19303244e-02 -6.28323480e-02 -5.89348264e-02 -5.09065352e-02
 -4.66505140e-02 -6.57438636e-02 -1.12253122e-01 -4.89755608e-02
 -7.80034363e-02 -1.12811103e-01 -5.95124587e-02  3.98528054e-02
 -2.54211854e-02  8.60676542e-03 -3.75844575e-02 -2.17206683e-02
 -7.58892000e-02 -5.93340509e-02 -8.76129791e-02 -5.93774803e-02
 -1.12622790e-01 -4.92334180e-02 -3.75867710e-02 -1.00153007e-01
 -2.01289188e-02 -3.66333015e-02 -3.68439779e-02 -2.15318277e-02
 -3.07943318e-02 -6.96544275e-02 -2.83532571e-02 -7.43204355e-02
 -6.46673813e-02 -4.00723554e-02 -1.55989984e-02 -5.90761155e-02
 -1.03858903e-01 -2.28019301e-02 -4.55375761e-02 -8.27132910e-02
 -3.54620181e-02 -7.72237256e-02 -8.05229321e-02 -3.17340121e-02
 -7.31129795e-02 -3.12584415e-02 -2.23762672e-02 -7.20328093e-02
 -1.31968245e-01 -9.62115750e-02 -8.42786580e-02 -4.81118411e-02
 -7.65951797e-02 -7.21107498e-02 -5.65532073e-02 -4.08145785e-02
 -9.82511118e-02 -3.68506461e-02 -8.27022418e-02 -2.65313834e-02
 -6.95337653e-02 -4.59708087e-02 -3.61133292e-02 -5.54220937e-02
  9.44725573e-01  9.81719732e-01  9.38318491e-01  9.70046401e-01
  9.27855968e-01  8.76351774e-01  8.67637157e-01  9.23762739e-01
  9.87494588e-01  8.97324145e-01  9.88977611e-01  9.87467587e-01
  9.15122986e-01  8.68756175e-01  9.79551733e-01  9.85499680e-01
  9.33208227e-01  8.93762529e-01  8.52307856e-01  9.46458697e-01
  9.74727035e-01  9.03927922e-01  9.30517495e-01  9.78268802e-01
  9.06985223e-01  9.56731617e-01  9.37644839e-01  8.90994787e-01
  9.38341916e-01  9.88303185e-01  9.64613736e-01  9.72156942e-01
  9.62200344e-01  9.72353816e-01  9.39900398e-01  9.88313317e-01
  9.28277969e-01  9.20390129e-01  9.49501216e-01  9.68788683e-01
  9.34498131e-01  9.33072865e-01  9.03070092e-01  9.78749216e-01
  8.91583562e-01  9.03191805e-01  9.62722301e-01  1.05956674e+00
  9.68121886e-01  1.00366259e+00  9.74461019e-01  1.00214016e+00
  9.35861826e-01  9.46153879e-01  9.18135464e-01  9.27166224e-01
  8.66867602e-01  9.77641344e-01  9.67422485e-01  9.08111393e-01
  1.00299990e+00  9.59019542e-01  9.67399120e-01  9.83539402e-01
  9.85808432e-01  9.54282582e-01  9.95663166e-01  9.43726659e-01
  9.44593787e-01  9.78294075e-01  1.00052106e+00  9.05054927e-01
  8.98010373e-01  9.93904352e-01  9.43408132e-01  9.29718375e-01
  9.86190081e-01  9.26444709e-01  9.19689298e-01  9.95328486e-01
  9.13393795e-01  9.90218878e-01  9.88835871e-01  9.40801442e-01
  8.93000901e-01  9.16100621e-01  9.21818018e-01  9.59680915e-01
  9.26577568e-01  9.29350436e-01  9.27752972e-01  9.84901369e-01
  9.30038214e-01  9.80263412e-01  9.23176944e-01  9.89812255e-01
  9.42441463e-01  9.79094326e-01  9.86407340e-01  9.57356036e-01
 -6.40215585e-03  5.21586556e-03  2.72150181e-04  3.99994012e-03
 -3.65305506e-03  7.91963469e-03 -6.96637249e-03 -3.10361967e-03
 -5.88019984e-03 -2.46779760e-03 -3.96492146e-03 -7.42918719e-03
 -3.14479205e-03  1.89454571e-04  4.16850031e-04 -9.26255900e-03
  7.26326508e-03  2.48270342e-03 -7.93119613e-03 -4.39491495e-03
  3.64047498e-03 -1.50956179e-03 -8.39341548e-04  6.16063084e-03
 -3.42801702e-03  7.25182379e-03  2.42717681e-03 -3.41252354e-03
  8.53453763e-04  5.53372456e-03 -3.50636290e-03  2.69380840e-03
 -7.46168057e-03  2.69297906e-03  3.22957966e-03  8.13894090e-04
 -2.19321041e-03 -2.84576323e-03  3.96123854e-04  5.38846524e-03
  6.03812514e-03  2.19451333e-03 -1.87571498e-03  1.04974685e-02
 -2.89647118e-03  2.23144074e-04 -3.31404561e-04 -5.47820004e-03
  1.58695248e-03 -6.11017458e-03  7.14645628e-03  5.19917253e-03
 -5.96182421e-03 -6.66241685e-04  6.78996948e-05  6.05555112e-03
 -5.52202156e-03  2.84124608e-03 -7.29607942e-04  3.35037359e-03
  1.02596928e-03 -5.18657081e-03 -8.83119763e-04 -3.85556230e-03
 -3.93836619e-03  1.46684563e-03 -1.87455153e-05 -3.35331121e-03
  6.70389691e-03 -7.95814954e-03  7.33716972e-03 -5.04331710e-03
 -7.40321400e-03  1.33969111e-03  5.20961778e-03  2.83716619e-03
 -1.92870293e-03  6.22799946e-03 -4.39354964e-03  6.25472981e-03
 -5.06136613e-03 -2.51103193e-03  8.41149967e-03 -2.40273308e-04
 -7.63920788e-03 -7.41502503e-03 -7.41304684e-05 -2.89576384e-03
 -2.31854455e-03  5.51987858e-03  5.80766192e-03  4.16460726e-03
  1.88419526e-03 -4.26940806e-03 -2.12605856e-03 -1.73487235e-03
  5.89767192e-03 -6.20690361e-03 -6.86714833e-04  1.65185216e-03
 -8.01890194e-02 -3.26959416e-02 -8.40281025e-02 -3.89516726e-02
 -7.65370056e-02 -9.06670019e-02 -1.37049690e-01 -9.25813243e-02
 -2.15511676e-02 -8.03950727e-02 -1.97542831e-02 -2.27478817e-02
 -7.34924451e-02 -1.03931665e-01 -3.87152173e-02 -3.13648172e-02
 -6.85306266e-02 -1.18089311e-01 -1.09711200e-01 -6.55004457e-02
 -5.37072197e-02 -1.07192174e-01 -7.93040097e-02 -4.61394712e-02
 -9.10349637e-02 -5.59718385e-02 -7.24025369e-02 -1.20100088e-01
 -6.87885284e-02 -2.97291912e-02 -4.21514846e-02 -3.88766639e-02
 -6.19078614e-02 -5.04266769e-02 -6.96993321e-02 -3.21756192e-02
 -8.08564126e-02 -6.31319955e-02 -5.92808686e-02 -5.00109568e-02
 -4.80678566e-02 -6.66760877e-02 -1.11704998e-01 -4.74925973e-02
 -7.71416649e-02 -1.09744042e-01 -6.10279553e-02  3.72842662e-02
 -2.61204876e-02  5.74540300e-03 -3.55719775e-02 -2.30988078e-02
 -7.77580068e-02 -6.04802556e-02 -9.03332010e-02 -6.14773668e-02
 -1.11151971e-01 -5.20135798e-02 -3.85994688e-02 -9.97199863e-02
 -2.16934755e-02 -4.05768305e-02 -3.91075164e-02 -2.23312117e-02
 -3.08029857e-02 -6.89693540e-02 -2.89364923e-02 -7.62528852e-02
 -6.55119196e-02 -3.99959497e-02 -1.75910797e-02 -5.95012307e-02
 -1.03132240e-01 -2.26428714e-02 -4.42836583e-02 -7.83742890e-02
 -3.45924683e-02 -7.78738633e-02 -8.13616514e-02 -3.15697715e-02
 -7.30265006e-02 -3.20344418e-02 -2.29561664e-02 -7.12670833e-02
 -1.31344482e-01 -9.44020078e-02 -8.36085975e-02 -4.84247394e-02
 -7.74144679e-02 -7.27850273e-02 -5.72628751e-02 -4.10466865e-02
 -9.92920548e-02 -3.61322537e-02 -8.29660669e-02 -2.81329937e-02
 -7.11737946e-02 -4.60592620e-02 -3.57153341e-02 -5.49390204e-02]
sequential/dense/kernel:0
(100, 1)
[[-0.18427038]
 [ 0.1184195 ]
 [-0.16255434]
 [-0.08251613]
 [-0.13269646]
 [ 0.12344788]
 [-0.1383785 ]
 [-0.18960842]
 [-0.13224234]
 [-0.1319799 ]
 [-0.1537091 ]
 [ 0.09326255]
 [ 0.13518974]
 [-0.12972781]
 [-0.09556514]
 [-0.11609361]
 [ 0.14795989]
 [-0.18154322]
 [-0.15943602]
 [-0.18246466]
 [ 0.14730275]
 [-0.15134439]
 [-0.16863394]
 [ 0.16397858]
 [ 0.09895613]
 [ 0.17415915]
 [ 0.17512156]
 [-0.15664715]
 [ 0.16337644]
 [ 0.17306608]
 [-0.1700977 ]
 [ 0.1320373 ]
 [ 0.1092051 ]
 [ 0.16088799]
 [ 0.17224663]
 [ 0.13166924]
 [-0.16656622]
 [ 0.10409907]
 [ 0.15037969]
 [ 0.20679277]
 [ 0.12550622]
 [ 0.18981557]
 [-0.17807592]
 [-0.1129008 ]
 [-0.16891806]
 [-0.19472139]
 [ 0.11792843]
 [-0.10375198]
 [ 0.10989846]
 [-0.16838305]
 [ 0.15571779]
 [ 0.11341034]
 [-0.17452349]
 [ 0.13736068]
 [ 0.15775986]
 [-0.11504801]
 [-0.18419085]
 [ 0.0902632 ]
 [ 0.10306362]
 [ 0.1743177 ]
 [ 0.0787392 ]
 [-0.09510952]
 [-0.10332663]
 [-0.15508896]
 [-0.1469181 ]
 [ 0.1604175 ]
 [-0.12732549]
 [-0.16554473]
 [ 0.09798349]
 [-0.1386199 ]
 [ 0.12342513]
 [-0.20189139]
 [-0.19051835]
 [ 0.13329822]
 [ 0.09993944]
 [ 0.16972426]
 [-0.11769332]
 [ 0.20760246]
 [-0.11499788]
 [ 0.15034468]
 [ 0.11736002]
 [-0.10397966]
 [ 0.13772056]
 [ 0.11293288]
 [-0.14250387]
 [-0.19457681]
 [-0.17592715]
 [-0.10831137]
 [-0.12862663]
 [ 0.17716883]
 [-0.09865747]
 [ 0.1944944 ]
 [ 0.1876468 ]
 [-0.17759162]
 [-0.2077218 ]
 [-0.09688535]
 [ 0.10143253]
 [-0.1141061 ]
 [-0.1177718 ]
 [ 0.16458051]]
sequential/dense/bias:0
(1,)
[0.43704006]
