sequential/lstm/kernel:0
(1, 200)
[[ 0.09153382  0.00847156  0.11122181 -0.04209091  0.12386184  0.10621504
   0.13829675  0.1644427   0.04351031 -0.15496685  0.03659812  0.06976302
  -0.03620897 -0.09073134  0.10384003  0.21398278  0.02413216  0.22002523
   0.24189171  0.07999542  0.06459441 -0.15721126  0.08789588  0.04592561
   0.64760447 -0.12575388  0.49694002  0.0621     -0.14613537  0.05280396
   0.1233799   0.04254409 -0.08022331  0.00430183 -0.05180635  0.06215207
  -0.07290551  0.01467771 -0.03970117  0.32135925  0.30385205 -0.13145848
  -0.21846889  0.06807388  0.2633938  -0.31016132 -0.00310955  0.10149191
   0.06287342  0.20765637 -0.10712006 -0.19937225 -0.24768229 -0.13044429
   0.07701252 -0.1401373  -0.23737833  0.02265902  0.0345798   0.00680583
  -0.13494515 -0.10577068  0.05135095 -0.22247641 -0.05117019  0.01921287
  -0.04681985 -0.20947286 -0.26806858 -0.13332845 -0.00912377  0.06861163
   0.07505501 -0.05694786 -0.21033297 -0.18593949 -0.39737448 -0.19364989
  -0.17934144 -0.22795571  0.01481175 -0.04608695  0.11604092 -0.12913105
  -0.23756808 -0.11286633  0.09705379 -0.01495172  0.02431845 -0.00327767
  -0.09608468  0.00801207  0.03287512  0.06012417 -0.15629396 -0.00585432
  -0.29520825  0.04344031 -0.26111382 -0.24824935 -0.06670291  0.1218643
   0.10470393  0.17986493 -0.08136945 -0.03805274 -0.18034375 -0.10081333
  -0.02766573 -0.01633233  0.12021382  0.10548376  0.15657012 -0.16005377
  -0.11282524  0.12597378  0.17033018 -0.1318443   0.12900679 -0.05401948
   0.0505454   0.03886709  0.10024752 -0.14277904 -0.16653416  0.05862638
   0.15514004  0.16852404 -0.11055658 -0.02356755  0.00996684  0.17122833
  -0.1186254  -0.17939773  0.12139292  0.19396886  0.04322234 -0.08753488
   0.10465515  0.1570099  -0.17398027 -0.14191404  0.00288534  0.02153532
  -0.13517407  0.06867941  0.17648922 -0.11104288 -0.09384131 -0.1516128
   0.06064459  0.19348732 -0.00898979  0.20152825 -0.09110343 -0.07345112
   0.170758    0.08949802 -0.02071134 -0.17699057 -0.07956074 -0.02827419
   0.2074555   0.01738906 -0.15950704  0.20074366  0.13857351  0.1831311
   0.21693175  0.12772699 -0.14692862 -0.15614055 -0.02567379  0.11774678
   0.6723795   0.04142012  0.49720293  0.00988726  0.07718811  0.19874406
   0.06851917  0.09213052  0.15352446 -0.00830104  0.19398762  0.02130817
  -0.21702065 -0.12282202  0.13553996  0.19575316  0.10035604 -0.09373492
  -0.00719774 -0.11539095  0.38671952 -0.23435743  0.01565243  0.12465138
   0.11602987  0.26679203]]
sequential/lstm/recurrent_kernel:0
(50, 200)
[[-0.12724015  0.03153091 -0.04171638 ... -0.04206351 -0.01849106
   0.21094972]
 [-0.03239002 -0.04456476  0.06326137 ...  0.09844168  0.0973091
  -0.04113051]
 [ 0.01477497 -0.01803317  0.01103943 ... -0.04661145  0.13168539
   0.07063377]
 ...
 [-0.09635042  0.05921605  0.03131528 ... -0.0904367  -0.09607928
  -0.0722444 ]
 [-0.0743792   0.10436705 -0.07035001 ... -0.06424801 -0.11165234
  -0.08557574]
 [-0.04142477 -0.03019426 -0.04313822 ... -0.01109541 -0.01832594
  -0.0876838 ]]
sequential/lstm/bias:0
(200,)
[ 0.00473499  0.15881278  0.00546109  0.14106096 -0.04018636 -0.01639961
  0.15346448  0.01700556 -0.03392513 -0.05465407 -0.0680021   0.03498543
  0.1409121   0.04821998 -0.02016641  0.08779217  0.12660967  0.24258748
  0.14035876 -0.09902225 -0.10034712 -0.13095681 -0.0816003   0.03749013
  0.6800443  -0.13437667  0.41475907  0.07018057 -0.09683639 -0.03036023
 -0.04802575  0.03033602 -0.03829111  0.20065875  0.0999427   0.10528184
 -0.00742895 -0.09366371 -0.08791347  0.31486523  0.16671734 -0.05937407
 -0.10945167 -0.00593745  0.2545441  -0.11953357  0.07006145  0.01332701
 -0.01873555  0.19328456  1.0512334   0.7711219   0.879561    0.9195415
  0.832215    1.0230547   0.9157035   0.8497833   0.99649596  1.0339314
  0.86641115  0.74813545  0.91863745  0.8043856   0.8104726   0.85237443
  0.90397954  0.6899958   0.72444206  0.8821164   0.89169794  0.8764619
  0.89355654  0.9436057   0.6575872   0.8548226   0.82153666  0.87992615
  0.9039959   0.84687394  0.999468    0.87447757  0.94381034  0.90170836
  0.7890791   0.8765701   1.0405476   0.9249216   0.8853905   0.7870761
  0.9039371   0.87787193  1.0019993   1.0595446   0.7544401   0.90375704
  0.84010524  0.90083224  0.76868176  0.8086113   0.04268974 -0.06876662
 -0.05887067 -0.10218288  0.04825399  0.0236062   0.10158443  0.05193209
  0.01756633  0.00510748 -0.05697442 -0.06534658 -0.09034035  0.08657975
  0.0604561  -0.07220926 -0.09476389  0.06963369 -0.07246104  0.01701902
 -0.03856623 -0.01738011 -0.05360871  0.07939348  0.08594729 -0.03939367
 -0.08438982 -0.0904047   0.06415969  0.0151442  -0.00274472 -0.08786462
  0.05748686  0.09742557 -0.06967689 -0.10354786 -0.03123662  0.04070035
 -0.06123362 -0.08932712  0.09750383  0.07948993  0.00167772 -0.02524728
  0.07095088 -0.04426856 -0.09001488  0.06233546  0.0521701   0.08381487
  0.00336013  0.16395824  0.00358969  0.13888624 -0.03808851 -0.02279228
  0.15271571  0.01601218 -0.03577585 -0.0567002  -0.06395307  0.03519321
  0.14120771  0.04625243 -0.02262586  0.08866534  0.1258217   0.2437394
  0.14084688 -0.09966621 -0.09789028 -0.13127936 -0.07920651  0.03658675
  0.6820768  -0.136722    0.41178194  0.06876789 -0.1014457  -0.03413101
 -0.04945057  0.02905096 -0.03715065  0.20332149  0.10187213  0.10341074
 -0.01330847 -0.09463248 -0.08959007  0.31673005  0.16841589 -0.05839209
 -0.11248454 -0.0130711   0.2567037  -0.11737471  0.06987593  0.01326417
 -0.0193748   0.19286716]
sequential/lstm_1/kernel:0
(50, 400)
[[-0.08158301 -0.06597549 -0.02618374 ... -0.14237289 -0.00670914
  -0.03703447]
 [-0.00067046  0.08453386 -0.0546883  ... -0.05465265  0.03512427
   0.19996755]
 [-0.03739202 -0.04822319  0.06487303 ...  0.08488318  0.07054776
   0.08751174]
 ...
 [ 0.0161404  -0.00724313 -0.10274936 ...  0.07683565 -0.09064124
  -0.08386274]
 [-0.1765737  -0.17278957 -0.04941587 ... -0.01873757  0.07113332
  -0.07126497]
 [-0.13395338  0.03891475 -0.08860759 ...  0.06864119  0.04663336
   0.02916943]]
sequential/lstm_1/recurrent_kernel:0
(100, 400)
[[-0.03244628  0.00537524  0.05039907 ... -0.01717789  0.01019653
  -0.00183485]
 [-0.0461707   0.01503645  0.03051037 ...  0.03768935  0.00124077
   0.00662225]
 [ 0.07809463 -0.02436554  0.02457245 ... -0.10025579 -0.00041021
   0.06650067]
 ...
 [-0.09281742  0.11007441 -0.03167006 ...  0.01217356 -0.10056395
   0.00886107]
 [ 0.07923584  0.15332955  0.01478433 ...  0.05605489  0.08109595
   0.04178379]
 [ 0.07242751 -0.04139082  0.0319861  ... -0.1076538  -0.02184841
   0.0136558 ]]
sequential/lstm_1/bias:0
(400,)
[-1.94966942e-01 -8.34658965e-02 -1.94770604e-01 -1.32863730e-01
 -1.70781344e-01 -2.21979901e-01 -2.60666043e-01 -2.01326445e-01
 -5.44140935e-02 -1.90476105e-01 -6.45567253e-02 -1.23835772e-01
 -1.98573694e-01 -1.81353301e-01 -9.36731771e-02 -8.52233768e-02
 -1.70825362e-01 -3.20325494e-01 -2.32273459e-01 -1.70114160e-01
 -1.14887446e-01 -2.20436022e-01 -1.83072314e-01 -1.22127213e-01
 -2.10840046e-01 -1.21142127e-01 -2.03517526e-01 -1.96543306e-01
 -1.81389451e-01 -9.04742181e-02 -1.19638532e-01 -1.11913964e-01
 -1.42167866e-01 -1.02416605e-01 -1.82077080e-01 -8.65518600e-02
 -1.79656804e-01 -1.86317980e-01 -1.59151942e-01 -1.30152225e-01
 -1.67948067e-01 -1.91844210e-01 -2.79076368e-01 -1.19867846e-01
 -2.13775724e-01 -2.76550382e-01 -1.80373639e-01 -2.48886384e-02
 -1.55454710e-01 -3.56764831e-02 -1.37889072e-01 -7.20581040e-02
 -1.60234630e-01 -1.67244181e-01 -2.02980027e-01 -1.92672983e-01
 -1.67547688e-01 -1.70206398e-01 -5.25753982e-02 -2.40310848e-01
 -7.72408769e-02 -1.43707484e-01 -1.75123960e-01 -6.95482716e-02
 -9.38557014e-02 -1.87989160e-01 -1.06580637e-01 -1.69495612e-01
 -1.58582404e-01 -1.17213964e-01 -6.41576871e-02 -2.16253504e-01
 -1.98032781e-01 -6.13802299e-02 -1.83419049e-01 -2.17082620e-01
 -9.66162533e-02 -1.91133872e-01 -2.01879367e-01 -6.88442215e-02
 -1.75548539e-01 -8.58035907e-02 -9.26701277e-02 -2.01669335e-01
 -2.44883910e-01 -2.18307644e-01 -1.93488896e-01 -1.43451273e-01
 -1.83789968e-01 -1.94506124e-01 -1.83786929e-01 -8.98205563e-02
 -2.24344254e-01 -1.02258042e-01 -2.32283369e-01 -6.48981482e-02
 -1.58559471e-01 -1.44345015e-01 -1.28169194e-01 -1.07362904e-01
  8.42719197e-01  9.49340820e-01  8.46357942e-01  9.66861427e-01
  8.25385392e-01  8.21557403e-01  7.27293015e-01  8.21519494e-01
  9.81059134e-01  7.93131709e-01  9.80696678e-01  9.79411006e-01
  8.00541341e-01  7.97725618e-01  9.45524096e-01  9.69146669e-01
  8.54264617e-01  7.41487265e-01  7.39113629e-01  8.68726730e-01
  9.38831747e-01  7.85967052e-01  8.37952077e-01  9.33149576e-01
  8.06927919e-01  9.14178729e-01  8.15219164e-01  7.94506788e-01
  8.15920591e-01  9.63426888e-01  9.14708138e-01  9.11013365e-01
  9.12290990e-01  9.55648899e-01  8.41766775e-01  9.74204600e-01
  8.46195102e-01  8.52696419e-01  8.64676595e-01  9.08718824e-01
  8.73786628e-01  8.18070114e-01  7.66962886e-01  9.58564520e-01
  7.27112830e-01  7.74342120e-01  8.41205060e-01  1.02085304e+00
  9.05103862e-01  1.02847195e+00  8.78814459e-01  9.90567803e-01
  8.51403534e-01  8.49285245e-01  8.26864660e-01  8.29522669e-01
  6.93297207e-01  9.26467001e-01  1.04504061e+00  7.93555796e-01
  9.88540053e-01  8.57544184e-01  8.74927044e-01  9.68314707e-01
  9.41230237e-01  8.71335864e-01  9.50519562e-01  8.58267546e-01
  8.44659328e-01  9.43897724e-01  9.98391509e-01  7.70587921e-01
  8.27131987e-01  9.89012659e-01  8.37850630e-01  8.28800976e-01
  9.75281775e-01  8.05034578e-01  8.24281037e-01  1.00292480e+00
  8.05873871e-01  9.54087079e-01  9.40178812e-01  8.32976878e-01
  8.33587527e-01  8.16847384e-01  7.86442459e-01  8.59163940e-01
  8.15600276e-01  8.21743309e-01  8.72682571e-01  9.66681659e-01
  7.74305224e-01  9.55498397e-01  7.88053632e-01  9.80060399e-01
  8.37555945e-01  8.86894345e-01  9.45148885e-01  9.31810796e-01
 -5.40382112e-04  8.03338946e-04  5.21721318e-03 -4.82529309e-03
 -2.41464609e-03 -4.13247570e-03  2.25879368e-03  6.27408153e-05
 -1.06436328e-03 -6.23552501e-03 -7.63717340e-04  3.88136657e-04
  4.67797183e-03  9.09978803e-03 -2.48917844e-03  2.71088968e-04
 -5.17639448e-04 -6.21909043e-03 -7.24823389e-04  3.67261982e-03
  3.74370581e-03 -3.66621581e-03 -3.46513465e-03  6.66454725e-04
 -8.71962577e-04  1.10859436e-03 -1.18480151e-04  1.02417276e-03
  9.28782765e-03 -1.35399180e-03  1.62836153e-03  1.20703620e-03
  4.24890686e-03 -4.32735978e-04 -3.68046761e-03 -1.12937079e-04
  8.96591600e-03 -4.04844433e-03 -5.52000245e-03  1.51484564e-03
 -2.57210038e-03  2.24169562e-05  5.24967397e-03  2.43449188e-03
 -4.73115686e-03 -1.30492274e-03 -1.17222192e-02 -1.22753379e-03
 -3.83353792e-04  1.71437117e-04  5.03999460e-03 -3.29780369e-03
 -3.86682502e-03 -3.01329629e-03 -2.47598439e-03  5.07987617e-03
  2.36538867e-03  2.27121380e-03  6.58471181e-05  1.98153406e-03
 -1.74110453e-03  1.44816819e-04  3.40483501e-04  2.22971756e-03
  3.91906220e-03  6.05128880e-04 -2.05505244e-03 -9.96330520e-04
 -1.90361892e-03 -1.73076079e-03  1.17992488e-04  1.58572861e-03
 -4.71653824e-04 -1.86549500e-03 -7.31165428e-03  6.78848289e-03
  2.31022341e-03  2.92330544e-04 -6.72596926e-03  3.09381896e-04
  1.53797853e-03 -5.31482790e-03 -3.52390995e-03  6.86861342e-03
 -2.70294026e-03 -3.25740362e-03 -2.32331129e-03  4.72492480e-04
  4.31753520e-04  3.31172545e-04  7.53961178e-03  1.74641551e-03
  1.94571889e-03 -3.80595052e-03  7.46129546e-04  3.13838362e-03
  2.71303370e-03 -4.81249439e-03  1.29542386e-05  1.62634545e-03
 -2.03792736e-01 -8.51943493e-02 -1.98284850e-01 -1.39674395e-01
 -1.73563272e-01 -2.25550845e-01 -2.67199785e-01 -2.06991538e-01
 -5.57516478e-02 -1.97088480e-01 -6.73997849e-02 -1.31475046e-01
 -2.05213174e-01 -1.83683813e-01 -9.80468094e-02 -8.52214247e-02
 -1.73978850e-01 -3.19517195e-01 -2.39263445e-01 -1.73465356e-01
 -1.18263818e-01 -2.21962959e-01 -1.88138202e-01 -1.23865776e-01
 -2.17641309e-01 -1.20674513e-01 -2.05677018e-01 -2.03434199e-01
 -1.83217138e-01 -9.13124382e-02 -1.20219178e-01 -1.10554717e-01
 -1.44985706e-01 -1.04134351e-01 -1.85014948e-01 -8.80716071e-02
 -1.79784164e-01 -1.92830458e-01 -1.60827190e-01 -1.28932416e-01
 -1.71150222e-01 -1.94774821e-01 -2.82535911e-01 -1.20454147e-01
 -2.12603509e-01 -2.74756879e-01 -1.84457034e-01 -2.91720945e-02
 -1.58761904e-01 -3.88929620e-02 -1.35244146e-01 -7.48640299e-02
 -1.64362729e-01 -1.69802070e-01 -2.07414076e-01 -1.99095652e-01
 -1.67299286e-01 -1.74497277e-01 -5.70345335e-02 -2.40090460e-01
 -7.95181468e-02 -1.49275139e-01 -1.80911377e-01 -7.23028630e-02
 -9.41957608e-02 -1.87190369e-01 -1.08492360e-01 -1.73173308e-01
 -1.63167104e-01 -1.18723184e-01 -6.72380179e-02 -2.21791208e-01
 -1.98207587e-01 -6.35153130e-02 -1.83497161e-01 -2.11499482e-01
 -9.82879922e-02 -1.92803815e-01 -2.05251604e-01 -7.02758506e-02
 -1.80857375e-01 -8.77702087e-02 -9.44219455e-02 -2.04860732e-01
 -2.45846510e-01 -2.16991574e-01 -1.93298563e-01 -1.45847514e-01
 -1.89350918e-01 -1.97866425e-01 -1.90239772e-01 -9.14693922e-02
 -2.31152043e-01 -1.03220485e-01 -2.35056862e-01 -6.46912381e-02
 -1.62953928e-01 -1.46350533e-01 -1.28073782e-01 -1.08427085e-01]
sequential/dense/kernel:0
(100, 1)
[[-0.17091386]
 [ 0.12633139]
 [-0.16128965]
 [-0.10156249]
 [-0.14311413]
 [ 0.14303751]
 [-0.15060252]
 [-0.18686591]
 [-0.15141779]
 [-0.14677027]
 [-0.13958877]
 [ 0.10949298]
 [ 0.14994459]
 [-0.15153176]
 [-0.12356216]
 [-0.13162266]
 [ 0.15681055]
 [-0.17224918]
 [-0.16435097]
 [-0.17292377]
 [ 0.15782678]
 [-0.15324849]
 [-0.1741404 ]
 [ 0.14860804]
 [ 0.11738362]
 [ 0.17565633]
 [ 0.16403843]
 [-0.16526486]
 [ 0.15701841]
 [ 0.15442513]
 [-0.15982263]
 [ 0.14127667]
 [ 0.12570277]
 [ 0.15326437]
 [ 0.16785328]
 [ 0.15031712]
 [-0.18032053]
 [ 0.13016093]
 [ 0.14231557]
 [ 0.1870447 ]
 [ 0.14193034]
 [ 0.18234666]
 [-0.17192705]
 [-0.1289118 ]
 [-0.16727307]
 [-0.18149872]
 [ 0.13576801]
 [-0.1121158 ]
 [ 0.12265114]
 [-0.13915044]
 [ 0.14563608]
 [ 0.119105  ]
 [-0.1653011 ]
 [ 0.15418419]
 [ 0.16277881]
 [-0.13223505]
 [-0.18626553]
 [ 0.11037248]
 [-0.09509856]
 [ 0.1658741 ]
 [ 0.10270468]
 [-0.1286524 ]
 [-0.11931226]
 [-0.1441338 ]
 [-0.1431642 ]
 [ 0.14888334]
 [-0.13374154]
 [-0.16981249]
 [ 0.13232401]
 [-0.13843524]
 [ 0.12604702]
 [-0.18576314]
 [-0.18764246]
 [ 0.13197795]
 [ 0.13137601]
 [ 0.15752076]
 [-0.12010588]
 [ 0.1980351 ]
 [-0.1293    ]
 [ 0.12977971]
 [ 0.14717607]
 [-0.12521504]
 [ 0.14659335]
 [ 0.12880385]
 [-0.14764185]
 [-0.1694329 ]
 [-0.17921007]
 [-0.12426126]
 [-0.14724457]
 [ 0.17235221]
 [-0.11658415]
 [ 0.17991015]
 [ 0.18345785]
 [-0.15492262]
 [-0.19072273]
 [-0.12149646]
 [ 0.12998474]
 [-0.13983198]
 [-0.12368032]
 [ 0.16075651]]
sequential/dense/bias:0
(1,)
[0.5597647]
