sequential/lstm/kernel:0
(1, 200)
[[ 7.72731006e-02 -4.35733870e-02  1.75164998e-01 -1.01457499e-01
   1.75621524e-01  9.65696797e-02  5.02124541e-02  1.92226231e-01
   2.42251661e-02 -1.52694628e-01  1.94791367e-03  8.43282044e-02
  -6.03117123e-02 -1.12401210e-01  1.64723888e-01  2.17505515e-01
  -2.32452676e-02  1.12212054e-01  1.87503129e-01  1.22998439e-01
   1.35476962e-01 -8.68869275e-02  1.26145408e-01  2.17990428e-02
   1.29445046e-01 -1.05144985e-01  2.46967807e-01  4.16234620e-02
  -1.13241479e-01  4.81493287e-02  1.34716555e-01  2.77537536e-02
  -6.71614408e-02 -7.60014728e-02 -3.25673111e-02 -1.12913987e-02
  -8.19322839e-02  5.24646007e-02  4.02847254e-05  1.51166111e-01
   1.99706286e-01 -6.77732900e-02 -1.99525848e-01  6.11834079e-02
   1.50299042e-01 -1.37297362e-01 -5.04616797e-02  1.14601001e-01
   4.82940413e-02  8.58973935e-02 -1.46118775e-01  6.30935431e-02
  -9.89522636e-02 -3.38212475e-02  1.93723977e-01 -1.76902249e-01
  -1.47194818e-01  1.63430795e-01  4.30419529e-03 -3.34121324e-02
  -1.13718145e-01  6.94398507e-02  1.61694944e-01 -6.92210868e-02
   1.17590919e-01  1.71814710e-01  6.80776387e-02  6.94144070e-02
  -2.11328566e-02 -7.18105882e-02  6.88728914e-02  1.44149601e-01
   1.35211438e-01 -1.46746719e-02  8.14362168e-02 -1.36070579e-01
  -1.57086775e-01 -6.55835867e-02 -1.47824511e-01 -1.26733392e-01
   7.78172910e-03  4.80669513e-02  1.40409321e-01  2.60851085e-02
   1.88033562e-03 -1.75071787e-02  6.69587255e-02  3.26855779e-02
   8.78920257e-02  1.98242858e-01 -9.30772722e-03  1.26323536e-01
  -1.33293336e-02  2.91418023e-02  7.46831670e-02  1.56071872e-01
  -1.51785359e-01  1.39453471e-01 -1.24400832e-01 -9.39672813e-02
  -5.51752783e-02  8.13500360e-02  7.80586004e-02  1.73324883e-01
  -6.42833114e-02 -1.83824822e-02 -1.67349488e-01 -8.22388753e-02
  -1.23275979e-03 -4.02714983e-02  9.67483521e-02  7.02375770e-02
   1.46636561e-01 -1.28303856e-01 -8.00856799e-02  1.12412795e-01
   1.61162287e-01 -1.03531368e-01  1.03765480e-01 -5.55910580e-02
   3.89454216e-02  3.90425175e-02  7.67550245e-02 -1.26222223e-01
  -8.61162990e-02  3.19385342e-02  1.41822398e-01  1.36486903e-01
  -1.27651274e-01 -5.48352208e-03 -4.16690717e-03  1.53940588e-01
  -1.10250495e-01 -1.66793883e-01  8.81898254e-02  1.71168074e-01
   1.63330566e-02 -9.47513208e-02  8.78358111e-02  1.40484422e-01
  -1.60514161e-01 -1.28481552e-01  9.13570169e-03 -5.81542088e-04
  -9.82852280e-02  3.01245805e-02  1.44738495e-01 -8.87927860e-02
  -5.82033619e-02 -1.28775537e-01  4.77285050e-02  1.57350481e-01
   6.39903471e-02  1.51364937e-01 -3.69981229e-02 -8.16140994e-02
   9.24826488e-02  1.22511640e-01 -3.98072079e-02 -1.74764171e-01
  -1.13697939e-01 -1.28266467e-02  1.89474583e-01  3.88357067e-03
  -9.59246829e-02  2.14448869e-01  1.00972593e-01  8.65413472e-02
   1.70811996e-01  1.68297574e-01 -7.43555501e-02 -9.02667865e-02
   1.23648960e-02  9.78824273e-02  1.65986583e-01  6.06783628e-02
   2.58699805e-01 -4.13705595e-04  1.11973591e-01  1.90255478e-01
   7.70551860e-02  7.98002630e-02  1.65241614e-01 -8.24449211e-02
   2.33960733e-01 -4.34129946e-02 -2.11600661e-01 -8.31592605e-02
   1.70485869e-01  3.68566401e-02  1.48270192e-04 -2.95248851e-02
   6.62974780e-04 -1.09331943e-01  2.86102861e-01 -6.29328117e-02
  -2.10259166e-02  1.41482919e-01  1.08088739e-01  1.53397530e-01]]
sequential/lstm/recurrent_kernel:0
(50, 200)
[[-0.17151856  0.02546396  0.00191877 ... -0.02438204 -0.07181633
   0.18030208]
 [-0.13205893  0.00852717  0.07588501 ...  0.13182285  0.05378274
  -0.01309334]
 [-0.03083734  0.02685016  0.02670637 ... -0.04442273  0.11974197
   0.07547387]
 ...
 [-0.06862814  0.02918954  0.02906863 ... -0.0938617  -0.06945547
  -0.07854848]
 [-0.04213041  0.05935288 -0.09232369 ... -0.07258276 -0.08237679
  -0.08523602]
 [ 0.01321072 -0.05511078 -0.04951357 ... -0.01613945  0.01921977
  -0.07535448]]
sequential/lstm/bias:0
(200,)
[ 2.01417860e-02  5.21834977e-02  1.83608811e-02  4.37194593e-02
  4.16501574e-02  1.81441829e-02  3.40067931e-02  1.66239776e-02
  1.22742727e-02  1.46794887e-02  1.75267290e-02  3.60898897e-02
  8.15024972e-02  2.38156859e-02  3.16387303e-02  3.52901481e-02
  4.82875071e-02  1.27884120e-01  8.80557895e-02  2.33851708e-02
  1.58375362e-03 -9.48649715e-04  1.22208791e-02  8.49271473e-03
  1.13389798e-01 -8.66448041e-03  1.36174783e-01  1.89556424e-02
 -3.89502873e-03  1.88949257e-02  1.27106346e-02  1.06347492e-02
  4.58199465e-05  5.58666512e-02  5.69911934e-02  2.39722244e-02
  7.94587005e-03  9.71535500e-03  1.83567565e-04  1.39823675e-01
  4.26285192e-02 -1.25756720e-02 -9.33881942e-03  1.42486664e-02
  1.06928438e-01 -9.39523987e-03  3.35533284e-02  9.72707942e-03
  1.11954883e-02  6.29454702e-02  1.02874982e+00  9.64172482e-01
  9.89936054e-01  9.96785939e-01  9.81562197e-01  1.02607787e+00
  9.75259244e-01  9.82756853e-01  1.01929522e+00  1.03572989e+00
  9.92882967e-01  9.20000911e-01  9.97986495e-01  9.91302252e-01
  9.77457166e-01  9.64393735e-01  9.94682252e-01  9.28188264e-01
  9.70190227e-01  1.00115728e+00  9.92941022e-01  9.99806225e-01
  1.00153673e+00  9.90520597e-01  9.31838393e-01  9.69159365e-01
  9.89867926e-01  9.87733066e-01  9.83407259e-01  9.97216463e-01
  1.01554275e+00  9.91912782e-01  9.93183255e-01  9.88754511e-01
  9.71544027e-01  9.87896204e-01  1.02402723e+00  1.00731885e+00
  9.86854911e-01  9.50895071e-01  9.87536192e-01  9.82438147e-01
  1.02357757e+00  1.03784716e+00  9.34300363e-01  9.96205747e-01
  9.86974955e-01  9.94126141e-01  9.59464610e-01  9.78964269e-01
  2.49802321e-02 -2.61732619e-02 -2.94095483e-02 -6.20104261e-02
  2.51405817e-02  2.01586727e-02  6.62794262e-02  2.89243013e-02
  1.43570052e-02  3.67210945e-03 -3.53605300e-02 -2.60009300e-02
 -5.77846393e-02  4.99360487e-02  2.40232702e-02 -4.28634249e-02
 -5.86532988e-02  3.71817648e-02 -3.44066992e-02  1.16429878e-02
 -1.60468556e-02 -1.24575635e-02 -3.16375121e-02  4.38925698e-02
  3.09670661e-02 -9.33784060e-03 -4.49873768e-02 -5.16782962e-02
  4.39872518e-02  6.79363543e-03 -5.18236030e-03 -4.57920283e-02
  3.28910649e-02  6.00729249e-02 -3.59213352e-02 -5.90438209e-02
 -1.95681490e-02  2.68095862e-02 -2.63420939e-02 -5.22521511e-02
  6.38625324e-02  4.47558835e-02 -7.78090954e-03 -2.48209015e-02
  3.47390510e-02 -1.45429419e-02 -5.27903251e-02  3.11854910e-02
  2.88453698e-02  4.69487198e-02  1.95302013e-02  5.27653359e-02
  1.92628298e-02  4.12326045e-02  4.38629240e-02  1.09200217e-02
  3.30009945e-02  1.61855463e-02  8.37725960e-03  1.23571921e-02
  1.80472545e-02  3.66728865e-02  8.02870393e-02  2.28827428e-02
  3.13508399e-02  3.40857059e-02  4.66799848e-02  1.27856076e-01
  8.73628855e-02  2.22981144e-02  2.23235739e-03 -1.64319470e-03
  1.21617001e-02  7.99921062e-03  1.11955576e-01 -8.02577659e-03
  1.32207751e-01  1.89505219e-02 -4.06535575e-03  1.86292529e-02
  1.21769337e-02  1.02778627e-02  1.46163773e-04  5.66598624e-02
  5.40929846e-02  2.38869917e-02  2.78053759e-03  8.05335492e-03
 -4.02749458e-04  1.38887435e-01  4.36996557e-02 -1.24552278e-02
 -1.04370080e-02  6.92977523e-03  1.05165489e-01 -9.21763387e-03
  3.33235040e-02  9.36134811e-03  1.07514188e-02  6.25863820e-02]
sequential/lstm_1/kernel:0
(50, 400)
[[-0.07606211 -0.06259539 -0.06978063 ... -0.14004971 -0.05476045
   0.0063834 ]
 [-0.08227089  0.08110913 -0.08930973 ...  0.0058491   0.03983314
   0.11669867]
 [-0.07806525 -0.06741951 -0.0097355  ... -0.02871776  0.01115418
   0.02833326]
 ...
 [ 0.06857903 -0.00370074 -0.06687772 ...  0.11414421 -0.07033487
  -0.05888042]
 [-0.08013155 -0.12240689 -0.06144777 ... -0.08823872  0.00021813
  -0.02258598]
 [-0.10740647  0.05228782 -0.07111714 ...  0.09562831  0.07331938
   0.07970572]]
sequential/lstm_1/recurrent_kernel:0
(100, 400)
[[-0.01150908  0.02284568  0.09048439 ... -0.04340776  0.02318708
   0.00746512]
 [-0.08449773 -0.01296864  0.01739787 ...  0.0417379  -0.00970995
  -0.04914713]
 [ 0.06724954 -0.00138195  0.03437584 ... -0.15558285 -0.00252317
   0.08367892]
 ...
 [-0.07786272  0.13128549 -0.03527444 ... -0.02413001 -0.08799443
   0.05046739]
 [ 0.06216359  0.12032915  0.00780839 ... -0.03794822  0.03379747
   0.02404995]
 [ 0.01960341 -0.02638476 -0.00338841 ... -0.04017835  0.00875956
  -0.01230305]]
sequential/lstm_1/bias:0
(400,)
[-1.55950328e-02 -6.02417393e-04 -4.12705280e-02  7.76613597e-03
 -1.43053876e-02 -3.80285345e-02 -6.21515363e-02 -2.54216604e-02
  1.34136127e-02 -1.45418104e-02  2.59336699e-02  1.17914733e-02
 -1.23964157e-02 -3.37108560e-02 -4.00910154e-03 -1.02061983e-02
 -2.64375769e-02 -4.32014056e-02 -3.94045338e-02 -1.93187203e-02
 -7.18546240e-03 -3.12339384e-02 -2.59240158e-02 -8.28122837e-04
 -1.87383369e-02 -7.98614230e-03 -2.89164782e-02 -3.42424884e-02
 -1.38787711e-02  3.92520148e-03  1.25651027e-03 -9.04457923e-03
 -2.04494093e-02 -1.53567987e-02 -2.49133632e-02 -4.27905004e-03
 -2.09085308e-02 -1.17020998e-02 -1.47230458e-02 -4.87406040e-03
  8.74097925e-03 -1.83162820e-02 -3.68357673e-02 -1.90095976e-02
 -7.90912192e-03 -2.90849451e-02 -2.76962407e-02  5.48556261e-02
  3.93852685e-03  8.29380304e-02 -6.31879875e-03  3.06867040e-03
 -3.69588775e-03 -6.31670840e-03 -2.75917146e-02 -2.00556386e-02
 -2.12353226e-02 -1.08834589e-02  8.30723438e-03 -2.86114756e-02
  3.28457588e-03  1.43226208e-02  7.48568820e-03  6.23311382e-03
 -1.29629439e-03 -1.94550566e-02  6.49611093e-03 -1.75518729e-02
 -3.53287049e-02 -6.03198214e-03  1.19365631e-02  1.19960145e-03
 -2.78422497e-02  1.90860895e-03 -7.38259172e-03 -2.65171193e-02
 -5.85948396e-03 -2.04298757e-02 -2.92490963e-02  1.08718436e-04
 -2.03390792e-02 -5.24071045e-03  1.29464064e-02 -1.76701024e-02
 -5.75565584e-02 -3.24716456e-02 -2.22184919e-02 -5.84010221e-03
 -8.80088937e-03 -2.04496067e-02 -1.25330761e-02  1.51083684e-02
 -2.69849487e-02 -5.04831038e-03 -2.27066614e-02 -9.60236322e-03
 -1.28088892e-02 -2.86022760e-03 -1.86829288e-02 -1.33478921e-02
  9.74924445e-01  9.91840303e-01  9.87417519e-01  1.00129139e+00
  9.67566550e-01  9.47918355e-01  9.35004115e-01  9.67317522e-01
  9.98432815e-01  9.53802228e-01  9.99785244e-01  9.97567058e-01
  9.79514241e-01  9.45430100e-01  9.90423441e-01  9.91983414e-01
  9.72308338e-01  9.66990292e-01  9.39730227e-01  9.77724433e-01
  9.94655252e-01  9.53028083e-01  9.68367219e-01  9.95391071e-01
  9.85728085e-01  9.88263369e-01  9.70920146e-01  9.53539789e-01
  9.75377321e-01  1.00141263e+00  9.88079786e-01  9.88477528e-01
  1.00059628e+00  9.86668110e-01  9.76014972e-01  9.94979858e-01
  9.68055546e-01  9.75709081e-01  9.83159542e-01  9.91713285e-01
  9.89136696e-01  9.70099151e-01  9.57186401e-01  1.00502861e+00
  9.69423056e-01  9.74479973e-01  9.87021148e-01  1.03312874e+00
  1.00002027e+00  1.02003288e+00  9.88069057e-01  1.00670123e+00
  9.73749340e-01  9.84263122e-01  9.66770709e-01  9.69963849e-01
  9.34690535e-01  9.87811148e-01  1.01497817e+00  9.65844333e-01
  1.00027299e+00  9.75435495e-01  9.97940004e-01  9.96292591e-01
  9.96399879e-01  9.80879188e-01  1.00457442e+00  9.80838239e-01
  9.45815146e-01  9.94468629e-01  1.00591004e+00  9.69518065e-01
  9.55221117e-01  9.99105096e-01  9.93127227e-01  9.73984599e-01
  9.94543910e-01  9.69956577e-01  9.70467925e-01  1.00245690e+00
  9.67226207e-01  9.89378631e-01  9.99834180e-01  9.83366728e-01
  9.61480498e-01  9.60828900e-01  9.75204051e-01  9.84616280e-01
  9.77899969e-01  9.64717209e-01  9.68270421e-01  1.00102413e+00
  9.73437309e-01  9.96064126e-01  9.71828520e-01  1.00257659e+00
  9.79560316e-01  1.01449633e+00  1.00082207e+00  9.86607671e-01
 -1.26255257e-02  1.37827694e-02  1.02254851e-02  3.42011452e-03
 -1.52069842e-02  1.47898942e-02 -1.11400373e-02 -1.19054411e-02
 -1.55628240e-02 -9.90241207e-03 -1.62978303e-02  1.60560594e-03
  6.34680642e-03 -4.87827789e-03 -1.19216871e-02 -1.37955630e-02
  1.19829914e-02 -2.79767765e-03 -4.10856865e-03 -8.98906495e-03
  1.42219625e-02 -1.38014397e-02 -9.56835225e-03  1.72204375e-02
 -4.43747878e-04  1.81311741e-02  7.79483840e-03 -1.49747636e-02
  1.43553764e-02  1.56766940e-02 -1.65904667e-02  9.71447583e-03
 -6.17551617e-03  1.33989388e-02  7.79193407e-03  1.25750313e-02
 -9.19284951e-03  6.35553384e-03  6.96442742e-03  1.52795045e-02
  1.18458178e-02  9.45996866e-03 -4.11198521e-03  1.17371352e-02
 -1.12691959e-02 -6.16355333e-03 -5.02008246e-03 -2.25808565e-02
  1.02059366e-02 -2.59913821e-02  1.22378701e-02  1.43498946e-02
 -1.36493463e-02  9.52492841e-03  6.17050659e-03  3.31960432e-03
 -1.31908031e-02  2.08376301e-03 -4.25149547e-03  1.24584064e-02
  1.12404414e-02 -1.60614494e-02 -8.18699319e-03 -1.39461346e-02
 -1.62435118e-02  9.49281640e-03 -1.79095771e-02 -9.25191119e-03
  1.71589833e-02 -1.15543948e-02  1.94405913e-02 -6.44952292e-03
 -1.44812139e-02  1.55434543e-02  5.34479215e-04  7.53932167e-03
 -1.51802888e-02  1.14754299e-02 -1.06283017e-02  1.84284635e-02
 -1.21003692e-03 -1.23286098e-02  1.61516666e-02  4.47548972e-03
 -1.52014778e-03 -1.56318657e-02 -6.04141911e-04 -1.22848498e-02
 -6.46876777e-03  1.04608312e-02 -2.25980626e-03  1.81928482e-02
  9.04588308e-03 -9.20087751e-03 -8.16808268e-03  3.93508002e-03
  1.03883389e-02  2.33308785e-03  8.97072162e-03  1.31688341e-02
 -1.78050231e-02 -6.82164566e-04 -4.12464291e-02  6.12729648e-03
 -1.49936741e-02 -3.90983224e-02 -6.42781332e-02 -2.53883936e-02
  1.31330108e-02 -1.45620266e-02  2.44077872e-02  9.56599880e-03
 -1.29964743e-02 -3.42711210e-02 -4.35970770e-03 -1.03218472e-02
 -2.70117819e-02 -4.31388170e-02 -4.21836600e-02 -1.95783805e-02
 -8.01681448e-03 -3.22886258e-02 -2.68998649e-02 -1.50378828e-03
 -1.97937340e-02 -8.65724590e-03 -2.93537956e-02 -3.58065367e-02
 -1.44995404e-02  4.52412572e-03  6.66862354e-04 -9.42357723e-03
 -2.12597977e-02 -1.49952034e-02 -2.48922557e-02 -4.50279843e-03
 -2.06830259e-02 -1.25804739e-02 -1.49514684e-02 -5.25617087e-03
  8.09454266e-03 -1.87704358e-02 -3.75244096e-02 -1.86891071e-02
 -8.49724840e-03 -2.93735880e-02 -2.87876483e-02  5.33512384e-02
  3.74702178e-03  7.99722150e-02 -5.95974829e-03  2.42527295e-03
 -4.39696852e-03 -6.52068481e-03 -2.76663061e-02 -2.07788236e-02
 -2.33635120e-02 -1.18486797e-02  7.69028114e-03 -2.87322067e-02
  2.91284570e-03  1.25178955e-02  6.19980972e-03  5.83103579e-03
 -1.71682786e-03 -1.91664994e-02  5.07584494e-03 -1.85062401e-02
 -3.52004990e-02 -6.37874007e-03  1.07236551e-02  7.93200161e-04
 -2.84900516e-02  1.53958087e-03 -7.43815908e-03 -2.54274178e-02
 -5.92373218e-03 -2.05371659e-02 -2.97493506e-02  1.93489133e-04
 -2.13061944e-02 -5.83715457e-03  1.15198717e-02 -1.73125509e-02
 -5.71640953e-02 -3.28794941e-02 -2.24923436e-02 -7.11686630e-03
 -1.00064976e-02 -2.02294588e-02 -1.37726115e-02  1.44553399e-02
 -2.70686354e-02 -5.09315403e-03 -2.27623098e-02 -9.40629374e-03
 -1.30764479e-02 -2.91140494e-03 -1.90420095e-02 -1.32080344e-02]
sequential/dense/kernel:0
(100, 1)
[[-0.2225621 ]
 [ 0.1399471 ]
 [-0.15802415]
 [-0.08201293]
 [-0.14347063]
 [ 0.11062508]
 [-0.13900599]
 [-0.22300425]
 [-0.1546763 ]
 [-0.1329756 ]
 [-0.1891957 ]
 [ 0.1005525 ]
 [ 0.13690189]
 [-0.12812334]
 [-0.09613995]
 [-0.12831943]
 [ 0.15784228]
 [-0.19696294]
 [-0.17356229]
 [-0.21419173]
 [ 0.17993453]
 [-0.16999988]
 [-0.18458022]
 [ 0.19805528]
 [ 0.08628394]
 [ 0.19853123]
 [ 0.19202523]
 [-0.17570238]
 [ 0.1924848 ]
 [ 0.20901898]
 [-0.20388103]
 [ 0.14514479]
 [ 0.08949876]
 [ 0.18412331]
 [ 0.192645  ]
 [ 0.13805565]
 [-0.18076222]
 [ 0.10096572]
 [ 0.17263532]
 [ 0.24225035]
 [ 0.13958599]
 [ 0.20993929]
 [-0.19478798]
 [-0.10392994]
 [-0.1884706 ]
 [-0.21420275]
 [ 0.1091429 ]
 [-0.12701792]
 [ 0.11787535]
 [-0.21807605]
 [ 0.18043713]
 [ 0.13364889]
 [-0.20925994]
 [ 0.15194178]
 [ 0.18389077]
 [-0.1046147 ]
 [-0.20653687]
 [ 0.08524669]
 [ 0.07887132]
 [ 0.1910674 ]
 [ 0.0851761 ]
 [-0.10170469]
 [-0.10857526]
 [-0.18147342]
 [-0.16783758]
 [ 0.18311383]
 [-0.13371892]
 [-0.19685616]
 [ 0.09298787]
 [-0.16328011]
 [ 0.14300658]
 [-0.21654896]
 [-0.21863374]
 [ 0.16168226]
 [ 0.08158376]
 [ 0.19475423]
 [-0.13365957]
 [ 0.23788524]
 [-0.10053788]
 [ 0.19270392]
 [ 0.11536919]
 [-0.12899941]
 [ 0.15434676]
 [ 0.11148171]
 [-0.15157291]
 [-0.21689427]
 [-0.20151031]
 [-0.11183181]
 [-0.14158897]
 [ 0.20025124]
 [-0.09577601]
 [ 0.25054032]
 [ 0.20838626]
 [-0.21662717]
 [-0.23400494]
 [-0.09425923]
 [ 0.09431387]
 [-0.09834545]
 [-0.10727165]
 [ 0.1855778 ]]
sequential/dense/bias:0
(1,)
[0.25515112]
