sequential/lstm/kernel:0
(1, 200)
[[ 0.08106414 -0.03590864  0.17575186 -0.10846724  0.17130534  0.1260787
   0.05059042  0.19061972  0.03877896 -0.13729776  0.0016773   0.09554598
  -0.04713376 -0.11149145  0.17079003  0.21610285 -0.02651874  0.12224331
   0.19702804  0.12454115  0.12916698 -0.0766926   0.1280169   0.01730553
   0.19567963 -0.06767876  0.26514578  0.05005603 -0.12143351  0.0570854
   0.14197147  0.02929685 -0.06466156 -0.07574712 -0.03617157 -0.00880324
  -0.07963669  0.04895861  0.00584498  0.18860564  0.1992896  -0.06770515
  -0.1956706   0.07192145  0.2210681  -0.14197136 -0.06158259  0.11338776
   0.06609043  0.10530308 -0.1470727   0.06273193 -0.09982973 -0.03956241
   0.19111872 -0.14312203 -0.14738245  0.16273114  0.0100664  -0.02072326
  -0.11425359  0.06909847  0.16115549 -0.06818774  0.12421692  0.16801643
   0.06126234  0.07276893 -0.01223768 -0.07099686  0.06503994  0.14917852
   0.13448    -0.01864334  0.11315265 -0.11043978 -0.14675182 -0.06260663
  -0.15502506 -0.12254284  0.01031041  0.04910672  0.14239669  0.02464025
   0.00295614 -0.01787369  0.05941923  0.0293115   0.08929329  0.20009258
  -0.01009845  0.12622726 -0.00994069  0.03501268  0.00965752  0.15039805
  -0.16354479  0.13831405 -0.11055171 -0.0848769  -0.05361848  0.07948557
   0.07309492  0.1660491  -0.05765124 -0.01382612 -0.16088839 -0.07837995
   0.00422884 -0.0398439   0.09255422  0.06137286  0.14124453 -0.12713055
  -0.07340965  0.10620176  0.1534774  -0.09738554  0.10028966 -0.04787349
   0.03461232  0.0396073   0.07320978 -0.12018383 -0.10262909  0.02997818
   0.13689427  0.14058678 -0.12218265 -0.00774575 -0.00465491  0.14928466
  -0.11032529 -0.16006866  0.07887381  0.16864187  0.01245108 -0.09286056
   0.08842977  0.13609156 -0.15341777 -0.12584701  0.00664513 -0.00719957
  -0.10278188  0.02755125  0.13494188 -0.08599474 -0.05788666 -0.12358793
   0.0483091   0.16418782  0.06353717  0.1438119  -0.04204451 -0.05462735
   0.09234441  0.12086837 -0.02020444 -0.15389195 -0.11387541  0.00491322
   0.20528123  0.00409147 -0.0881373   0.21374717  0.09750371  0.09731039
   0.18175048  0.17080027 -0.0810812  -0.07849436  0.01547713  0.09342997
   0.23694634  0.0994669   0.278759    0.00792162  0.10314255  0.1992172
   0.08652287  0.08104247  0.1672874  -0.08205705  0.23123507 -0.04178435
  -0.21496281 -0.08808253  0.17646295  0.07496305  0.00057166 -0.02898965
   0.01344661 -0.1010322   0.35670072 -0.06451829 -0.03192433  0.13968407
   0.12674683  0.17213957]]
sequential/lstm/recurrent_kernel:0
(50, 200)
[[-0.17065017  0.05079959  0.0087933  ... -0.02200539 -0.04268781
   0.20534076]
 [-0.10579038  0.00752382  0.06349332 ...  0.12960918  0.05719684
   0.00203627]
 [-0.02265937  0.0213138   0.02611842 ... -0.04594346  0.12389486
   0.07725049]
 ...
 [-0.07291235  0.03006562  0.03028444 ... -0.09246622 -0.07289848
  -0.08021042]
 [-0.0395084   0.05785644 -0.09165446 ... -0.07172427 -0.09681071
  -0.0958823 ]
 [ 0.0026686  -0.05471797 -0.04855684 ... -0.01525455  0.01080379
  -0.0825313 ]]
sequential/lstm/bias:0
(200,)
[ 2.02158540e-02  5.38175404e-02  1.98239163e-02  3.61268595e-02
  3.81246544e-02  3.08876131e-02  3.32296044e-02  1.64054856e-02
  1.06342584e-02  1.41925579e-02  1.72612518e-02  3.98942009e-02
  8.46513361e-02  2.25573909e-02  2.68299971e-02  3.55502591e-02
  4.52904999e-02  1.09140813e-01  8.04414898e-02  1.92156136e-02
 -5.96372643e-04  3.26287909e-03  1.11824218e-02  6.01577107e-03
  1.41597077e-01 -1.09093846e-03  1.18618906e-01  2.33711842e-02
 -1.17498795e-02  2.21180338e-02  1.08561870e-02  1.09771211e-02
  3.92587273e-04  5.48827052e-02  4.97251488e-02  2.45901104e-02
  1.18917786e-02  1.56446151e-03  1.50470331e-03  1.50750339e-01
  3.60078067e-02 -1.39234830e-02 -1.28919994e-02  2.41636448e-02
  2.08347112e-01 -1.00589385e-02  2.59434786e-02  1.02532255e-02
  1.96464397e-02  7.20244497e-02  1.02623320e+00  9.71416175e-01
  9.91739988e-01  9.96231258e-01  9.88802612e-01  1.04814577e+00
  9.80600178e-01  9.86549318e-01  1.01094520e+00  1.03376400e+00
  9.95011628e-01  9.31666791e-01  9.98391986e-01  9.93905962e-01
  9.83241677e-01  9.72031891e-01  9.95616972e-01  9.48876381e-01
  9.83357906e-01  1.00088727e+00  9.93011057e-01  1.00171125e+00
  1.00070405e+00  9.90352273e-01  9.41712797e-01  9.71712112e-01
  9.87692773e-01  9.89207804e-01  9.80931044e-01  9.98339415e-01
  1.01075387e+00  9.93672311e-01  9.94051576e-01  9.92427588e-01
  9.81942296e-01  9.89952624e-01  1.02198792e+00  1.00288022e+00
  9.86653149e-01  9.55838859e-01  9.88587856e-01  9.81513739e-01
  1.02227545e+00  1.04415536e+00  9.05879259e-01  9.96505916e-01
  9.87976968e-01  9.96242046e-01  9.69408929e-01  9.83831286e-01
  3.23264301e-02 -2.51594335e-02 -3.34258862e-02 -6.60748556e-02
  2.77672783e-02  3.71864550e-02  7.70035759e-02  2.91039180e-02
  2.22208798e-02 -8.68500269e-04 -3.85766849e-02 -3.15621234e-02
 -6.90323114e-02  4.94840331e-02  2.73222774e-02 -4.75746505e-02
 -6.58632964e-02  4.15945537e-02 -3.59845497e-02  1.06239989e-02
 -1.51959928e-02 -1.18373008e-02 -3.58228087e-02  4.87782769e-02
  3.19722518e-02 -1.70791261e-02 -5.07814996e-02 -5.61074205e-02
  3.92867178e-02  7.79673271e-03 -8.30152445e-03 -5.15281633e-02
  3.27388011e-02  7.09392801e-02 -4.42430377e-02 -6.54795095e-02
 -4.16635796e-02  1.53298229e-02 -2.99556926e-02 -6.28682077e-02
  7.37405270e-02  4.40689810e-02 -5.92358038e-03 -4.11392860e-02
  4.01098132e-02 -1.39833158e-02 -6.22800663e-02  3.41514349e-02
  3.26981619e-02  5.52241430e-02  1.99018084e-02  5.40259220e-02
  2.07488164e-02  3.35478559e-02  4.04589623e-02  2.50976980e-02
  3.20231020e-02  1.58138368e-02  8.69231950e-03  1.30803902e-02
  1.78495776e-02  4.06875312e-02  8.23150948e-02  2.13396121e-02
  2.80704945e-02  3.44705656e-02  4.36470918e-02  1.09006628e-01
  7.96254426e-02  1.88001376e-02 -1.34402493e-04  2.86516850e-03
  1.13524050e-02  5.45848766e-03  1.40555501e-01 -1.30534871e-03
  1.14904270e-01  2.31281538e-02 -1.19611667e-02  2.12035589e-02
  1.06001031e-02  1.03777265e-02  2.23076728e-04  5.57619929e-02
  4.62744273e-02  2.42295973e-02  6.63053477e-03  2.52879719e-04
  4.80965449e-04  1.50325805e-01  3.76113169e-02 -1.37091167e-02
 -1.32424701e-02  1.68381445e-02  2.07638383e-01 -9.69824102e-03
  2.56657619e-02  9.80322529e-03  1.91281941e-02  7.12212473e-02]
sequential/lstm_1/kernel:0
(50, 400)
[[-0.10105536 -0.05979789 -0.10072159 ... -0.12910675 -0.0343679
   0.01656946]
 [-0.03866586  0.08173987 -0.08789019 ...  0.02489504  0.03263045
   0.13169393]
 [-0.06894592 -0.06537939 -0.00724342 ... -0.01635698  0.01386514
   0.02605264]
 ...
 [ 0.04857185 -0.00571436 -0.07462616 ...  0.10129277 -0.0776552
  -0.0640739 ]
 [-0.10850476 -0.12484192 -0.05064856 ... -0.08938541  0.02623566
  -0.02467011]
 [-0.13597623  0.05082789 -0.07157081 ...  0.08251124  0.05150601
   0.07168585]]
sequential/lstm_1/recurrent_kernel:0
(100, 400)
[[-0.00107155  0.02838606  0.09751884 ... -0.05330002  0.01975992
   0.01253492]
 [-0.08123465 -0.01181386  0.0130881  ...  0.0483865  -0.01467084
  -0.04473565]
 [ 0.06782988 -0.00851235  0.05659603 ... -0.1412661   0.00776752
   0.08461926]
 ...
 [-0.07430904  0.12951699 -0.0180655  ... -0.02622761 -0.08810844
   0.05062201]
 [ 0.05130277  0.1164971   0.02866402 ... -0.02947785  0.03653778
   0.03107309]
 [ 0.03068988 -0.02273018 -0.01840365 ... -0.03917397 -0.0041792
  -0.00507557]]
sequential/lstm_1/bias:0
(400,)
[-1.67371202e-02  2.70512095e-03 -4.28472571e-02  5.67944115e-03
 -9.70873050e-03 -3.03938799e-02 -4.73949276e-02 -2.23899893e-02
  1.24338632e-02 -4.91134066e-04  2.86669396e-02  1.81611795e-02
 -1.03758564e-02 -2.56153606e-02 -1.93664315e-03 -8.31802655e-03
 -1.71604995e-02 -4.15022746e-02 -3.81957106e-02 -1.46088712e-02
 -3.77479568e-03 -1.86516419e-02 -2.42272280e-02 -7.18760071e-04
 -1.73243992e-02 -3.46713373e-03 -2.40348447e-02 -2.26209722e-02
 -4.76605771e-03  4.48575802e-03  8.71368404e-03 -6.56539388e-03
 -1.68573651e-02 -1.14768175e-02 -2.47406382e-02  9.55994357e-04
 -2.01587770e-02 -3.74409865e-04 -1.19095035e-02 -7.32728629e-04
  1.93055794e-02 -1.14344945e-02 -3.65313068e-02 -2.12635826e-02
  9.92747769e-03 -1.98578537e-02 -2.88105421e-02  3.89799401e-02
  2.61285342e-03  8.36900473e-02 -2.50551943e-03  2.37116194e-03
  1.37663400e-02 -2.24218494e-03 -2.11876258e-02 -8.51966441e-03
 -1.93795841e-03 -7.95641914e-03  1.38378199e-02 -1.85063835e-02
  4.25480306e-03  1.28271142e-02  9.80923511e-03  8.32118746e-03
  3.79994931e-03 -1.65445190e-02  1.22155473e-02 -1.10047823e-02
 -2.09421087e-02 -4.49422048e-03  1.38451764e-02  7.58107100e-03
 -1.91914327e-02  2.87577044e-03 -7.23118708e-03 -2.05679834e-02
 -3.99329606e-03 -1.67452712e-02 -2.19542049e-02  3.30017065e-03
 -9.45137814e-03 -9.22984036e-04  1.41619351e-02 -1.04937991e-02
 -5.88619784e-02 -2.18032300e-02 -1.74574740e-02 -2.75193888e-05
 -1.06181409e-02 -1.14022242e-02 -2.32584402e-03  2.00082269e-02
 -2.18259264e-02 -1.52880710e-03 -1.19119650e-02 -1.08020324e-02
 -8.72966833e-03  2.03437381e-03 -2.22822409e-02 -1.33309392e-02
  9.73815262e-01  9.94325697e-01  9.81536090e-01  9.94749546e-01
  9.76586103e-01  9.61304069e-01  9.42939043e-01  9.68797266e-01
  9.99554873e-01  9.68461812e-01  1.00141013e+00  1.00020218e+00
  9.79607701e-01  9.51943457e-01  9.91626501e-01  9.93436098e-01
  9.78713214e-01  9.63281572e-01  9.39373374e-01  9.82057452e-01
  9.96710181e-01  9.58767176e-01  9.72467721e-01  9.94242907e-01
  9.86686647e-01  9.89512861e-01  9.74028885e-01  9.60663021e-01
  9.82595801e-01  1.00210798e+00  9.93224502e-01  9.89798963e-01
  1.00011241e+00  9.89081085e-01  9.77919519e-01  1.00000262e+00
  9.66919661e-01  9.84521270e-01  9.86276686e-01  9.93780851e-01
  9.95114148e-01  9.73115921e-01  9.57591414e-01  9.99247789e-01
  9.74061489e-01  9.75255847e-01  9.81475174e-01  1.01812363e+00
  9.96257424e-01  1.01027536e+00  9.90625620e-01  1.00582302e+00
  9.82073188e-01  9.86396790e-01  9.68650877e-01  9.83240247e-01
  9.46526289e-01  9.88532603e-01  1.01965570e+00  9.73488450e-01
  9.99862671e-01  9.82595384e-01  9.99015093e-01  9.99531269e-01
  9.99868333e-01  9.82088983e-01  1.00615335e+00  9.85225439e-01
  9.64373052e-01  9.95184541e-01  1.00679779e+00  9.79284763e-01
  9.61437225e-01  9.99811888e-01  9.92506623e-01  9.79110897e-01
  9.94967401e-01  9.72553790e-01  9.72032607e-01  1.00457025e+00
  9.76251721e-01  9.92808223e-01  1.00096977e+00  9.81617749e-01
  9.65533793e-01  9.67621028e-01  9.76357222e-01  9.88054395e-01
  9.75095332e-01  9.71350968e-01  9.77714717e-01  1.00360119e+00
  9.74115491e-01  9.98683572e-01  9.76582289e-01  9.98648584e-01
  9.80633438e-01  1.01175320e+00  9.93902922e-01  9.88657653e-01
 -1.63707510e-02  1.63760968e-02  1.25428615e-02 -1.12901507e-02
 -1.89572331e-02  1.82578489e-02 -5.11106104e-03 -1.93021391e-02
 -1.82500780e-02 -1.13474485e-02 -2.12158486e-02  1.18686557e-02
  8.56698584e-03 -1.12291351e-02 -1.98596865e-02 -1.57840345e-02
  1.95276905e-02 -2.83688493e-03 -1.28891971e-02 -1.37813948e-02
  1.94291994e-02 -1.54710794e-02 -1.95645280e-02  2.36335602e-02
  1.27134996e-03  2.10146662e-02  7.07168691e-03 -1.93429757e-02
  1.97400972e-02  1.57033261e-02 -2.42002085e-02  1.34526696e-02
 -4.80027823e-03  1.74901355e-02  9.33407899e-03  1.43389329e-02
 -9.32222977e-03  1.59109086e-02  8.53011198e-03  2.24983264e-02
  2.12929621e-02  1.45441741e-02 -1.07548386e-02  1.33722909e-02
 -2.04503331e-02 -1.49450265e-02 -1.10875559e-03 -2.91491710e-02
  1.76938139e-02 -2.81609334e-02  1.79692116e-02  1.92040876e-02
 -2.71895714e-02  1.45262377e-02  9.56467260e-03  1.24155730e-03
 -2.33079847e-02  1.01306364e-02 -5.82358800e-03  1.93793941e-02
  1.47528788e-02 -1.53828049e-02 -9.29593947e-03 -2.17248909e-02
 -2.46796161e-02  9.66642145e-03 -2.37827376e-02 -1.85295865e-02
  2.02639457e-02 -1.71619207e-02  2.48748846e-02 -1.60006713e-02
 -2.41719969e-02  1.98827647e-02 -1.22981588e-03  1.21369371e-02
 -1.89597048e-02  1.69438012e-02 -7.27209030e-03  2.21894812e-02
  1.15018096e-02 -1.85716599e-02  2.25330219e-02  4.69888141e-03
 -1.19787036e-02 -2.61057690e-02 -4.10613697e-03 -1.80510860e-02
 -9.93686169e-03  1.73583664e-02 -6.64571486e-03  2.58016679e-02
  1.24990931e-02 -1.57074034e-02 -1.28681343e-02  5.49086789e-03
  1.97208039e-02  6.12174161e-03  6.60736253e-03  1.42929768e-02
 -2.03643218e-02  2.44312454e-03 -4.28321734e-02  3.57314502e-03
 -1.09620905e-02 -3.14491056e-02 -4.85114828e-02 -2.22642906e-02
  1.18844137e-02 -5.32362028e-04  2.71189939e-02  1.55989733e-02
 -1.03930579e-02 -2.62034293e-02 -2.29544286e-03 -8.64978041e-03
 -1.77720971e-02 -4.13264185e-02 -4.24553826e-02 -1.49026522e-02
 -4.72766021e-03 -1.95891075e-02 -2.53840908e-02 -1.48603367e-03
 -1.82694662e-02 -4.43079835e-03 -2.44684983e-02 -2.33818945e-02
 -5.22769801e-03  5.02524804e-03  7.68905180e-03 -7.10183661e-03
 -1.73743591e-02 -1.10473642e-02 -2.46562064e-02  9.72595008e-05
 -2.00673025e-02 -1.71879993e-03 -1.18407058e-02 -1.19220500e-03
  1.85158886e-02 -1.19479066e-02 -3.66985425e-02 -2.03014240e-02
  8.93125683e-03 -2.00512446e-02 -2.96106339e-02  3.73111218e-02
  2.37799995e-03  8.04839805e-02 -2.46404833e-03  1.76544988e-03
  1.30878100e-02 -2.48034811e-03 -2.09160615e-02 -9.51089803e-03
 -3.32259107e-03 -8.80042091e-03  1.29837198e-02 -1.87604688e-02
  3.47411097e-03  1.09950369e-02  8.15545674e-03  7.74227222e-03
  3.06135789e-03 -1.61647648e-02  1.00726634e-02 -1.18180998e-02
 -2.14986708e-02 -4.85868286e-03  1.23849260e-02  7.28433253e-03
 -2.03691758e-02  2.32552155e-03 -7.30459439e-03 -1.94815788e-02
 -4.43042070e-03 -1.69588234e-02 -2.25539617e-02  3.31741734e-03
 -1.00895548e-02 -1.98308658e-03  1.24659799e-02 -1.04254391e-02
 -5.80071509e-02 -2.25862339e-02 -1.76715404e-02 -1.55288284e-03
 -1.06998142e-02 -1.10308593e-02 -3.56931309e-03  1.91088095e-02
 -2.17775721e-02 -1.79001759e-03 -1.17339054e-02 -1.05319871e-02
 -9.04696900e-03  2.10431684e-03 -2.19825748e-02 -1.31312758e-02]
sequential/dense/kernel:0
(100, 1)
[[-0.21670368]
 [ 0.14317419]
 [-0.1603868 ]
 [-0.08200076]
 [-0.14025617]
 [ 0.11177082]
 [-0.14396264]
 [-0.22421741]
 [-0.14844413]
 [-0.1363504 ]
 [-0.19275135]
 [ 0.10318131]
 [ 0.13263571]
 [-0.12859583]
 [-0.09076732]
 [-0.12949313]
 [ 0.16380304]
 [-0.19763134]
 [-0.17581004]
 [-0.21793851]
 [ 0.18394542]
 [-0.17487822]
 [-0.18404472]
 [ 0.19729069]
 [ 0.08246846]
 [ 0.20231034]
 [ 0.19496009]
 [-0.17837334]
 [ 0.20151508]
 [ 0.20896862]
 [-0.20984003]
 [ 0.14657901]
 [ 0.08873606]
 [ 0.188045  ]
 [ 0.19204701]
 [ 0.14188334]
 [-0.18122901]
 [ 0.10104751]
 [ 0.1712358 ]
 [ 0.24553113]
 [ 0.1449026 ]
 [ 0.21353154]
 [-0.19521262]
 [-0.10478766]
 [-0.1949364 ]
 [-0.21838075]
 [ 0.11109445]
 [-0.12851654]
 [ 0.11714555]
 [-0.22544128]
 [ 0.18439241]
 [ 0.1298262 ]
 [-0.21680777]
 [ 0.15352987]
 [ 0.1870445 ]
 [-0.10480208]
 [-0.21724379]
 [ 0.08227933]
 [ 0.07875203]
 [ 0.19488399]
 [ 0.08489268]
 [-0.10496624]
 [-0.1108823 ]
 [-0.18417463]
 [-0.17331271]
 [ 0.18435144]
 [-0.13608356]
 [-0.20026739]
 [ 0.08984793]
 [-0.16363949]
 [ 0.14188656]
 [-0.21987475]
 [-0.22425123]
 [ 0.16081624]
 [ 0.08452638]
 [ 0.1991427 ]
 [-0.13561213]
 [ 0.24184075]
 [-0.09659291]
 [ 0.19722667]
 [ 0.11849386]
 [-0.12975532]
 [ 0.15238239]
 [ 0.11128272]
 [-0.15047544]
 [-0.22313955]
 [-0.20483564]
 [-0.11309873]
 [-0.13551734]
 [ 0.20555463]
 [-0.09416383]
 [ 0.25605753]
 [ 0.21358007]
 [-0.2202944 ]
 [-0.24141982]
 [-0.08961543]
 [ 0.09150724]
 [-0.10066876]
 [-0.1030371 ]
 [ 0.1797835 ]]
sequential/dense/bias:0
(1,)
[0.30075422]
