sequential/lstm/kernel:0
(1, 200)
[[ 8.95497426e-02 -6.71655685e-02  1.69478118e-01 -1.11317746e-01
   1.56959146e-01  1.09759010e-01  3.14589404e-02  1.93786725e-01
   1.79493316e-02 -1.09119520e-01 -2.30253604e-03  3.80699635e-02
  -5.95417991e-02 -1.13898188e-01  1.65485367e-01  2.09809929e-01
  -2.97561772e-02  7.33783171e-02  1.51455626e-01  1.20054923e-01
   1.43385962e-01 -5.60940504e-02  1.49539098e-01  2.14216020e-02
   1.25090688e-01 -9.48964655e-02  2.38566339e-01  4.93672527e-02
  -1.49551377e-01  5.42514138e-02  1.55831531e-01  3.66074257e-02
  -5.83899207e-02 -9.72262472e-02 -5.23782745e-02 -1.41426651e-02
  -7.72111267e-02  7.15891421e-02  2.09359732e-02  8.61061811e-02
   1.90123692e-01 -7.23551884e-02 -1.42197922e-01  6.97690621e-02
   1.27192274e-01 -1.02058008e-01 -7.59711042e-02  1.17671743e-01
   4.32765074e-02  5.97615130e-02 -1.36512816e-01  7.71144927e-02
  -9.15206969e-02 -2.58394964e-02  2.02189878e-01 -1.53145030e-01
  -1.40866429e-01  1.77714780e-01 -4.84682008e-04 -2.12004539e-02
  -1.06421970e-01  7.83695132e-02  1.82220370e-01 -5.70870712e-02
   1.40380532e-01  1.89645842e-01  7.92860910e-02  1.11211486e-01
   2.99930712e-03 -5.92376180e-02  7.57022277e-02  1.66686833e-01
   1.58492222e-01 -9.65121761e-03  1.45723835e-01 -1.15047857e-01
  -1.07382976e-01 -4.72712927e-02 -1.69104934e-01 -1.11430198e-01
   2.27091238e-02  6.32725805e-02  1.48268074e-01  3.21927853e-02
   1.73305925e-02 -6.56914804e-03  6.60512373e-02  4.97635603e-02
   1.07131444e-01  2.21211776e-01  5.88096539e-03  1.24478921e-01
   4.95988410e-03  2.98895463e-02  1.04838148e-01  1.78720012e-01
  -1.57090947e-01  1.47117719e-01 -1.10990651e-01 -8.15133825e-02
  -5.78332171e-02  5.91397807e-02  6.51037395e-02  1.65084645e-01
  -4.88582812e-02 -2.56358832e-02 -1.49252042e-01 -7.14528263e-02
  -1.26552749e-02 -2.97152661e-02  7.84555972e-02  2.85879876e-02
   1.38367578e-01 -1.10677600e-01 -5.68834692e-02  1.01528190e-01
   1.50229067e-01 -6.54388219e-02  7.38071874e-02 -3.25689279e-02
   2.98306942e-02  3.95988412e-02  7.34700188e-02 -1.21196978e-01
  -3.66758853e-02  8.05012137e-03  1.26759246e-01  1.20737165e-01
  -1.26346499e-01  8.28758534e-03 -1.26380561e-04  1.45343214e-01
  -1.08299069e-01 -1.51058689e-01  6.63292557e-02  1.48681343e-01
   1.97049826e-02 -8.73492584e-02  7.77619705e-02  1.05344564e-01
  -1.52851030e-01 -1.23882599e-01  2.37491783e-02  1.80150440e-03
  -6.71316460e-02  2.41879765e-02  1.12960063e-01 -8.38512257e-02
  -4.14910428e-02 -1.12789489e-01  7.06756786e-02  1.27206206e-01
   5.62269241e-02  1.36919484e-01 -6.28811121e-02 -5.28983176e-02
   6.87429532e-02  1.20804861e-01 -4.34083566e-02 -1.22012079e-01
  -1.20229445e-01 -7.04441518e-02  1.82871953e-01 -9.51060792e-04
  -9.81870890e-02  1.99369073e-01  8.84210318e-02  3.32673118e-02
   1.22275569e-01  1.67935163e-01 -6.71400726e-02 -5.52285686e-02
   3.60814072e-02  9.48092118e-02  1.51802927e-01  7.07645416e-02
   2.49373600e-01  4.51718131e-03  6.83183074e-02  1.94102615e-01
   1.01990640e-01  8.62875953e-02  1.72363207e-01 -1.08568594e-01
   2.06344977e-01 -5.00133783e-02 -1.91393510e-01 -5.75440116e-02
   1.88303575e-01 -3.39297093e-02 -1.09833535e-02 -3.49247642e-02
   5.83973080e-02 -8.35963264e-02  2.50070572e-01 -2.70914435e-02
  -5.06679527e-02  1.42013922e-01  1.01962589e-01  1.19199999e-01]]
sequential/lstm/recurrent_kernel:0
(50, 200)
[[-0.1749382  -0.00330679 -0.00188323 ... -0.02129153 -0.07050173
   0.16784489]
 [-0.10531423  0.0051942   0.07102016 ...  0.13657328  0.06371953
  -0.00797174]
 [-0.03648118  0.01633942  0.03120044 ... -0.04139585  0.1262994
   0.07389946]
 ...
 [-0.07819641  0.03196583  0.02676189 ... -0.09625167 -0.07146221
  -0.07738521]
 [-0.04682625  0.06085135 -0.09477457 ... -0.07486313 -0.09496862
  -0.08677953]
 [ 0.02606831 -0.05287161 -0.05140958 ... -0.01793612  0.01272328
  -0.07076751]]
sequential/lstm/bias:0
(200,)
[ 1.97551083e-02  7.62132462e-03  3.43106757e-03  2.16026418e-02
  1.30985081e-02  1.70254651e-02 -1.22687357e-04  7.66382553e-03
 -2.57718354e-03  2.77906097e-02  1.16871845e-03 -4.44470309e-02
  4.80987877e-02  9.66523029e-03  1.28677394e-02  8.79094750e-03
  2.47204639e-02  1.60750058e-02  1.09602483e-02 -6.92368532e-03
  2.03667034e-04  3.34139215e-03  1.20124603e-02  1.98477879e-03
 -1.91847812e-02 -2.04970576e-02  5.73339835e-02  1.19189266e-02
 -1.63223725e-02  9.62610170e-03  8.19859561e-03  5.63797075e-03
 -2.80666933e-03  1.46705052e-02  1.47192935e-02  8.11321009e-03
  2.10003881e-03 -1.53726444e-03  3.54523701e-03  6.77421829e-03
  1.14534022e-02 -1.85684822e-02  1.53203448e-02  2.48491149e-02
  1.99977160e-02  1.77452853e-03 -2.19427282e-03  8.06954224e-03
 -1.35417851e-02  4.59285174e-03  1.03801608e+00  9.89703178e-01
  9.91882443e-01  1.00685835e+00  9.97456074e-01  1.04947317e+00
  9.82236564e-01  9.92011309e-01  1.01384461e+00  1.02673531e+00
  9.95512068e-01  9.44709063e-01  1.01480138e+00  1.00007677e+00
  9.98825908e-01  9.81337309e-01  1.00679147e+00  9.80810583e-01
  9.97321486e-01  1.00583577e+00  9.87883985e-01  1.00004888e+00
  1.00351977e+00  9.92177546e-01  9.72348988e-01  9.79247093e-01
  1.02292001e+00  9.99839306e-01  9.95864332e-01  1.00656939e+00
  1.00809240e+00  9.97474432e-01  9.90323961e-01  9.92157757e-01
  9.91806686e-01  9.96463656e-01  1.01864076e+00  9.99413192e-01
  9.92609918e-01  9.73074257e-01  9.95223820e-01  9.80464339e-01
  1.01406610e+00  1.04853868e+00  9.80108738e-01  9.95072007e-01
  9.88066554e-01  9.99836683e-01  9.67178226e-01  9.80579734e-01
  2.66863164e-02 -2.76713427e-02 -3.48659083e-02 -6.73130080e-02
  2.37503462e-02  2.05832776e-02  7.45215118e-02  3.54868099e-02
  1.37162814e-02  7.73107959e-03 -3.35393958e-02 -1.61846243e-02
 -6.70023113e-02  5.58152944e-02  2.52546556e-02 -4.82933335e-02
 -6.69135228e-02  4.48429808e-02 -3.06495447e-02  1.46478247e-02
 -2.16120929e-02 -1.92955807e-02 -3.93442251e-02  4.77456786e-02
  2.16417816e-02 -7.83254858e-03 -5.67922778e-02 -6.40794113e-02
  1.33354673e-02  6.41275896e-03  8.91848525e-04 -5.64912446e-02
  3.97425331e-02  6.80482909e-02 -3.59632000e-02 -6.74052909e-02
 -1.98661089e-02  3.29127647e-02 -3.85774449e-02 -6.13447316e-02
  6.80744797e-02  4.15597782e-02 -1.05855381e-02 -2.08342262e-02
  3.74373011e-02 -1.66312698e-02 -5.69322556e-02  3.79619710e-02
  2.91305892e-02  5.14764711e-02  1.93911083e-02  6.18279725e-03
  5.88105712e-03  1.91870090e-02  1.68331303e-02  1.09031405e-02
 -4.82057076e-04  8.01026914e-03 -5.87541703e-03  2.75811367e-02
  2.68116244e-03 -4.18127887e-02  4.35041375e-02  9.02723055e-03
  1.59987472e-02  6.96104392e-03  2.27883328e-02  1.58688072e-02
  1.10027343e-02 -6.10387232e-03  1.84980757e-03  3.39655555e-03
  1.37143629e-02  1.74228032e-03 -2.04463769e-02 -2.03676280e-02
  5.57795875e-02  1.24913724e-02 -1.54941594e-02  8.27985536e-03
  8.29453394e-03  5.23454044e-03 -2.93853949e-03  1.45648541e-02
  8.94899759e-03  9.46149044e-03 -2.18645297e-03 -3.99184151e-04
  2.03930284e-03  8.65551550e-03  1.49168754e-02 -1.80374552e-02
  1.43152447e-02  1.65134948e-02  1.33369081e-02  1.15392765e-03
 -2.25418643e-03  7.76407262e-03 -1.36643173e-02  2.19996739e-03]
sequential/lstm_1/kernel:0
(50, 400)
[[-0.08120032 -0.05661343 -0.05805832 ... -0.14549258 -0.03880601
   0.00794899]
 [-0.11489095  0.07615489 -0.10093383 ... -0.03406492  0.01878345
   0.11023985]
 [-0.1084905  -0.06836276 -0.00950048 ... -0.04499239 -0.02592453
   0.01293366]
 ...
 [ 0.07377336 -0.00299621 -0.06705989 ...  0.11824015 -0.06228026
  -0.05669134]
 [-0.06945074 -0.12672801 -0.06415004 ... -0.06608311  0.02195399
  -0.01428977]
 [-0.08931593  0.05397762 -0.07045873 ...  0.10541914  0.07966113
   0.08872673]]
sequential/lstm_1/recurrent_kernel:0
(100, 400)
[[ 0.00561325  0.03780899  0.07215277 ... -0.04577769  0.00914317
   0.02114425]
 [-0.09128876 -0.01391232  0.02577071 ...  0.03536331 -0.0225917
  -0.04982338]
 [ 0.0526334  -0.00224876  0.02324172 ... -0.16979654 -0.02349176
   0.08406612]
 ...
 [-0.08870386  0.13135642 -0.06371063 ... -0.0285512  -0.09926729
   0.04819768]
 [ 0.04851251  0.12252938 -0.00910974 ... -0.04214068  0.02277107
   0.03111675]
 [-0.00021619 -0.02793745  0.01387244 ... -0.05607866 -0.00250482
  -0.01309924]]
sequential/lstm_1/bias:0
(400,)
[-3.91257107e-02 -7.00692786e-03 -1.81645676e-02 -3.47207696e-03
 -3.30807380e-02 -4.14494835e-02 -5.55281229e-02 -3.70974578e-02
  9.70240217e-04 -2.71793529e-02  9.67027212e-04  6.31500408e-03
 -2.54318472e-02 -4.52970378e-02 -7.74331950e-03 -1.11244731e-02
 -3.08719985e-02 -3.55395675e-02 -7.47581646e-02 -2.42883731e-02
 -1.65998023e-02 -5.59015684e-02 -3.09712347e-02 -8.06247164e-03
 -2.13241708e-02 -1.70334876e-02 -3.53633836e-02 -3.69646661e-02
 -2.41644979e-02 -4.19069780e-03 -7.44246459e-03 -9.77937132e-03
 -1.44571057e-02 -2.17273105e-02 -2.74401065e-02 -5.34038851e-03
 -4.46297191e-02 -1.53223705e-02 -1.96729451e-02 -1.45161804e-02
 -2.83224229e-03 -2.83503160e-02 -3.37365866e-02 -2.35873647e-02
 -2.84301825e-02 -3.10032442e-02 -3.36609930e-02  7.95249734e-03
 -6.05110126e-03 -1.22006973e-02 -9.66779981e-03 -2.67115561e-03
 -2.71069724e-02 -1.30891753e-02 -3.08342446e-02 -1.94568466e-02
 -6.76694959e-02 -1.46419974e-02  1.50176045e-02 -2.73839906e-02
  2.77566584e-03 -1.53988265e-02  1.68800936e-03 -1.27810321e-03
 -3.80482874e-03 -2.27673836e-02  1.58985844e-03 -2.33838148e-02
 -3.21367905e-02 -9.68747586e-03  6.49403082e-03 -2.44110730e-02
 -4.67712581e-02 -1.09924527e-03 -6.33827737e-03 -2.75588334e-02
 -8.21400527e-03 -4.10214663e-02 -2.69294400e-02 -6.60503283e-03
 -2.54896376e-02 -5.83779300e-03  3.51552246e-03 -2.14964394e-02
 -4.37631272e-02 -3.56077440e-02 -2.91542895e-02 -9.06245597e-03
 -3.06292120e-02 -2.89220419e-02 -2.11498365e-02  3.38697154e-03
 -3.40477526e-02 -8.25021416e-03 -2.92448997e-02 -1.05722537e-02
 -2.16913410e-02  4.53764515e-04 -1.51618235e-02 -2.09199172e-02
  9.83327925e-01  9.95005190e-01  9.93313849e-01  1.00402784e+00
  9.73123908e-01  9.66557026e-01  9.54622030e-01  9.68570292e-01
  1.00255191e+00  9.71135199e-01  1.00667572e+00  1.00940990e+00
  9.78923321e-01  9.60875869e-01  9.90791202e-01  9.91754472e-01
  9.84586656e-01  9.75140631e-01  9.46660221e-01  9.82261539e-01
  1.00079811e+00  9.61134911e-01  9.81470227e-01  1.00104725e+00
  9.80798960e-01  9.91901278e-01  9.77476060e-01  9.79802012e-01
  9.83216286e-01  1.00450552e+00  9.97684717e-01  9.93244708e-01
  1.00077212e+00  9.88871276e-01  9.80249882e-01  1.00046015e+00
  9.69681978e-01  9.87502933e-01  9.89676952e-01  9.93782341e-01
  1.00988960e+00  9.77507830e-01  9.70967293e-01  9.94591415e-01
  9.83145595e-01  9.86467481e-01  9.78020430e-01  1.01382291e+00
  9.99154031e-01  1.00812805e+00  9.93002117e-01  1.00144494e+00
  9.92708206e-01  9.91496682e-01  9.69969153e-01  9.90523398e-01
  9.58616853e-01  9.87675548e-01  1.01552939e+00  9.77785170e-01
  1.00347078e+00  9.80515718e-01  9.98451054e-01  1.00066638e+00
  1.00122547e+00  9.83009934e-01  1.00841165e+00  9.86680150e-01
  9.66104567e-01  9.93388653e-01  1.01106417e+00  9.84109998e-01
  9.72678781e-01  1.00124490e+00  9.97184038e-01  9.79496181e-01
  9.96858180e-01  9.73172545e-01  9.75667894e-01  1.00313449e+00
  9.82083619e-01  9.92450476e-01  1.00475538e+00  9.86329913e-01
  9.70730066e-01  9.73769844e-01  9.79426205e-01  9.96054709e-01
  9.80742693e-01  9.76843476e-01  9.81444657e-01  1.01244938e+00
  9.79556859e-01  9.96142805e-01  9.80106175e-01  9.95444179e-01
  9.81622338e-01  1.01178479e+00  9.98212636e-01  9.86471236e-01
 -1.36600090e-02  2.02755593e-02  1.99322961e-02 -6.07734872e-03
 -1.40753277e-02  6.19535614e-03 -1.08102923e-02 -1.09781381e-02
 -2.15069856e-02 -1.13791879e-02 -2.19253749e-02  1.01764640e-02
 -1.48986152e-03 -1.25849843e-02 -1.49400737e-02 -1.96181480e-02
  1.54016642e-02 -8.04703275e-04  3.31712747e-03 -1.19552612e-02
  1.66960433e-02 -1.30820973e-02 -1.49920564e-02  2.43803170e-02
 -1.44409016e-03  1.90828126e-02  1.20609617e-02 -2.26094779e-02
  1.31867016e-02  1.91443432e-02 -2.13009324e-02  1.94720980e-02
 -5.82470326e-03  2.00371034e-02  1.16086239e-02  1.93730667e-02
 -6.67739427e-03  8.51847883e-03  1.28292656e-02  2.02947408e-02
  1.61969587e-02  1.25790238e-02 -8.35176557e-03  9.73706041e-03
 -1.16533358e-02 -1.02052810e-02  1.02320989e-03 -2.56243348e-02
  1.13215204e-02 -2.38701031e-02  1.44916922e-02  1.95849817e-02
 -2.25102846e-02  1.38798431e-02  9.69310105e-03 -1.00080005e-03
 -1.31975664e-02  1.25618279e-02 -2.22586542e-02  1.22112203e-02
  1.81447025e-02 -1.22598605e-02 -1.27197318e-02 -1.88066084e-02
 -2.37195417e-02  1.34191122e-02 -2.47025639e-02 -1.57170482e-02
  1.71768870e-02 -1.16626145e-02  2.29305439e-02 -3.56455403e-03
 -2.01758686e-02  1.83638576e-02  2.71037454e-03  1.19990129e-02
 -1.67551879e-02  1.51771661e-02 -1.19426530e-02  2.33836900e-02
  8.40626191e-03 -1.59507543e-02  1.79720707e-02  3.32615199e-03
  1.01022944e-02 -2.29341034e-02 -6.14376366e-03 -1.90186892e-02
 -9.75821540e-03  1.36104655e-02  3.75098037e-03  2.45152302e-02
  1.19215557e-02 -1.13587789e-02 -1.06000574e-02  4.19992534e-03
  1.54490480e-02  7.59407133e-03  1.31389843e-02  1.98636707e-02
 -4.43483330e-02 -7.02382578e-03 -1.92946568e-02 -5.52969053e-03
 -3.40312682e-02 -4.21333835e-02 -5.78488410e-02 -3.74019630e-02
  5.41916408e-04 -2.82744616e-02 -3.47128982e-04  4.00976371e-03
 -2.69644391e-02 -4.67852727e-02 -8.32800660e-03 -1.13771688e-02
 -3.21991704e-02 -3.63531224e-02 -7.91450292e-02 -2.45547537e-02
 -1.78490225e-02 -5.78969941e-02 -3.29962298e-02 -8.93969461e-03
 -2.20385566e-02 -1.78100932e-02 -3.61358672e-02 -3.86584401e-02
 -2.53270194e-02 -3.62742320e-03 -7.92242866e-03 -1.01461941e-02
 -1.53518990e-02 -2.14705374e-02 -2.73529999e-02 -5.88529184e-03
 -4.56116609e-02 -1.61399152e-02 -1.96386576e-02 -1.43911596e-02
 -4.58105234e-03 -2.89125219e-02 -3.56619358e-02 -2.41936035e-02
 -2.91113518e-02 -3.21218595e-02 -3.60283814e-02  6.38402114e-03
 -6.98038749e-03 -1.56630743e-02 -9.07162484e-03 -3.34863621e-03
 -2.83295978e-02 -1.35520818e-02 -3.13964821e-02 -2.12777704e-02
 -6.87556937e-02 -1.59246232e-02  1.39187425e-02 -2.74473131e-02
  2.09603854e-03 -1.73860770e-02  2.52028520e-04 -2.11610459e-03
 -4.14821692e-03 -2.27182172e-02 -2.46934680e-04 -2.41600946e-02
 -3.24541368e-02 -1.04668429e-02  5.45404479e-03 -2.51794364e-02
 -4.84637208e-02 -1.70278305e-03 -6.73370296e-03 -2.61780787e-02
 -8.52605328e-03 -4.20210995e-02 -2.77130883e-02 -6.62869960e-03
 -2.64317356e-02 -6.53028442e-03  2.27631582e-03 -2.15942804e-02
 -4.44434844e-02 -3.67120728e-02 -2.96829380e-02 -1.04562463e-02
 -3.11416462e-02 -2.92902924e-02 -2.23489851e-02  2.93230824e-03
 -3.41533720e-02 -8.40298273e-03 -2.94462927e-02 -1.16310464e-02
 -2.23053675e-02 -8.99282808e-04 -1.59516037e-02 -2.05029882e-02]
sequential/dense/kernel:0
(100, 1)
[[-0.20087361]
 [ 0.12445305]
 [-0.16990818]
 [-0.07520426]
 [-0.13223687]
 [ 0.11679136]
 [-0.14517859]
 [-0.2143129 ]
 [-0.12877198]
 [-0.12726793]
 [-0.16380708]
 [ 0.08618828]
 [ 0.12974013]
 [-0.1230718 ]
 [-0.08457819]
 [-0.12530802]
 [ 0.1518927 ]
 [-0.20044275]
 [-0.1671604 ]
 [-0.20862791]
 [ 0.16612524]
 [-0.16256903]
 [-0.17852937]
 [ 0.18768027]
 [ 0.09385721]
 [ 0.19046319]
 [ 0.18842159]
 [-0.17112067]
 [ 0.18524384]
 [ 0.19284864]
 [-0.19221413]
 [ 0.14239168]
 [ 0.09429829]
 [ 0.17225288]
 [ 0.18890819]
 [ 0.13401325]
 [-0.1738367 ]
 [ 0.0966188 ]
 [ 0.16076341]
 [ 0.23365815]
 [ 0.13156739]
 [ 0.19868463]
 [-0.19338906]
 [-0.1074296 ]
 [-0.18179226]
 [-0.21487693]
 [ 0.1135204 ]
 [-0.10111108]
 [ 0.10993965]
 [-0.18518877]
 [ 0.17493393]
 [ 0.12318078]
 [-0.19670905]
 [ 0.14616336]
 [ 0.18178995]
 [-0.10106947]
 [-0.19483438]
 [ 0.08212423]
 [-0.07552266]
 [ 0.19240826]
 [ 0.07855771]
 [-0.0907802 ]
 [-0.10252827]
 [-0.16484271]
 [-0.16211492]
 [ 0.17445196]
 [-0.11921015]
 [-0.1874039 ]
 [ 0.08862562]
 [-0.15663005]
 [ 0.12879255]
 [-0.20268059]
 [-0.21163368]
 [ 0.14834589]
 [ 0.08139708]
 [ 0.19513972]
 [-0.12772237]
 [ 0.22235462]
 [-0.10427342]
 [ 0.18095596]
 [ 0.118373  ]
 [-0.10990205]
 [ 0.14048916]
 [ 0.10779099]
 [-0.15324248]
 [-0.21223702]
 [-0.19724785]
 [-0.10797684]
 [-0.13290407]
 [ 0.1919832 ]
 [-0.08455314]
 [ 0.23095533]
 [ 0.20584132]
 [-0.20795587]
 [-0.22747974]
 [-0.09792234]
 [ 0.08771621]
 [-0.1024627 ]
 [-0.11414514]
 [ 0.17495786]]
sequential/dense/bias:0
(1,)
[0.2961502]
