sequential/lstm/kernel:0
(1, 200)
[[ 6.60144612e-02 -3.92735638e-02  1.75807431e-01 -6.06067590e-02
   1.61501437e-01  8.78996775e-02  9.46498513e-02  2.17678398e-01
  -4.42245603e-03 -1.69893593e-01  1.76824890e-02  7.89062530e-02
  -4.02714573e-02 -8.84271711e-02  1.37898728e-01  2.54464805e-01
   1.28142526e-02  1.44821286e-01  1.93905488e-01  1.10331811e-01
   1.06915876e-01 -1.15551800e-01  1.37864530e-01  3.67210396e-02
   2.32963026e-01 -1.27790391e-01  3.60059619e-01  7.02765435e-02
  -1.64487839e-01  4.50038910e-02  1.23296127e-01  4.82548662e-02
  -5.61726578e-02 -3.09315734e-02 -9.29440651e-03  2.34150793e-02
  -1.01162098e-01  5.15793003e-02  3.48205911e-04  1.72100067e-01
   2.44156629e-01 -7.45619610e-02 -2.10588709e-01  3.75367105e-02
   1.53728470e-01 -1.63912758e-01 -2.74395905e-02  1.24841385e-01
   5.39889708e-02  1.48272991e-01 -1.28552467e-01 -6.13444000e-02
  -1.33891702e-01 -4.95103672e-02  1.37637153e-01 -1.48534656e-01
  -1.50907531e-01  1.53953463e-01 -6.37721410e-03 -2.35469565e-02
  -1.25969082e-01 -1.73519310e-02  1.21760324e-01 -9.54825953e-02
   3.16847116e-02  1.42970979e-01  5.71785346e-02 -1.92408636e-02
  -9.45851356e-02 -1.01696022e-01  2.72053555e-02  1.15418427e-01
   1.15435190e-01 -1.63922794e-02 -1.02550602e-02 -1.93509370e-01
  -1.89012736e-01 -8.34417045e-02 -1.76111132e-01 -1.44287616e-01
   3.53407580e-04  3.92456464e-02  1.42761946e-01  1.06609706e-02
  -7.96034262e-02 -2.90652420e-02  6.18846826e-02  5.15605416e-03
   5.68613298e-02  1.74554721e-01 -8.86996556e-03  1.04167029e-01
  -1.14489323e-03  3.63282077e-02  9.85097047e-03  1.31895930e-01
  -1.96910381e-01  1.27647400e-01 -1.73684850e-01 -1.22749977e-01
  -5.46339788e-02  1.01564683e-01  9.01107192e-02  1.71459824e-01
  -7.67069235e-02 -2.33374126e-02 -1.67188019e-01 -9.05906111e-02
  -1.48281641e-02 -4.99162301e-02  1.07586667e-01  8.30951929e-02
   1.46963477e-01 -1.33655488e-01 -9.58268121e-02  1.15673684e-01
   1.59184024e-01 -1.11591585e-01  1.13459453e-01 -5.70170805e-02
   4.98066843e-02  4.64505628e-02  9.33957994e-02 -1.24471806e-01
  -1.22831136e-01  5.38633354e-02  1.43595487e-01  1.45906493e-01
  -1.01416416e-01 -1.10887103e-02 -4.70255315e-03  1.51177287e-01
  -1.09740257e-01 -1.64175689e-01  1.04713634e-01  1.74202397e-01
   2.08719317e-02 -9.99708548e-02  1.02009982e-01  1.35935664e-01
  -1.61856934e-01 -1.31461442e-01  6.85450109e-03  6.27002446e-03
  -1.13179795e-01  5.13039082e-02  1.53961837e-01 -9.70124528e-02
  -6.51495010e-02 -1.34776115e-01  3.18976045e-02  1.54205009e-01
   6.22035041e-02  1.88848242e-01 -5.53915761e-02 -8.52809399e-02
   1.32892266e-01  1.45862967e-01 -7.37071186e-02 -1.82583109e-01
  -9.90777612e-02 -2.31244825e-02  2.07676634e-01  2.47251224e-02
  -1.22815959e-01  2.45969281e-01  1.34383932e-01  1.10997066e-01
   1.68933138e-01  1.55701697e-01 -1.03753276e-01 -1.16851397e-01
   2.58448888e-02  1.11221910e-01  2.60806441e-01  3.66296507e-02
   3.71123493e-01  2.65875198e-02  5.43732829e-02  1.86019883e-01
   6.62275702e-02  9.97363776e-02  1.75328553e-01 -3.76823321e-02
   2.48874784e-01 -1.13523100e-02 -2.26700842e-01 -7.90023804e-02
   1.71127886e-01  5.71892895e-02  4.63503264e-02 -3.55749838e-02
  -1.06345154e-02 -1.36954829e-01  2.81645268e-01 -8.70851055e-02
  -1.61362987e-03  1.50236219e-01  1.12420686e-01  2.11842790e-01]]
sequential/lstm/recurrent_kernel:0
(50, 200)
[[-1.7094275e-01 -2.0209013e-02 -4.1619325e-03 ... -2.6752174e-02
  -6.1504185e-02  2.0285732e-01]
 [-1.6662568e-01 -2.2291550e-02  7.7235885e-02 ...  1.3798839e-01
   5.6564681e-02  1.6705154e-02]
 [-4.1805767e-02 -1.5677817e-04  2.6516994e-02 ... -4.2697106e-02
   1.2947497e-01  8.4290549e-02]
 ...
 [-6.5904230e-02  4.6690319e-02  2.6018444e-02 ... -9.5279701e-02
  -7.0432618e-02 -8.0854006e-02]
 [-1.7545359e-02  8.1451356e-02 -9.9706322e-02 ... -7.3970594e-02
  -8.7188400e-02 -1.0228500e-01]
 [ 2.5110440e-02 -3.0850660e-02 -5.0245959e-02 ... -1.7085442e-02
  -2.6614685e-03 -8.2941249e-02]]
sequential/lstm/bias:0
(200,)
[ 2.67086588e-02  9.13304463e-02  1.57509614e-02  9.64432731e-02
  2.56723426e-02 -6.71734195e-03  7.15233237e-02  4.10476662e-02
 -1.91744987e-03 -2.93929335e-02  1.09565128e-02 -2.23538163e-03
  1.04427740e-01  5.01424335e-02  2.49630697e-02  8.19863379e-02
  8.24331939e-02  1.33920267e-01  8.59288648e-02 -2.51767039e-02
 -2.33548358e-02 -4.76084799e-02  6.71232073e-03  1.79406721e-02
  2.21383944e-01 -5.47725633e-02  2.54512250e-01  4.51896451e-02
 -4.45284322e-02 -2.77114846e-03 -8.24159663e-03  2.52434723e-02
 -3.17385700e-03  1.05512694e-01  9.37686563e-02  5.28310686e-02
 -2.03840341e-02 -1.73087288e-02 -2.96857930e-03  1.16295010e-01
  8.29567313e-02 -1.92854218e-02 -6.19381890e-02 -7.13306339e-03
  1.07310951e-01 -6.27423599e-02  5.96739613e-02  2.04270370e-02
  2.76265637e-04  1.19290523e-01  1.06811392e+00  8.65690947e-01
  9.38276112e-01  9.74701583e-01  9.09413815e-01  1.03649700e+00
  9.50573444e-01  9.60034668e-01  1.02571464e+00  1.01499379e+00
  9.47447896e-01  7.94130266e-01  9.57683384e-01  9.48522091e-01
  8.81602407e-01  9.22305405e-01  9.67145979e-01  8.08648348e-01
  8.76226246e-01  9.36004579e-01  9.52096045e-01  9.50320423e-01
  9.52063262e-01  9.75885689e-01  8.04441750e-01  8.94669533e-01
  9.22767282e-01  9.53166962e-01  9.69717324e-01  9.58562195e-01
  1.00250351e+00  9.65393007e-01  9.78911161e-01  9.57280338e-01
  8.76202047e-01  9.55482841e-01  1.01130033e+00  9.48912084e-01
  9.43245828e-01  8.99407685e-01  9.67346370e-01  9.56658423e-01
  1.00891304e+00  1.05214107e+00  8.58208597e-01  9.52466369e-01
  9.32652712e-01  9.74803627e-01  8.80210340e-01  9.16094065e-01
  3.46401446e-02 -5.28805442e-02 -4.47215289e-02 -9.47550982e-02
  4.04944010e-02  1.56329200e-02  9.36658382e-02  5.15825488e-02
  1.47923967e-02  2.17852425e-02 -5.68014309e-02 -4.62444238e-02
 -8.14024508e-02  8.02506804e-02  4.81935404e-02 -6.37856424e-02
 -8.84263292e-02  6.32576346e-02 -6.03438653e-02  2.97349803e-02
 -3.15186456e-02 -2.01621167e-02 -4.97226976e-02  6.89903945e-02
  5.84294647e-02 -2.46181320e-02 -7.75047168e-02 -7.46629611e-02
  5.07410243e-02  1.31032243e-02  5.65525494e-04 -8.07637498e-02
  5.58452830e-02  8.67546797e-02 -5.61604612e-02 -8.56656060e-02
 -2.04247497e-02  5.62854856e-02 -5.15603237e-02 -7.12565258e-02
  8.86388272e-02  7.15603083e-02 -6.35202928e-03 -1.57877114e-02
  6.12628348e-02 -2.63024345e-02 -7.94634968e-02  5.26202135e-02
  5.26854768e-02  7.55656064e-02  2.47151591e-02  9.44112390e-02
  1.72667168e-02  9.29583907e-02  2.82759145e-02 -1.42377643e-02
  7.03003034e-02  4.03294303e-02 -7.63927680e-03 -3.02238725e-02
  1.23197315e-02 -2.73938058e-05  1.02424517e-01  4.79088053e-02
  2.47705691e-02  8.16095322e-02  8.01733211e-02  1.34903520e-01
  8.59575123e-02 -2.54433062e-02 -2.23162882e-02 -4.75714579e-02
  8.04643054e-03  1.71489697e-02  2.20972598e-01 -5.45356236e-02
  2.50681698e-01  4.47985493e-02 -4.46906500e-02 -4.08818899e-03
 -9.13395174e-03  2.40961257e-02 -3.68242059e-03  1.06875770e-01
  9.15185884e-02  5.25098331e-02 -2.57873405e-02 -1.69670414e-02
 -3.65854846e-03  1.17845960e-01  8.47469494e-02 -1.88293997e-02
 -6.33158535e-02 -1.74081884e-02  1.05503492e-01 -6.26880303e-02
  5.93204275e-02  1.98878571e-02 -4.96946159e-04  1.18379511e-01]
sequential/lstm_1/kernel:0
(50, 400)
[[-6.85405135e-02 -6.56721517e-02 -5.35756648e-02 ... -1.41977996e-01
   4.97325091e-04  2.65248585e-02]
 [-7.97596797e-02  8.36237445e-02 -1.09302290e-01 ... -5.90642802e-02
   3.41725536e-03  1.15251742e-01]
 [-6.40524775e-02 -6.29344732e-02  1.66905187e-02 ...  6.64002914e-03
   5.43093942e-02  2.19730586e-02]
 ...
 [ 5.91179617e-02  4.20413653e-06 -7.91196302e-02 ...  1.08067222e-01
  -6.90394193e-02 -5.12859225e-02]
 [-1.03288233e-01 -1.41446993e-01 -7.66626820e-02 ... -8.71031880e-02
   2.32082582e-03 -3.93509343e-02]
 [-1.10828564e-01  4.68324497e-02 -6.69578984e-02 ...  1.20288275e-01
   8.73501077e-02  8.19271952e-02]]
sequential/lstm_1/recurrent_kernel:0
(100, 400)
[[-0.01958184  0.01727245  0.08589099 ... -0.04970903  0.01042285
   0.02830044]
 [-0.06449281 -0.01003806  0.0316562  ...  0.04723453  0.00727195
  -0.04555383]
 [ 0.06820366  0.02590841  0.02752575 ... -0.17395836 -0.03623499
   0.09584887]
 ...
 [-0.07243739  0.15621658 -0.05264106 ... -0.01837633 -0.11397921
   0.05853234]
 [ 0.08382393  0.15776764 -0.00588484 ... -0.0408279   0.04067091
   0.04937239]
 [ 0.03163251 -0.02178779 -0.01473761 ... -0.06435376  0.01401182
  -0.0152231 ]]
sequential/lstm_1/bias:0
(400,)
[-1.04969054e-01 -2.71955039e-02 -1.05547383e-01 -3.51231173e-02
 -8.33384097e-02 -1.36792555e-01 -1.62535802e-01 -1.01297006e-01
 -2.20349655e-02 -7.38770738e-02 -1.83218997e-02 -2.52046306e-02
 -1.14834994e-01 -9.77701172e-02 -4.10384461e-02 -3.88385132e-02
 -9.01573449e-02 -1.58393636e-01 -1.33275673e-01 -6.53293729e-02
 -5.58208376e-02 -1.38800710e-01 -9.27037001e-02 -3.81668806e-02
 -6.59768134e-02 -5.79531603e-02 -7.84035400e-02 -1.25274032e-01
 -7.37292320e-02 -2.69142780e-02 -3.95050719e-02 -3.90213951e-02
 -5.26974313e-02 -4.98478338e-02 -8.04304108e-02 -3.76811363e-02
 -1.13593437e-01 -7.67981857e-02 -6.40102997e-02 -4.72341441e-02
 -5.52258641e-02 -7.80078247e-02 -1.31541893e-01 -6.71799406e-02
 -9.42182988e-02 -1.34234995e-01 -9.17562097e-02 -3.38894548e-03
 -3.53809781e-02 -3.48318578e-03 -3.87142077e-02 -2.93547194e-02
 -5.83267696e-02 -6.57924563e-02 -8.77541527e-02 -6.97776750e-02
 -1.20424584e-01 -6.16808236e-02 -1.16334846e-02 -1.01971187e-01
 -2.21072845e-02 -5.05035333e-02 -5.29875942e-02 -1.65471043e-02
 -2.84591373e-02 -8.07922781e-02 -2.95172706e-02 -7.32952282e-02
 -1.18649721e-01 -4.48002592e-02 -1.17044942e-02 -7.14484677e-02
 -1.00440182e-01 -2.19180472e-02 -5.39186634e-02 -9.91285294e-02
 -3.62219363e-02 -8.18661749e-02 -1.01799868e-01 -2.71914434e-02
 -9.63934958e-02 -3.80592830e-02 -2.44814958e-02 -7.48442411e-02
 -1.48072243e-01 -1.04161121e-01 -9.91476178e-02 -5.23602031e-02
 -8.82944092e-02 -8.44418332e-02 -8.51724073e-02 -3.04871481e-02
 -1.08259104e-01 -4.17804457e-02 -8.90718177e-02 -4.50305231e-02
 -9.83160585e-02 -3.07876579e-02 -4.78274152e-02 -5.34380339e-02
  9.11985636e-01  9.86290574e-01  9.23388839e-01  9.96401012e-01
  9.02804732e-01  8.56430829e-01  8.33848059e-01  9.00736988e-01
  9.81823862e-01  8.97566855e-01  9.89956558e-01  9.90542769e-01
  8.76882255e-01  8.69860351e-01  9.60701108e-01  9.76912439e-01
  9.17367637e-01  8.69793296e-01  8.32828999e-01  9.38423276e-01
  9.63243186e-01  8.57819438e-01  9.12050545e-01  9.83478010e-01
  9.40981627e-01  9.46801782e-01  9.27474976e-01  8.69772434e-01
  9.36035752e-01  9.94159400e-01  9.59245741e-01  9.63728607e-01
  9.80678380e-01  9.72397685e-01  9.26040411e-01  9.81934547e-01
  8.86927724e-01  9.21740770e-01  9.48014677e-01  9.60579574e-01
  9.55308259e-01  9.08314586e-01  8.77820432e-01  9.68251407e-01
  8.82487059e-01  8.92305553e-01  9.22489822e-01  1.00123560e+00
  9.65296924e-01  1.02468371e+00  9.64272976e-01  9.90770102e-01
  9.40944314e-01  9.33021069e-01  9.10221398e-01  9.22556877e-01
  8.46175671e-01  9.59381759e-01  1.02604914e+00  8.99151385e-01
  9.97570157e-01  9.27372992e-01  9.55581009e-01  9.86409128e-01
  9.83657777e-01  9.37792242e-01  9.84968603e-01  9.39525783e-01
  8.66249323e-01  9.75632608e-01  1.00217521e+00  9.08798814e-01
  8.95532131e-01  9.92016613e-01  9.52873647e-01  9.18005407e-01
  9.85138953e-01  9.08686757e-01  8.96344543e-01  1.00232220e+00
  8.89907420e-01  9.74680960e-01  9.79904592e-01  9.40537333e-01
  8.82547736e-01  9.04827654e-01  8.94923151e-01  9.47376847e-01
  9.01897669e-01  9.04732168e-01  9.16756988e-01  9.91744101e-01
  8.92374277e-01  9.74876583e-01  9.21202421e-01  9.74936903e-01
  8.90779078e-01  9.91231024e-01  9.87288058e-01  9.54353034e-01
 -9.87289939e-03  7.16886763e-03  4.60804394e-03  8.80913436e-03
 -6.51064375e-03  5.52759646e-03  3.79160512e-03 -3.79333249e-03
 -9.53481253e-03 -3.88953043e-03 -5.82659757e-03 -5.44370792e-04
  9.04701930e-03  2.00840458e-03 -5.12384018e-03 -7.71881780e-03
  6.90788310e-03 -6.26784191e-03  2.68778298e-03 -5.02771558e-03
  9.52797383e-03 -1.02958046e-02 -4.75497451e-04  7.75517384e-03
 -1.13328581e-03  9.92601365e-03  3.25920642e-03 -1.08708041e-02
  9.03373025e-03  8.71380232e-03 -5.83461951e-03  8.28143023e-03
 -4.36893804e-03  6.99973060e-03  5.94677310e-03  3.55743128e-03
 -4.83871670e-03 -1.56336976e-03  4.49507684e-03  4.97848121e-03
  6.50728261e-03  1.30348175e-03 -4.10029106e-03  1.08960457e-02
 -2.32724589e-03  9.13876109e-04 -1.08544258e-02 -6.27968553e-03
  3.09492950e-03 -1.22512989e-02  4.17420734e-03  6.80915313e-03
 -2.61412770e-03  1.62322575e-03  3.51964496e-03 -8.00058304e-04
 -1.04277991e-02  4.95665707e-03 -5.55943931e-03  3.85353458e-03
  4.98465775e-03 -5.55816619e-03 -6.76558446e-03 -8.28134734e-03
 -3.12961102e-03  7.08814058e-03 -9.19272378e-03 -7.51842000e-03
 -5.56349522e-04 -5.01003303e-03  6.89463969e-03 -3.46457004e-03
 -9.17178020e-03  5.76665672e-03  1.15354276e-04  6.98254863e-03
 -4.34295367e-03  2.83395941e-03  9.96836927e-03  9.80494171e-03
 -1.44972967e-03 -2.72448128e-03  4.44421917e-03 -1.08060278e-02
 -3.88384773e-03 -1.61451637e-03  3.77544574e-03 -3.98144079e-03
  3.27156915e-04  5.06034307e-03  1.11311267e-03  9.95133445e-03
  5.75185288e-03 -4.34404099e-03 -4.45343088e-04  2.13558925e-03
  2.08776607e-03 -5.17251017e-03  3.99537757e-03  4.66224318e-03
 -1.09302044e-01 -2.73233242e-02 -1.06850423e-01 -3.83262970e-02
 -8.34153071e-02 -1.35883480e-01 -1.65272146e-01 -1.02804504e-01
 -2.23432276e-02 -7.66568258e-02 -1.97887700e-02 -2.79099997e-02
 -1.15183301e-01 -9.71532911e-02 -4.33231555e-02 -3.78971063e-02
 -9.01368931e-02 -1.55575827e-01 -1.35258302e-01 -6.61270246e-02
 -5.75440153e-02 -1.38940692e-01 -9.41800848e-02 -3.91022339e-02
 -6.70828968e-02 -5.70223443e-02 -7.82851875e-02 -1.26699567e-01
 -7.33278692e-02 -2.67650653e-02 -3.88349369e-02 -3.81706133e-02
 -5.36329001e-02 -4.98167388e-02 -8.17447826e-02 -3.68189923e-02
 -1.10862516e-01 -7.76449144e-02 -6.42373934e-02 -4.61868569e-02
 -5.68137877e-02 -7.89651573e-02 -1.29996687e-01 -6.62936270e-02
 -9.12896171e-02 -1.30063921e-01 -9.46466699e-02 -5.47042070e-03
 -3.61307785e-02 -6.34433096e-03 -3.66558805e-02 -3.08224913e-02
 -6.00486845e-02 -6.76188022e-02 -9.07415897e-02 -7.24889413e-02
 -1.16557114e-01 -6.37615919e-02 -1.40142264e-02 -1.00431584e-01
 -2.25887913e-02 -5.37936836e-02 -5.52981459e-02 -1.80962700e-02
 -2.82707475e-02 -7.94342607e-02 -2.93729194e-02 -7.48947486e-02
 -1.19205885e-01 -4.45166305e-02 -1.39976041e-02 -7.20582604e-02
 -9.89690647e-02 -2.16775090e-02 -5.26232980e-02 -9.39599201e-02
 -3.56004573e-02 -8.20466205e-02 -1.02929711e-01 -2.72841733e-02
 -9.59768072e-02 -3.83209065e-02 -2.46628616e-02 -7.44709224e-02
 -1.46852732e-01 -1.02137670e-01 -9.84683335e-02 -5.24359085e-02
 -8.81220847e-02 -8.50292593e-02 -8.48353505e-02 -3.08380052e-02
 -1.09789409e-01 -4.12641130e-02 -8.94197598e-02 -4.52298038e-02
 -9.91527066e-02 -3.03485189e-02 -4.72146720e-02 -5.27230017e-02]
sequential/dense/kernel:0
(100, 1)
[[-0.18482094]
 [ 0.13172892]
 [-0.15813044]
 [-0.09205276]
 [-0.14695284]
 [ 0.12706207]
 [-0.14003603]
 [-0.19897239]
 [-0.14599697]
 [-0.14355   ]
 [-0.16772965]
 [ 0.10656118]
 [ 0.13564883]
 [-0.14035434]
 [-0.11273674]
 [-0.12085678]
 [ 0.15146673]
 [-0.18451275]
 [-0.16945498]
 [-0.19111958]
 [ 0.16153507]
 [-0.16205448]
 [-0.17659524]
 [ 0.1774295 ]
 [ 0.10734807]
 [ 0.17481944]
 [ 0.18016213]
 [-0.1650673 ]
 [ 0.16499929]
 [ 0.17782249]
 [-0.17668873]
 [ 0.14258702]
 [ 0.12009991]
 [ 0.16837545]
 [ 0.17777301]
 [ 0.13568223]
 [-0.1699271 ]
 [ 0.11971617]
 [ 0.15394442]
 [ 0.215337  ]
 [ 0.13578235]
 [ 0.19376604]
 [-0.18645355]
 [-0.11503971]
 [-0.1774436 ]
 [-0.1923907 ]
 [ 0.1306506 ]
 [-0.13238701]
 [ 0.12461658]
 [-0.17972282]
 [ 0.16500644]
 [ 0.12548521]
 [-0.19731851]
 [ 0.15304707]
 [ 0.17204085]
 [-0.12411859]
 [-0.19536681]
 [ 0.09797326]
 [-0.09353808]
 [ 0.18330957]
 [ 0.09562916]
 [-0.11764754]
 [-0.11506752]
 [-0.17096062]
 [-0.1588349 ]
 [ 0.1612131 ]
 [-0.13393314]
 [-0.17650454]
 [ 0.11170332]
 [-0.14502117]
 [ 0.13787141]
 [-0.20307606]
 [-0.20573293]
 [ 0.14597023]
 [ 0.10479049]
 [ 0.1735043 ]
 [-0.12651846]
 [ 0.21743912]
 [-0.12577249]
 [ 0.16466396]
 [ 0.13283665]
 [-0.12245695]
 [ 0.15167633]
 [ 0.1234389 ]
 [-0.15662944]
 [-0.19882832]
 [-0.17714213]
 [-0.12203325]
 [-0.14076191]
 [ 0.18722449]
 [-0.1132458 ]
 [ 0.21463813]
 [ 0.19491848]
 [-0.17551701]
 [-0.2187271 ]
 [-0.10758979]
 [ 0.11030388]
 [-0.12113551]
 [-0.12425295]
 [ 0.17289977]]
sequential/dense/bias:0
(1,)
[0.50711066]
