sequential/lstm/kernel:0
(1, 200)
[[ 0.08100288 -0.05153652  0.17404446 -0.10455836  0.17120017  0.10147481
   0.04859944  0.1901882   0.02311785 -0.14949472 -0.00333029  0.08144858
  -0.06959341 -0.11188041  0.1651453   0.21027294 -0.02834176  0.10904767
   0.17965683  0.11979884  0.12985395 -0.08172292  0.12560824  0.01962613
   0.11066263 -0.08213597  0.23334876  0.04040949 -0.11856297  0.04993328
   0.13844894  0.0270368  -0.0658662  -0.08376103 -0.03844696 -0.01860429
  -0.07593841  0.0530797  -0.00270055  0.1375034   0.19274539 -0.06750586
  -0.18925712  0.06919568  0.13194162 -0.14382088 -0.06222641  0.11365962
   0.04866407  0.08131888 -0.1442734   0.06965183 -0.09591421 -0.03182494
   0.19568616 -0.1666216  -0.14335978  0.16488847  0.00374725 -0.03334032
  -0.11537865  0.0836651   0.16154648 -0.06502101  0.12367453  0.17150632
   0.06852578  0.08758985 -0.0153553  -0.07098214  0.06320119  0.14745943
   0.13500062 -0.01535731  0.09757939 -0.11374386 -0.15318987 -0.06343578
  -0.15106308 -0.12158461  0.01083398  0.04921629  0.14188121  0.02533424
   0.00790143 -0.02039248  0.0733716   0.03401674  0.08568054  0.20337315
  -0.00934549  0.12695242 -0.0078619   0.03497519  0.06739278  0.15051891
  -0.1569868   0.13994306 -0.11799838 -0.0873379  -0.05582649  0.08140162
   0.07724277  0.17318009 -0.06156395 -0.01861962 -0.16943468 -0.08006833
  -0.00293586 -0.03903002  0.09407891  0.06038423  0.14564793 -0.12979534
  -0.07351964  0.10948607  0.16220263 -0.09892288  0.10140701 -0.05125151
   0.03156346  0.03968379  0.07737871 -0.12601516 -0.08271755  0.02613848
   0.13750783  0.14288047 -0.12279976 -0.00628732 -0.0034739   0.15117793
  -0.113992   -0.16455989  0.08822449  0.16692191  0.01246359 -0.0951665
   0.08539737  0.13789828 -0.15830623 -0.12777942  0.0110639  -0.00142632
  -0.09836672  0.02556693  0.14186276 -0.08551116 -0.05765342 -0.12674062
   0.05342174  0.14936897  0.06231788  0.1479268  -0.04231376 -0.074156
   0.09033402  0.12025654 -0.04028109 -0.16994955 -0.1199492  -0.01496021
   0.17913273  0.00398926 -0.09514226  0.20756947  0.09465898  0.08339248
   0.16247895  0.16637446 -0.08030993 -0.08363117  0.01163788  0.09548464
   0.14937313  0.08533962  0.24572341 -0.00176246  0.10621611  0.19222763
   0.08171939  0.0790627   0.16645947 -0.09091584  0.22763868 -0.05107336
  -0.20291914 -0.08137181  0.16778703  0.02080638 -0.00761119 -0.02912949
   0.01097083 -0.09705291  0.26649204 -0.06933481 -0.03362476  0.14013766
   0.10785796  0.14874884]]
sequential/lstm/recurrent_kernel:0
(50, 200)
[[-0.16614132  0.02144915  0.00174937 ... -0.02559627 -0.06983314
   0.18096083]
 [-0.12382241  0.00448883  0.076918   ...  0.13410982  0.05529564
  -0.00529691]
 [-0.0270129   0.02570498  0.02651579 ... -0.04430996  0.12083281
   0.08035976]
 ...
 [-0.07224364  0.03101768  0.02998202 ... -0.09396357 -0.07060322
  -0.08085682]
 [-0.04714455  0.06264276 -0.09049429 ... -0.07227841 -0.0863368
  -0.08947554]
 [ 0.01331742 -0.05390247 -0.04958415 ... -0.01651794  0.01663376
  -0.08134702]]
sequential/lstm/bias:0
(200,)
[ 1.6848747e-02  4.1294765e-02  1.8102648e-02  3.7751425e-02
  3.7111599e-02  1.4978042e-02  3.1095333e-02  1.2733097e-02
  9.1735404e-03  1.3221388e-02  1.3913531e-02  1.7177360e-02
  7.2276205e-02  2.1672251e-02  2.5375698e-02  2.7460517e-02
  4.4052493e-02  1.1519382e-01  7.7904731e-02  1.4507753e-02
 -2.2208011e-03 -1.9864622e-04  1.2451172e-02  6.6250013e-03
  7.3593207e-02 -5.8034007e-03  1.1458162e-01  1.8383296e-02
 -7.5481110e-03  1.6939139e-02  1.3312739e-02  8.3359955e-03
 -2.3943199e-05  4.8408192e-02  4.7656711e-02  1.9030906e-02
  1.1861765e-02  5.8225095e-03 -5.3237262e-04  1.2724257e-01
  3.4142204e-02 -1.3923087e-02  3.0498272e-03  1.4256906e-02
  9.0113588e-02 -1.0218726e-02  2.4809517e-02  8.1529720e-03
  1.0353420e-02  4.7611285e-02  1.0266066e+00  9.7620916e-01
  9.9479055e-01  9.9812382e-01  9.8604155e-01  1.0323857e+00
  9.7992510e-01  9.8369753e-01  1.0178599e+00  1.0332521e+00
  9.9470651e-01  9.2882174e-01  1.0045491e+00  9.9437273e-01
  9.8005104e-01  9.6691388e-01  9.9981219e-01  9.4896376e-01
  9.8315793e-01  1.0004069e+00  9.8979676e-01  1.0000657e+00
  1.0037270e+00  9.9062425e-01  9.4796562e-01  9.7755259e-01
  9.9576455e-01  9.9238122e-01  9.8364931e-01  1.0004823e+00
  1.0169389e+00  9.9239516e-01  9.9372298e-01  9.9192935e-01
  9.7945338e-01  9.8982990e-01  1.0297852e+00  1.0064441e+00
  9.8885387e-01  9.6756607e-01  9.8873162e-01  9.8164046e-01
  1.0334057e+00  1.0384669e+00  9.5473874e-01  9.9830091e-01
  9.8940635e-01  9.9446321e-01  9.6840250e-01  9.7926956e-01
  2.5603579e-02 -2.2087019e-02 -2.8302614e-02 -5.9140813e-02
  2.5994616e-02  1.8554911e-02  6.1637297e-02  2.6621791e-02
  1.2755114e-02  3.5711962e-03 -2.9618317e-02 -2.7109466e-02
 -5.6190316e-02  4.5275487e-02  2.2289205e-02 -4.2402424e-02
 -5.4383781e-02  3.6475029e-02 -3.1137373e-02  1.1992935e-02
 -1.5725024e-02 -1.1784880e-02 -2.9819466e-02  3.9592300e-02
  2.3967674e-02 -1.3956674e-02 -4.4577770e-02 -4.5587786e-02
  4.2776357e-02  3.8108153e-03 -3.6256590e-03 -4.5535557e-02
  2.7442057e-02  5.8828965e-02 -3.1958070e-02 -5.6766700e-02
 -2.0473696e-02  2.1986045e-02 -2.7592268e-02 -4.9271371e-02
  6.2919408e-02  4.1524820e-02 -5.7147392e-03 -2.4528587e-02
  3.0324079e-02 -1.4673119e-02 -4.6963234e-02  2.9992633e-02
  2.3728453e-02  4.5546517e-02  1.6427705e-02  4.1572616e-02
  1.8954651e-02  3.5312787e-02  3.9411608e-02  8.6618522e-03
  3.0102072e-02  1.2414162e-02  5.3622657e-03  1.1386084e-02
  1.4372128e-02  1.8380705e-02  7.1228564e-02  2.0773213e-02
  2.5890384e-02  2.6138630e-02  4.2592309e-02  1.1482126e-01
  7.7225216e-02  1.3968914e-02 -1.5281435e-03 -6.8435620e-04
  1.2390955e-02  6.1790138e-03  7.2181359e-02 -5.7490217e-03
  1.1087536e-01  1.8386753e-02 -7.6782233e-03  1.6426120e-02
  1.2876711e-02  8.0427295e-03  6.0659295e-07  4.9143828e-02
  4.4433475e-02  1.9155409e-02  6.9852723e-03  4.6216408e-03
 -9.9954626e-04  1.2641147e-01  3.5377376e-02 -1.3689605e-02
  1.7187477e-03  8.1023425e-03  8.8758655e-02 -9.9490387e-03
  2.4668781e-02  7.8080278e-03  1.0009998e-02  4.6570048e-02]
sequential/lstm_1/kernel:0
(50, 400)
[[-0.07763718 -0.05006831 -0.07400746 ... -0.11676623 -0.05923725
  -0.00829043]
 [-0.09114034  0.09597664 -0.09021797 ... -0.00779218  0.00530726
   0.10627075]
 [-0.07719876 -0.063446    0.00185654 ... -0.01423524  0.00435138
   0.02135802]
 ...
 [ 0.06646966 -0.00650757 -0.07218673 ...  0.10096332 -0.07511188
  -0.06554441]
 [-0.07847453 -0.12942506 -0.06430916 ... -0.08465977  0.03123339
  -0.0133419 ]
 [-0.10583125  0.048885   -0.07659297 ...  0.09414939  0.08425702
   0.085172  ]]
sequential/lstm_1/recurrent_kernel:0
(100, 400)
[[-0.01231833  0.01630281  0.07892458 ... -0.05356858  0.03235263
   0.01291303]
 [-0.08644922 -0.00978458  0.02804177 ...  0.05170237 -0.01874096
  -0.0539568 ]
 [ 0.07158421 -0.00617358  0.02127707 ... -0.15922509  0.00157231
   0.09046654]
 ...
 [-0.07563728  0.12528723 -0.0509238  ... -0.03969746 -0.07729948
   0.05620965]
 [ 0.05747768  0.11010404  0.00352754 ... -0.04290936  0.04087576
   0.02852096]
 [ 0.01427026 -0.02310564  0.00701071 ... -0.02801721  0.00682235
  -0.01523796]]
sequential/lstm_1/bias:0
(400,)
[-1.47400768e-02  3.02396668e-03 -3.28340605e-02  6.95057679e-03
 -1.16654867e-02 -3.70099023e-02 -5.29011413e-02 -2.25815512e-02
  1.35926735e-02 -3.13212653e-03  2.65050884e-02  1.66381076e-02
 -1.23587474e-02 -2.88637727e-02 -1.43911317e-03 -9.98086482e-03
 -2.03569494e-02 -3.48921753e-02 -3.92290093e-02 -1.95449758e-02
 -5.04162954e-03 -2.84771081e-02 -2.06124894e-02 -3.22050788e-03
 -9.49733891e-03 -4.19793697e-03 -2.74490956e-02 -3.82507406e-02
 -8.74297041e-03  2.66553299e-03  4.96984553e-03 -6.89599151e-03
 -1.79292597e-02 -1.32697821e-02 -2.54769623e-02 -1.83466438e-03
 -1.67995542e-02 -5.43000083e-03 -8.94444343e-03 -2.37986771e-03
  1.59670338e-02 -1.50481761e-02 -2.24989578e-02 -1.37528861e-02
 -4.55323560e-03 -2.90446393e-02 -2.55749505e-02  5.66114075e-02
  3.91580956e-03  8.01312998e-02 -5.71233127e-03  1.66526146e-03
  1.32940989e-03 -3.90581298e-03 -2.23452579e-02 -8.61576200e-03
 -1.60985738e-02 -8.60635936e-03  1.29071474e-02 -2.19659749e-02
  3.56244505e-03  1.22279068e-02  7.92734884e-03  6.75663026e-03
  1.94240897e-03 -1.65553074e-02  6.37608441e-03 -1.27275027e-02
 -2.47399230e-02 -4.99335723e-03  9.97927319e-03  1.03503736e-02
 -2.29605101e-02  3.35382973e-03 -5.94897289e-03 -2.12777182e-02
 -5.54930139e-03 -1.85430124e-02 -2.68102624e-02 -6.65955711e-04
 -1.48676997e-02 -4.67862887e-03  1.19384509e-02 -1.16452090e-02
 -4.95568886e-02 -2.42530126e-02 -1.87687743e-02 -5.71529102e-03
 -7.41710467e-03 -2.02239472e-02 -1.04427047e-03  1.62041094e-02
 -2.91574970e-02 -3.56510840e-03 -2.10785959e-02 -6.88688783e-03
 -2.02790536e-02  1.28144189e-03 -1.83834024e-02 -1.62716880e-02
  9.77782011e-01  9.94853735e-01  9.93842423e-01  1.00075114e+00
  9.74051237e-01  9.54953313e-01  9.46689010e-01  9.69445646e-01
  1.00031483e+00  9.65466082e-01  1.00265586e+00  1.00276136e+00
  9.79663253e-01  9.55881059e-01  9.92302120e-01  9.91467297e-01
  9.81470108e-01  9.72251594e-01  9.44055259e-01  9.78109360e-01
  9.97102976e-01  9.58356977e-01  9.76868868e-01  9.93951678e-01
  9.95032489e-01  9.92245972e-01  9.75066960e-01  9.56269920e-01
  9.79931176e-01  1.00100589e+00  9.92693543e-01  9.91689026e-01
  1.00199759e+00  9.89331722e-01  9.76282179e-01  9.97510970e-01
  9.76408005e-01  9.84828651e-01  9.91100907e-01  9.94634986e-01
  1.00056458e+00  9.75014031e-01  9.72507238e-01  1.00928760e+00
  9.77360129e-01  9.78944421e-01  9.88993526e-01  1.03390372e+00
  1.00022531e+00  1.02160847e+00  9.89298999e-01  1.00450373e+00
  9.75057542e-01  9.87082243e-01  9.74389017e-01  9.82726634e-01
  9.41157639e-01  9.90844786e-01  1.01825202e+00  9.74517882e-01
  1.00012600e+00  9.74139214e-01  1.00064361e+00  9.97417510e-01
  1.00011647e+00  9.85066235e-01  1.00374627e+00  9.85023320e-01
  9.57375348e-01  9.94901180e-01  1.00435293e+00  9.77880359e-01
  9.60093021e-01  1.00069082e+00  9.95552361e-01  9.81145859e-01
  9.94225144e-01  9.74513650e-01  9.77561057e-01  1.00325310e+00
  9.71106172e-01  9.89945173e-01  1.00008988e+00  9.85792220e-01
  9.73743021e-01  9.68352854e-01  9.79400694e-01  9.87868488e-01
  9.84322786e-01  9.66932714e-01  9.78500426e-01  1.00212955e+00
  9.73806202e-01  9.96998072e-01  9.76215661e-01  1.00409079e+00
  9.74480152e-01  1.01621890e+00  9.99693453e-01  9.86117601e-01
 -1.23679759e-02  1.42649338e-02  1.05488254e-02 -6.86236098e-03
 -1.35548562e-02  1.69997700e-02 -1.05722472e-02 -1.53223565e-02
 -1.75293926e-02 -1.70894023e-02 -1.86849628e-02  9.06814076e-03
  4.73763840e-03 -1.47648435e-02 -1.48873366e-02 -1.24792336e-02
  1.14063183e-02 -1.67123726e-04 -3.16702737e-03 -9.79540218e-03
  1.69072356e-02 -9.72362515e-03 -1.22041842e-02  1.78619511e-02
  2.69189849e-03  1.76183786e-02  7.40809040e-03 -1.22602982e-02
  1.35628935e-02  1.68965030e-02 -1.88575257e-02  1.00850705e-02
 -4.47662454e-03  1.61990318e-02  8.97386484e-03  1.85866002e-02
 -8.49477574e-03  1.11406250e-02  4.31270571e-03  1.94145367e-02
  1.46319671e-02  1.27475001e-02 -8.09251517e-03  9.36870184e-03
 -1.61748417e-02 -6.76452043e-03 -2.42996123e-03 -2.50350833e-02
  7.85363838e-03 -2.62025185e-02  1.35831395e-02  1.44997630e-02
 -1.79468021e-02  1.17286239e-02  1.14721442e-02  4.14719293e-03
 -1.44780893e-02  5.56985615e-03 -7.36120855e-03  1.33477859e-02
  1.22922417e-02 -1.31776538e-02 -7.82346819e-03 -1.64432414e-02
 -1.89008825e-02  1.16091846e-02 -1.48591893e-02 -1.64998472e-02
  1.49499690e-02 -1.06612882e-02  2.03024615e-02 -5.97362965e-03
 -1.53404428e-02  1.60533041e-02  1.34184666e-03  1.05351675e-02
 -1.62577685e-02  1.33429235e-02 -7.85872620e-03  2.06296146e-02
  2.58002779e-03 -1.26523962e-02  1.85740069e-02  5.03705861e-03
 -2.30582431e-03 -1.77795254e-02 -2.10705982e-03 -1.28942002e-02
 -5.26765222e-03  1.27171511e-02 -6.02403888e-03  2.22211257e-02
  7.08332658e-03 -1.15850354e-02 -7.99450651e-03  5.68770105e-03
  1.10372324e-02  4.64408984e-03  8.99383985e-03  1.39969103e-02
 -1.69783998e-02  2.96830712e-03 -3.29105370e-02  4.74011898e-03
 -1.27438391e-02 -3.77437063e-02 -5.50441220e-02 -2.26456914e-02
  1.32082906e-02 -2.92820018e-03  2.48705149e-02  1.46498606e-02
 -1.35184359e-02 -2.97349449e-02 -1.82165729e-03 -1.01412786e-02
 -2.12652273e-02 -3.53267714e-02 -4.29083854e-02 -1.99562032e-02
 -5.87701565e-03 -2.94792149e-02 -2.19128802e-02 -3.83949792e-03
 -1.01167699e-02 -5.26481820e-03 -2.79853009e-02 -4.03315350e-02
 -9.56608821e-03  3.28518334e-03  4.34352597e-03 -7.34922569e-03
 -1.87787060e-02 -1.29616465e-02 -2.54740845e-02 -2.18874030e-03
 -1.71110313e-02 -6.84500253e-03 -9.24590603e-03 -2.74871010e-03
  1.53322499e-02 -1.56465471e-02 -2.34142970e-02 -1.34909749e-02
 -5.37247863e-03 -2.98783835e-02 -2.67124996e-02  5.52331880e-02
  3.70523403e-03  7.71982968e-02 -5.36036119e-03  9.83266858e-04
  6.24370819e-04 -4.08598408e-03 -2.21670680e-02 -1.00802192e-02
 -1.91130489e-02 -9.15360730e-03  1.25831943e-02 -2.19794400e-02
  3.26762977e-03  1.05761411e-02  6.76328409e-03  6.29625563e-03
  1.37673109e-03 -1.61947533e-02  4.92159370e-03 -1.35398014e-02
 -2.53749490e-02 -5.54087432e-03  8.91014561e-03  1.06926076e-02
 -2.37933025e-02  2.88433931e-03 -6.23003393e-03 -2.05905791e-02
 -5.68927918e-03 -1.86125096e-02 -2.71811150e-02 -6.31275296e-04
 -1.51537182e-02 -5.34264697e-03  1.06123639e-02 -1.14113074e-02
 -4.95399013e-02 -2.49919724e-02 -1.91942696e-02 -7.15956232e-03
 -9.07118991e-03 -2.01337151e-02 -2.69401050e-03  1.53066609e-02
 -2.96545122e-02 -3.60822328e-03 -2.09017564e-02 -6.62195077e-03
 -2.03393586e-02  1.55421661e-03 -1.90677885e-02 -1.61479954e-02]
sequential/dense/kernel:0
(100, 1)
[[-0.220298  ]
 [ 0.14445256]
 [-0.16059546]
 [-0.07977874]
 [-0.14117119]
 [ 0.10836727]
 [-0.14138474]
 [-0.2225248 ]
 [-0.15001455]
 [-0.13518529]
 [-0.18799728]
 [ 0.1043477 ]
 [ 0.13287297]
 [-0.12807558]
 [-0.08940782]
 [-0.12693912]
 [ 0.16136737]
 [-0.19831978]
 [-0.17290445]
 [-0.21268842]
 [ 0.1817896 ]
 [-0.16867922]
 [-0.1870165 ]
 [ 0.19485869]
 [ 0.0882829 ]
 [ 0.20167394]
 [ 0.19295418]
 [-0.17278904]
 [ 0.19340175]
 [ 0.20575702]
 [-0.20655072]
 [ 0.14675508]
 [ 0.08922762]
 [ 0.18668227]
 [ 0.19145551]
 [ 0.13794982]
 [-0.18316737]
 [ 0.0968161 ]
 [ 0.17778371]
 [ 0.24462302]
 [ 0.14213622]
 [ 0.21086687]
 [-0.19700254]
 [-0.10467049]
 [-0.19021039]
 [-0.21461186]
 [ 0.10837334]
 [-0.126627  ]
 [ 0.11657368]
 [-0.2138662 ]
 [ 0.17988463]
 [ 0.13180563]
 [-0.21297657]
 [ 0.15320052]
 [ 0.1856989 ]
 [-0.10525611]
 [-0.20908311]
 [ 0.08008029]
 [ 0.07693119]
 [ 0.19358762]
 [ 0.08100814]
 [-0.09901097]
 [-0.10356022]
 [-0.18114984]
 [-0.17203347]
 [ 0.18376379]
 [-0.1282504 ]
 [-0.19960089]
 [ 0.0868573 ]
 [-0.16309774]
 [ 0.13744612]
 [-0.22046083]
 [-0.22106653]
 [ 0.1620511 ]
 [ 0.07812536]
 [ 0.19650118]
 [-0.13236271]
 [ 0.23912948]
 [-0.1009929 ]
 [ 0.1888147 ]
 [ 0.1204704 ]
 [-0.12843633]
 [ 0.15282479]
 [ 0.11183162]
 [-0.15396243]
 [-0.2215305 ]
 [-0.20299628]
 [-0.11098035]
 [-0.13541906]
 [ 0.19884531]
 [-0.09846281]
 [ 0.25035536]
 [ 0.20530275]
 [-0.21807656]
 [-0.23256566]
 [-0.09481391]
 [ 0.08700757]
 [-0.09634183]
 [-0.1042781 ]
 [ 0.18165876]]
sequential/dense/bias:0
(1,)
[0.22712469]
