sequential/lstm/kernel:0
(1, 200)
[[ 0.0894189  -0.0652936   0.16867055 -0.1116967   0.15356922  0.11389069
   0.03150972  0.19253628  0.02207512 -0.10460811 -0.00283456  0.04306828
  -0.05951717 -0.11330546  0.16592464  0.20780765 -0.02951275  0.06386653
   0.15332577  0.1209036   0.14235984 -0.05543805  0.15117969  0.02197334
   0.1203749  -0.09800838  0.23649544  0.04860653 -0.15058225  0.05569626
   0.15796472  0.03621756 -0.05754014 -0.09592555 -0.05228795 -0.01620612
  -0.07752002  0.0758878   0.02284735  0.09095925  0.18961571 -0.07185714
  -0.13938509  0.07152928  0.11857902 -0.10295561 -0.0726548   0.1166614
   0.04937316  0.06541807 -0.13631032  0.08115058 -0.0918782  -0.02521656
   0.20005214 -0.15195367 -0.14044729  0.17742209  0.00223217 -0.01716811
  -0.10661715  0.08407782  0.18379715 -0.0559203   0.14251491  0.18854198
   0.08054131  0.10697418  0.00499528 -0.05821063  0.07496738  0.167941
   0.16053689 -0.00878782  0.15126836 -0.11597046 -0.1068617  -0.04690433
  -0.17055349 -0.10935763  0.02533821  0.06327676  0.1490817   0.03370875
   0.01901509 -0.00775354  0.0654334   0.05425407  0.11013518  0.22742854
   0.00568983  0.12483741  0.00889586  0.03083099  0.10705915  0.17776015
  -0.15317339  0.14677308 -0.10372126 -0.07591183 -0.05879416  0.06134648
   0.06387009  0.16592182 -0.04696292 -0.02435678 -0.15239248 -0.07016096
  -0.01315762 -0.02702625  0.07789236  0.02728158  0.13935229 -0.11249027
  -0.05433695  0.10188808  0.15325986 -0.06446137  0.07289143 -0.03632485
   0.02728109  0.03522145  0.07327925 -0.12251042 -0.03687376  0.0011722
   0.12782669  0.12220808 -0.12540208  0.00601787 -0.00157578  0.14594427
  -0.10942566 -0.15273373  0.06912364  0.14889267  0.01705291 -0.0890264
   0.07621955  0.10781519 -0.15063526 -0.12271038  0.02151885  0.00228656
  -0.07117027  0.01938134  0.11973803 -0.08291031 -0.04534666 -0.1125761
   0.07106787  0.12920734  0.05537447  0.1364305  -0.06661777 -0.04833617
   0.0686876   0.11972985 -0.03904283 -0.11713354 -0.12082665 -0.06493634
   0.18259485 -0.00034131 -0.09771232  0.19763923  0.08853805  0.02405364
   0.12444163  0.16897428 -0.06821052 -0.05433633  0.03766657  0.09532363
   0.14897932  0.06768634  0.24767937  0.00371269  0.06756013  0.19558105
   0.10422646  0.08589522  0.17306519 -0.10717432  0.2065944  -0.05211364
  -0.19198829 -0.05292416  0.19016533 -0.02855456 -0.01157185 -0.03437645
   0.0612473  -0.08105144  0.2422628  -0.02771207 -0.04721127  0.14089887
   0.10771953  0.12494422]]
sequential/lstm/recurrent_kernel:0
(50, 200)
[[-0.17398569 -0.00026529 -0.00099093 ... -0.0226398  -0.06799503
   0.17887652]
 [-0.10755549  0.00871312  0.07475296 ...  0.13582993  0.06634296
  -0.0006399 ]
 [-0.03372675  0.02100658  0.03153198 ... -0.0417096   0.12528051
   0.07959349]
 ...
 [-0.07932078  0.03155143  0.02722427 ... -0.09591649 -0.06946491
  -0.0794317 ]
 [-0.04894443  0.05904005 -0.0936892  ... -0.07356557 -0.09381817
  -0.09593599]
 [ 0.02474657 -0.05546415 -0.05313595 ... -0.01791468  0.01067877
  -0.07866266]]
sequential/lstm/bias:0
(200,)
[ 1.70763973e-02  5.64870564e-03  1.76802254e-03  2.15734877e-02
  1.14456732e-02  1.90438926e-02  1.06445549e-03  5.70802018e-03
 -6.24212611e-04  3.15135792e-02  9.86181316e-04 -4.44194973e-02
  4.96554486e-02  9.82695166e-03  9.82802641e-03  7.32139405e-03
  2.52555292e-02  1.24938590e-02  1.45860529e-02 -1.42868294e-03
 -7.57134869e-04 -6.25675078e-04  1.29219713e-02  1.86940888e-03
 -1.96064431e-02 -2.12922134e-02  5.51773719e-02  1.26683479e-02
 -1.77440606e-02  1.04292668e-02  9.27544944e-03  5.32350829e-03
 -2.60404428e-03  1.44486595e-02  1.80283301e-02  7.28667853e-03
  4.31355322e-03 -1.10543973e-03  2.71875015e-03  4.99455910e-03
  1.04776472e-02 -1.86188333e-02  2.13435590e-02  2.34012492e-02
  2.57139560e-02  5.98330284e-04  1.79507735e-03  7.42919929e-03
 -2.70494726e-03  3.79070500e-03  1.03544319e+00  9.89521086e-01
  9.90665436e-01  1.00763309e+00  9.97001827e-01  1.04872406e+00
  9.84063208e-01  9.90833104e-01  1.01421261e+00  1.02986324e+00
  9.95544732e-01  9.45106268e-01  1.01761687e+00  1.00065315e+00
  9.97560561e-01  9.80242491e-01  1.00793314e+00  9.81534004e-01
  9.99554574e-01  1.00997221e+00  9.87055123e-01  9.96037483e-01
  1.00449705e+00  9.92331445e-01  9.75900233e-01  9.81170833e-01
  1.02215815e+00  1.00170231e+00  9.93822157e-01  1.00745285e+00
  1.00907409e+00  9.97477770e-01  9.90451932e-01  9.92070675e-01
  9.96746302e-01  9.96347189e-01  1.02020419e+00  9.99635756e-01
  9.92334902e-01  9.73385274e-01  9.94414747e-01  9.80285585e-01
  1.02032840e+00  1.04662120e+00  9.95386720e-01  9.93150771e-01
  9.92315531e-01  1.00006926e+00  9.79048014e-01  9.79680121e-01
  2.59551071e-02 -2.30346825e-02 -3.43033373e-02 -6.60012215e-02
  2.44584344e-02  2.19480582e-02  7.13870749e-02  3.57432179e-02
  1.35630257e-02  1.37886284e-02 -3.51989679e-02 -2.00403258e-02
 -6.64717481e-02  5.32868356e-02  2.48287041e-02 -4.77744602e-02
 -6.34828955e-02  4.35067303e-02 -3.46942283e-02  1.33746872e-02
 -2.36377437e-02 -2.07883585e-02 -4.20491844e-02  4.54181358e-02
  2.02796832e-02 -1.21440440e-02 -5.56670912e-02 -6.21814132e-02
  1.36106238e-02  3.14007630e-03  9.29558941e-04 -5.53045832e-02
  3.93209681e-02  6.66198209e-02 -3.41264196e-02 -6.60562962e-02
 -2.31900346e-02  3.28494608e-02 -3.99883166e-02 -5.88089898e-02
  7.18694180e-02  4.40002009e-02 -8.98413546e-03 -2.06712931e-02
  3.42815369e-02 -2.18287054e-02 -5.35155796e-02  3.69267911e-02
  2.94108856e-02  5.20130433e-02  1.67904589e-02  3.81400366e-03
  4.32511838e-03  1.91866029e-02  1.50764268e-02  1.31272553e-02
  6.86640269e-04  6.11751899e-03 -3.71457404e-03  3.12720835e-02
  2.46759667e-03 -4.14560251e-02  4.52721529e-02  9.17937607e-03
  1.34578841e-02  5.50195668e-03  2.33247168e-02  1.23018352e-02
  1.45168360e-02 -9.13574127e-04  9.25045286e-04 -4.16532101e-04
  1.46366758e-02  1.60657661e-03 -2.05177125e-02 -2.11051106e-02
  5.36333621e-02  1.31975729e-02 -1.69124622e-02  9.01441462e-03
  9.40780714e-03  4.93704155e-03 -2.82202056e-03  1.42984539e-02
  1.26921292e-02  8.64183716e-03 -2.13889551e-04  2.76872655e-04
  1.07822870e-03  7.00734556e-03  1.39669431e-02 -1.80532951e-02
  2.01273356e-02  1.55243203e-02  2.06265245e-02  5.42987691e-05
  1.71030359e-03  7.16872467e-03 -2.81716860e-03  9.79722710e-04]
sequential/lstm_1/kernel:0
(50, 400)
[[-0.06886294 -0.05632022 -0.054389   ... -0.14361747 -0.05601098
   0.00106849]
 [-0.10275539  0.07700423 -0.09525704 ... -0.05241824  0.00529545
   0.11641375]
 [-0.09894758 -0.06673608 -0.00180954 ... -0.04773536 -0.04751999
   0.0112067 ]
 ...
 [ 0.06366325 -0.00266937 -0.07388746 ...  0.1021029  -0.07024156
  -0.06032757]
 [-0.10034929 -0.12737606 -0.08555137 ... -0.08098526  0.03105667
  -0.02078099]
 [-0.09899     0.05415596 -0.08682398 ...  0.10284503  0.06450036
   0.08325569]]
sequential/lstm_1/recurrent_kernel:0
(100, 400)
[[ 0.00308839  0.04129396  0.06509643 ... -0.04053109  0.01147521
   0.02566342]
 [-0.08628062 -0.01519884  0.03378234 ...  0.03440673 -0.03269932
  -0.04974275]
 [ 0.0554507  -0.00102285  0.01800787 ... -0.1695444  -0.01907209
   0.08545645]
 ...
 [-0.09744652  0.13243333 -0.07567229 ... -0.02560838 -0.08846596
   0.04802919]
 [ 0.04232415  0.12393323 -0.01431112 ... -0.03806523  0.03155445
   0.03083227]
 [ 0.00644145 -0.03071836  0.02842185 ... -0.04909895 -0.00334524
  -0.01473492]]
sequential/lstm_1/bias:0
(400,)
[-3.89591381e-02 -6.05058530e-03 -1.36329709e-02 -2.07511825e-03
 -3.60434055e-02 -3.33149768e-02 -5.95350452e-02 -3.65807451e-02
  1.32105057e-03 -2.10505389e-02  5.62161161e-03  7.78954662e-03
 -2.06832588e-02 -3.62026468e-02 -7.30199646e-03 -1.02154044e-02
 -2.54440717e-02 -3.61158475e-02 -6.68538734e-02 -2.58759595e-02
 -1.57319494e-02 -4.89931442e-02 -2.92783603e-02 -9.23169311e-03
 -2.47273277e-02 -1.65051501e-02 -3.43087018e-02 -3.80407460e-02
 -2.31252871e-02 -5.27595449e-03 -7.56198727e-03 -1.03123393e-02
 -1.37506826e-02 -2.05479711e-02 -3.06243356e-02 -3.63637554e-03
 -3.71418484e-02 -1.41271390e-02 -1.60687212e-02 -1.25543354e-02
 -5.02310600e-03 -2.33681705e-02 -2.75589190e-02 -2.32568588e-02
 -2.58724354e-02 -2.74033863e-02 -3.49611156e-02  8.21594242e-03
 -7.86751043e-03 -1.71179380e-02 -1.03798900e-02 -3.28733213e-03
 -3.02667823e-02 -1.03361774e-02 -2.95159761e-02 -2.37901416e-02
 -6.25758469e-02 -1.27138523e-02  1.56972222e-02 -2.59798542e-02
  3.56348115e-03 -1.40603753e-02 -3.81370395e-04 -4.17506635e-05
 -1.50626840e-03 -2.37616803e-02  3.65523132e-03 -2.09649894e-02
 -3.01238298e-02 -8.89841095e-03  5.57816168e-03 -2.50395238e-02
 -4.78340276e-02 -1.27170599e-04 -6.19223481e-03 -2.76176576e-02
 -8.18668958e-03 -4.14755978e-02 -2.58004218e-02 -7.66111771e-03
 -1.96512975e-02 -4.35057376e-03  2.03703553e-03 -1.98918302e-02
 -3.22265662e-02 -3.68172377e-02 -2.72801630e-02 -9.45550855e-03
 -2.44896077e-02 -2.64865346e-02 -1.73563510e-02  4.03752411e-03
 -3.70402858e-02 -6.04925724e-03 -3.17972675e-02 -6.89038960e-03
 -2.15435028e-02 -1.59266102e-03 -1.44394850e-02 -2.10150890e-02
  9.83309925e-01  9.95388925e-01  9.97607172e-01  1.00498307e+00
  9.73504901e-01  9.79169786e-01  9.53703761e-01  9.70129967e-01
  1.00190318e+00  9.75074828e-01  1.00996709e+00  1.00930023e+00
  9.83605564e-01  9.69923615e-01  9.90974426e-01  9.92478788e-01
  9.90994871e-01  9.76542592e-01  9.53704059e-01  9.80570853e-01
  1.00017440e+00  9.66515541e-01  9.81441677e-01  1.00009012e+00
  9.76490438e-01  9.92218018e-01  9.77775931e-01  9.82217312e-01
  9.83235598e-01  1.00347793e+00  9.97659564e-01  9.93109941e-01
  1.00050640e+00  9.88549173e-01  9.78304982e-01  1.00138247e+00
  9.77189779e-01  9.89351869e-01  9.92205620e-01  9.94804919e-01
  1.00817168e+00  9.82550621e-01  9.75696087e-01  9.95850146e-01
  9.87810016e-01  9.90775228e-01  9.75469828e-01  1.01285350e+00
  9.96827006e-01  1.00438738e+00  9.92570758e-01  1.00039542e+00
  9.89318132e-01  9.94315922e-01  9.69841778e-01  9.83784139e-01
  9.58814383e-01  9.89007711e-01  1.01628029e+00  9.79503155e-01
  1.00380945e+00  9.80131984e-01  9.97315645e-01  1.00150430e+00
  1.00321627e+00  9.84170914e-01  1.00894344e+00  9.87316072e-01
  9.67228591e-01  9.94116902e-01  1.01030588e+00  9.81188953e-01
  9.69783843e-01  1.00207627e+00  9.96296227e-01  9.80129957e-01
  9.95706558e-01  9.72581744e-01  9.83198345e-01  1.00313246e+00
  9.87712502e-01  9.93881106e-01  1.00200677e+00  9.87341523e-01
  9.81492639e-01  9.71537948e-01  9.80849504e-01  9.95744944e-01
  9.84045982e-01  9.76896167e-01  9.83644783e-01  1.01335180e+00
  9.77486193e-01  9.97277439e-01  9.78222251e-01  9.98337865e-01
  9.82972205e-01  1.00811839e+00  9.96804953e-01  9.86942947e-01
 -1.19901160e-02  2.08598115e-02  1.85110755e-02 -6.50091050e-03
 -8.64735618e-03  1.40462341e-02 -6.58548810e-03 -1.07956482e-02
 -2.16574781e-02 -1.34195490e-02 -2.51002759e-02  1.22652445e-02
  1.51105074e-03 -1.40668387e-02 -1.62898172e-02 -1.97063778e-02
  1.88388452e-02  8.96119862e-04 -6.19273726e-03 -1.20099569e-02
  1.74356122e-02 -1.88197028e-02 -1.62735507e-02  2.29148250e-02
 -3.58343031e-03  1.90331731e-02  1.26330387e-02 -1.97952036e-02
  1.22109996e-02  2.09202059e-02 -2.10830290e-02  2.05526985e-02
 -9.77645069e-03  2.07457729e-02  1.14586568e-02  1.90523043e-02
 -1.26395617e-02  1.15681626e-02  1.20827658e-02  2.34565977e-02
  1.63863786e-02  1.85114797e-02 -9.90868825e-03  1.28777698e-02
 -8.01228732e-03 -1.27299614e-02  2.61609163e-03 -2.47670319e-02
  7.52636371e-03 -2.28229761e-02  1.71407834e-02  1.96664408e-02
 -2.17902176e-02  1.44035425e-02  1.46615161e-02  7.16877310e-03
 -9.83835012e-03  1.25580356e-02 -2.65440084e-02  1.25404131e-02
  1.94438770e-02 -1.63813867e-02 -1.42673319e-02 -1.92966256e-02
 -2.45459415e-02  1.22885872e-02 -2.32522320e-02 -1.94935612e-02
  1.33523475e-02 -1.33249145e-02  2.38518938e-02 -5.55763906e-03
 -1.94311198e-02  1.90576445e-02 -2.55607556e-05  1.60480794e-02
 -1.64793432e-02  1.39430696e-02 -1.57404579e-02  2.43891496e-02
  3.78906005e-03 -1.71706546e-02  1.90479401e-02  7.35782180e-03
  7.29746837e-03 -2.22248808e-02 -5.76958852e-03 -1.54765844e-02
 -1.11152427e-02  1.27478437e-02  1.74364611e-03  2.61671580e-02
  1.32372268e-02 -1.50355222e-02 -7.94253033e-03  3.39514599e-03
  1.56797320e-02  5.18646603e-03  1.14169735e-02  1.81428380e-02
 -4.41385321e-02 -6.16930146e-03 -1.44914677e-02 -4.57844744e-03
 -3.78191434e-02 -3.40675078e-02 -6.27336502e-02 -3.68823223e-02
  8.89800605e-04 -2.20504384e-02  4.20150766e-03  5.30786440e-03
 -2.20546331e-02 -3.79726291e-02 -8.00781045e-03 -1.05627244e-02
 -2.71120816e-02 -3.69937532e-02 -7.18655139e-02 -2.62570772e-02
 -1.69154163e-02 -5.07877432e-02 -3.13258767e-02 -1.00752544e-02
 -2.56050378e-02 -1.75452232e-02 -3.50100026e-02 -4.00644280e-02
 -2.43014786e-02 -4.57440643e-03 -8.03977717e-03 -1.09050013e-02
 -1.46361152e-02 -2.03393102e-02 -3.04489303e-02 -4.18053847e-03
 -3.82595286e-02 -1.50589086e-02 -1.61648858e-02 -1.24587221e-02
 -6.87249750e-03 -2.41246372e-02 -2.99547072e-02 -2.35862564e-02
 -2.69244816e-02 -2.91646738e-02 -3.72763649e-02  6.55772816e-03
 -8.95891804e-03 -2.06755344e-02 -9.72377881e-03 -3.96965398e-03
 -3.18877734e-02 -1.07775219e-02 -3.01343631e-02 -2.63605900e-02
 -6.50223643e-02 -1.38459457e-02  1.44666731e-02 -2.60247365e-02
  2.77163112e-03 -1.57268941e-02 -1.83720666e-03 -8.69097305e-04
 -1.95301778e-03 -2.35767514e-02  1.85421284e-03 -2.16081720e-02
 -3.05899400e-02 -9.72759165e-03  4.52508125e-03 -2.57876255e-02
 -4.94306274e-02 -8.54376529e-04 -6.40824577e-03 -2.63260603e-02
 -8.48598033e-03 -4.24539112e-02 -2.65679043e-02 -7.57115614e-03
 -2.07358617e-02 -5.02054673e-03  7.68941944e-04 -2.07268558e-02
 -3.28440852e-02 -3.77516523e-02 -2.78423671e-02 -1.09768920e-02
 -2.50696614e-02 -2.68932376e-02 -1.85433310e-02  3.49393138e-03
 -3.71883810e-02 -6.30368711e-03 -3.18458788e-02 -7.75355007e-03
 -2.22950913e-02 -2.58560618e-03 -1.57572273e-02 -2.05684677e-02]
sequential/dense/kernel:0
(100, 1)
[[-0.20114873]
 [ 0.12661904]
 [-0.17312984]
 [-0.07615748]
 [-0.13145238]
 [ 0.11929628]
 [-0.14607535]
 [-0.21464555]
 [-0.13023885]
 [-0.13033181]
 [-0.16883965]
 [ 0.08897496]
 [ 0.1314808 ]
 [-0.12450428]
 [-0.08615678]
 [-0.12636985]
 [ 0.15559925]
 [-0.20000601]
 [-0.16923429]
 [-0.20678885]
 [ 0.16650274]
 [-0.16338894]
 [-0.18161839]
 [ 0.18614213]
 [ 0.09552892]
 [ 0.19127515]
 [ 0.18872227]
 [-0.16900851]
 [ 0.18623468]
 [ 0.19164245]
 [-0.19210279]
 [ 0.1413675 ]
 [ 0.0954452 ]
 [ 0.17471139]
 [ 0.1844291 ]
 [ 0.135569  ]
 [-0.1778771 ]
 [ 0.09440676]
 [ 0.16704844]
 [ 0.23573594]
 [ 0.13182913]
 [ 0.20227292]
 [-0.19393246]
 [-0.10895891]
 [-0.18330504]
 [-0.21610422]
 [ 0.11605961]
 [-0.10242464]
 [ 0.10806286]
 [-0.18049063]
 [ 0.17342634]
 [ 0.12377065]
 [-0.19492796]
 [ 0.14662859]
 [ 0.18255258]
 [-0.09670953]
 [-0.19769539]
 [ 0.08001326]
 [-0.07757113]
 [ 0.19265771]
 [ 0.07998142]
 [-0.08899918]
 [-0.10029256]
 [-0.16708943]
 [-0.16616146]
 [ 0.17301632]
 [-0.12069783]
 [-0.18879613]
 [ 0.08763556]
 [-0.15809323]
 [ 0.12489253]
 [-0.20300446]
 [-0.210773  ]
 [ 0.14978892]
 [ 0.08056524]
 [ 0.19450976]
 [-0.12795639]
 [ 0.22312109]
 [-0.10282245]
 [ 0.1774582 ]
 [ 0.12110486]
 [-0.11644757]
 [ 0.1395908 ]
 [ 0.11012726]
 [-0.15853882]
 [-0.21190973]
 [-0.19817045]
 [-0.10894565]
 [-0.13124254]
 [ 0.19406402]
 [-0.08713386]
 [ 0.23171414]
 [ 0.20212695]
 [-0.21193351]
 [-0.22407807]
 [-0.09943444]
 [ 0.08706717]
 [-0.10338537]
 [-0.11293536]
 [ 0.17658977]]
sequential/dense/bias:0
(1,)
[0.28528297]
